digraph Tree {
node [shape=box, style="filled, rounded", color="black", fontname="helvetica"] ;
edge [fontname="helvetica"] ;
0 [label=<trans_time7 &le; 1.053<br/>gini = 0.675<br/>samples = 3494<br/>value = [161, 948, 1644, 572, 75, 5, 3, 86]<br/>class = 2>, fillcolor="#cdf8c9"] ;
1 [label=<size8 &le; 217.003<br/>gini = 0.602<br/>samples = 886<br/>value = [151, 486, 230, 13, 3, 1, 2, 0]<br/>class = 1>, fillcolor="#eaf5b2"] ;
0 -> 1 [labeldistance=2.5, labelangle=45, headlabel="True"] ;
2 [label=<delivery_rate5 &le; 351.531<br/>gini = 0.5<br/>samples = 560<br/>value = [151, 363, 46, 0, 0, 0, 0, 0]<br/>class = 1>, fillcolor="#e2f298"] ;
1 -> 2 ;
3 [label=<size8 &le; 40.3<br/>gini = 0.367<br/>samples = 428<br/>value = [48, 334, 46, 0, 0, 0, 0, 0]<br/>class = 1>, fillcolor="#d6eb6a"] ;
2 -> 3 ;
4 [label=<gini = 0.494<br/>samples = 87<br/>value = [35, 51, 1, 0, 0, 0, 0, 0]<br/>class = 1>, fillcolor="#eef7c2"] ;
3 -> 4 ;
5 [label=<size2 &le; 16.05<br/>gini = 0.292<br/>samples = 341<br/>value = [13, 283, 45, 0, 0, 0, 0, 0]<br/>class = 1>, fillcolor="#d3ea60"] ;
3 -> 5 ;
6 [label=<gini = 0.615<br/>samples = 20<br/>value = [9, 3, 8, 0, 0, 0, 0, 0]<br/>class = 0>, fillcolor="#fdf5ef"] ;
5 -> 6 ;
7 [label=<delivery_rate8 &le; 75.684<br/>gini = 0.226<br/>samples = 321<br/>value = [4, 280, 37, 0, 0, 0, 0, 0]<br/>class = 1>, fillcolor="#d0e956"] ;
5 -> 7 ;
8 [label=<gini = 0.491<br/>samples = 23<br/>value = [0, 10, 13, 0, 0, 0, 0, 0]<br/>class = 2>, fillcolor="#d5f9d1"] ;
7 -> 8 ;
9 [label=<rtt8 &le; 0.101<br/>gini = 0.172<br/>samples = 298<br/>value = [4, 270, 24, 0, 0, 0, 0, 0]<br/>class = 1>, fillcolor="#cee84d"] ;
7 -> 9 ;
10 [label=<gini = 0.48<br/>samples = 5<br/>value = [0, 2, 3, 0, 0, 0, 0, 0]<br/>class = 2>, fillcolor="#c2f6bd"] ;
9 -> 10 ;
11 [label=<size3 &le; 13.632<br/>gini = 0.158<br/>samples = 293<br/>value = [4, 268, 21, 0, 0, 0, 0, 0]<br/>class = 1>, fillcolor="#cde74b"] ;
9 -> 11 ;
12 [label=<gini = 0.444<br/>samples = 3<br/>value = [0, 1, 2, 0, 0, 0, 0, 0]<br/>class = 2>, fillcolor="#a3f29c"] ;
11 -> 12 ;
13 [label=<delivery_rate6 &le; 3.393<br/>gini = 0.148<br/>samples = 290<br/>value = [4, 267, 19, 0, 0, 0, 0, 0]<br/>class = 1>, fillcolor="#cde74a"] ;
11 -> 13 ;
14 [label=<gini = 0.444<br/>samples = 3<br/>value = [0, 1, 2, 0, 0, 0, 0, 0]<br/>class = 2>, fillcolor="#a3f29c"] ;
13 -> 14 ;
15 [label=<cwnd0 &le; 512.5<br/>gini = 0.137<br/>samples = 287<br/>value = [4, 266, 17, 0, 0, 0, 0, 0]<br/>class = 1>, fillcolor="#cce748"] ;
13 -> 15 ;
16 [label=<size5 &le; 544.84<br/>gini = 0.131<br/>samples = 286<br/>value = [3, 266, 17, 0, 0, 0, 0, 0]<br/>class = 1>, fillcolor="#cce748"] ;
15 -> 16 ;
17 [label=<delivery_rate8 &le; 173.708<br/>gini = 0.125<br/>samples = 285<br/>value = [2, 266, 17, 0, 0, 0, 0, 0]<br/>class = 1>, fillcolor="#cce747"] ;
16 -> 17 ;
18 [label=<size8 &le; 90.956<br/>gini = 0.23<br/>samples = 98<br/>value = [0, 85, 13, 0, 0, 0, 0, 0]<br/>class = 1>, fillcolor="#d0e957"] ;
17 -> 18 ;
19 [label=<gini = 0.0<br/>samples = 78<br/>value = [0, 78, 0, 0, 0, 0, 0, 0]<br/>class = 1>, fillcolor="#c8e539"] ;
18 -> 19 ;
20 [label=<gini = 0.455<br/>samples = 20<br/>value = [0, 7, 13, 0, 0, 0, 0, 0]<br/>class = 2>, fillcolor="#aaf3a4"] ;
18 -> 20 ;
21 [label=<gini = 0.063<br/>samples = 187<br/>value = [2, 181, 4, 0, 0, 0, 0, 0]<br/>class = 1>, fillcolor="#cae63f"] ;
17 -> 21 ;
22 [label=<gini = 0.0<br/>samples = 1<br/>value = [1, 0, 0, 0, 0, 0, 0, 0]<br/>class = 0>, fillcolor="#e58139"] ;
16 -> 22 ;
23 [label=<gini = 0.0<br/>samples = 1<br/>value = [1, 0, 0, 0, 0, 0, 0, 0]<br/>class = 0>, fillcolor="#e58139"] ;
15 -> 23 ;
24 [label=<size8 &le; 104.088<br/>gini = 0.343<br/>samples = 132<br/>value = [103, 29, 0, 0, 0, 0, 0, 0]<br/>class = 0>, fillcolor="#eca471"] ;
2 -> 24 ;
25 [label=<trans_time2 &le; 8.223<br/>gini = 0.141<br/>samples = 105<br/>value = [97, 8, 0, 0, 0, 0, 0, 0]<br/>class = 0>, fillcolor="#e78b49"] ;
24 -> 25 ;
26 [label=<gini = 0.076<br/>samples = 101<br/>value = [97, 4, 0, 0, 0, 0, 0, 0]<br/>class = 0>, fillcolor="#e68641"] ;
25 -> 26 ;
27 [label=<gini = 0.0<br/>samples = 4<br/>value = [0, 4, 0, 0, 0, 0, 0, 0]<br/>class = 1>, fillcolor="#c8e539"] ;
25 -> 27 ;
28 [label=<gini = 0.346<br/>samples = 27<br/>value = [6, 21, 0, 0, 0, 0, 0, 0]<br/>class = 1>, fillcolor="#d8ec72"] ;
24 -> 28 ;
29 [label=<delivery_rate8 &le; 346.025<br/>gini = 0.537<br/>samples = 326<br/>value = [0, 123, 184, 13, 3, 1, 2, 0]<br/>class = 2>, fillcolor="#c8f7c4"] ;
1 -> 29 ;
30 [label=<delivery_rate0 &le; 57.415<br/>gini = 0.262<br/>samples = 165<br/>value = [0, 13, 141, 5, 3, 1, 2, 0]<br/>class = 2>, fillcolor="#64e958"] ;
29 -> 30 ;
31 [label=<gini = 0.098<br/>samples = 137<br/>value = [0, 5, 130, 1, 1, 0, 0, 0]<br/>class = 2>, fillcolor="#51e644"] ;
30 -> 31 ;
32 [label=<gini = 0.732<br/>samples = 28<br/>value = [0, 8, 11, 4, 2, 1, 2, 0]<br/>class = 2>, fillcolor="#e3fbe1"] ;
30 -> 32 ;
33 [label=<delivery_rate0 &le; 173.768<br/>gini = 0.459<br/>samples = 161<br/>value = [0, 110, 43, 8, 0, 0, 0, 0]<br/>class = 1>, fillcolor="#e0f08f"] ;
29 -> 33 ;
34 [label=<gini = 0.601<br/>samples = 64<br/>value = [0, 27, 29, 8, 0, 0, 0, 0]<br/>class = 2>, fillcolor="#f5fef4"] ;
33 -> 34 ;
35 [label=<size8 &le; 492.089<br/>gini = 0.247<br/>samples = 97<br/>value = [0, 83, 14, 0, 0, 0, 0, 0]<br/>class = 1>, fillcolor="#d1e95a"] ;
33 -> 35 ;
36 [label=<delivery_rate7 &le; 380.156<br/>gini = 0.16<br/>samples = 91<br/>value = [0, 83, 8, 0, 0, 0, 0, 0]<br/>class = 1>, fillcolor="#cde84c"] ;
35 -> 36 ;
37 [label=<gini = 0.5<br/>samples = 10<br/>value = [0, 5, 5, 0, 0, 0, 0, 0]<br/>class = 1>, fillcolor="#ffffff"] ;
36 -> 37 ;
38 [label=<gini = 0.071<br/>samples = 81<br/>value = [0, 78, 3, 0, 0, 0, 0, 0]<br/>class = 1>, fillcolor="#cae641"] ;
36 -> 38 ;
39 [label=<gini = 0.0<br/>samples = 6<br/>value = [0, 0, 6, 0, 0, 0, 0, 0]<br/>class = 2>, fillcolor="#47e539"] ;
35 -> 39 ;
40 [label=<trans_time4 &le; 12.092<br/>gini = 0.627<br/>samples = 2608<br/>value = [10, 462, 1414, 559, 72, 4, 1, 86]<br/>class = 2>, fillcolor="#b2f4ac"] ;
0 -> 40 [labeldistance=2.5, labelangle=-45, headlabel="False"] ;
41 [label=<size8 &le; 37.22<br/>gini = 0.599<br/>samples = 2460<br/>value = [10, 453, 1389, 536, 60, 4, 1, 7]<br/>class = 2>, fillcolor="#adf3a7"] ;
40 -> 41 ;
42 [label=<gini = 0.46<br/>samples = 158<br/>value = [7, 108, 42, 1, 0, 0, 0, 0]<br/>class = 1>, fillcolor="#e0f08e"] ;
41 -> 42 ;
43 [label=<cwnd2 &le; 191.5<br/>gini = 0.58<br/>samples = 2302<br/>value = [3, 345, 1347, 535, 60, 4, 1, 7]<br/>class = 2>, fillcolor="#aaf3a4"] ;
41 -> 43 ;
44 [label=<size8 &le; 494.283<br/>gini = 0.557<br/>samples = 2111<br/>value = [3, 235, 1282, 520, 59, 4, 1, 7]<br/>class = 2>, fillcolor="#a7f3a0"] ;
43 -> 44 ;
45 [label=<trans_time7 &le; 1.747<br/>gini = 0.532<br/>samples = 1995<br/>value = [3, 235, 1265, 455, 30, 0, 0, 7]<br/>class = 2>, fillcolor="#9ef197"] ;
44 -> 45 ;
46 [label=<size8 &le; 162.534<br/>gini = 0.356<br/>samples = 783<br/>value = [1, 93, 617, 72, 0, 0, 0, 0]<br/>class = 2>, fillcolor="#73eb69"] ;
45 -> 46 ;
47 [label=<gini = 0.521<br/>samples = 94<br/>value = [1, 47, 45, 1, 0, 0, 0, 0]<br/>class = 1>, fillcolor="#fdfef7"] ;
46 -> 47 ;
48 [label=<min_rtt8 &le; 0.148<br/>gini = 0.296<br/>samples = 689<br/>value = [0, 46, 572, 71, 0, 0, 0, 0]<br/>class = 2>, fillcolor="#6aea5e"] ;
46 -> 48 ;
49 [label=<trans_time4 &le; 5.385<br/>gini = 0.158<br/>samples = 439<br/>value = [0, 19, 402, 18, 0, 0, 0, 0]<br/>class = 2>, fillcolor="#57e74a"] ;
48 -> 49 ;
50 [label=<delivery_rate0 &le; 447.087<br/>gini = 0.143<br/>samples = 434<br/>value = [0, 19, 401, 14, 0, 0, 0, 0]<br/>class = 2>, fillcolor="#56e749"] ;
49 -> 50 ;
51 [label=<delivery_rate8 &le; 221.236<br/>gini = 0.112<br/>samples = 410<br/>value = [0, 10, 386, 14, 0, 0, 0, 0]<br/>class = 2>, fillcolor="#52e745"] ;
50 -> 51 ;
52 [label=<gini = 0.366<br/>samples = 29<br/>value = [0, 0, 22, 7, 0, 0, 0, 0]<br/>class = 2>, fillcolor="#82ed78"] ;
51 -> 52 ;
53 [label=<gini = 0.086<br/>samples = 381<br/>value = [0, 10, 364, 7, 0, 0, 0, 0]<br/>class = 2>, fillcolor="#4fe642"] ;
51 -> 53 ;
54 [label=<gini = 0.469<br/>samples = 24<br/>value = [0, 9, 15, 0, 0, 0, 0, 0]<br/>class = 2>, fillcolor="#b5f5b0"] ;
50 -> 54 ;
55 [label=<gini = 0.32<br/>samples = 5<br/>value = [0, 0, 1, 4, 0, 0, 0, 0]<br/>class = 3>, fillcolor="#6aecc1"] ;
49 -> 55 ;
56 [label=<cwnd8 &le; 139.0<br/>gini = 0.481<br/>samples = 250<br/>value = [0, 27, 170, 53, 0, 0, 0, 0]<br/>class = 2>, fillcolor="#92f089"] ;
48 -> 56 ;
57 [label=<gini = 0.513<br/>samples = 67<br/>value = [0, 1, 35, 31, 0, 0, 0, 0]<br/>class = 2>, fillcolor="#ebfce9"] ;
56 -> 57 ;
58 [label=<trans_time7 &le; 1.119<br/>gini = 0.421<br/>samples = 183<br/>value = [0, 26, 135, 22, 0, 0, 0, 0]<br/>class = 2>, fillcolor="#7fed76"] ;
56 -> 58 ;
59 [label=<gini = 0.219<br/>samples = 8<br/>value = [0, 7, 1, 0, 0, 0, 0, 0]<br/>class = 1>, fillcolor="#d0e955"] ;
58 -> 59 ;
60 [label=<delivery_rate5 &le; 474.701<br/>gini = 0.386<br/>samples = 175<br/>value = [0, 19, 134, 22, 0, 0, 0, 0]<br/>class = 2>, fillcolor="#78ec6e"] ;
58 -> 60 ;
61 [label=<trans_time6 &le; 6.434<br/>gini = 0.352<br/>samples = 167<br/>value = [0, 13, 132, 22, 0, 0, 0, 0]<br/>class = 2>, fillcolor="#73eb69"] ;
60 -> 61 ;
62 [label=<cwnd1 &le; 180.5<br/>gini = 0.32<br/>samples = 161<br/>value = [0, 13, 131, 17, 0, 0, 0, 0]<br/>class = 2>, fillcolor="#6dea62"] ;
61 -> 62 ;
63 [label=<trans_time1 &le; 2.092<br/>gini = 0.277<br/>samples = 152<br/>value = [0, 8, 128, 16, 0, 0, 0, 0]<br/>class = 2>, fillcolor="#67ea5c"] ;
62 -> 63 ;
64 [label=<rtt7 &le; 0.149<br/>gini = 0.157<br/>samples = 95<br/>value = [0, 6, 87, 2, 0, 0, 0, 0]<br/>class = 2>, fillcolor="#58e74b"] ;
63 -> 64 ;
65 [label=<gini = 0.5<br/>samples = 2<br/>value = [0, 1, 0, 1, 0, 0, 0, 0]<br/>class = 1>, fillcolor="#ffffff"] ;
64 -> 65 ;
66 [label=<delivery_rate5 &le; 71.064<br/>gini = 0.122<br/>samples = 93<br/>value = [0, 5, 87, 1, 0, 0, 0, 0]<br/>class = 2>, fillcolor="#54e747"] ;
64 -> 66 ;
67 [label=<gini = 0.0<br/>samples = 1<br/>value = [0, 1, 0, 0, 0, 0, 0, 0]<br/>class = 1>, fillcolor="#c8e539"] ;
66 -> 67 ;
68 [label=<in_flight4 &le; 45.5<br/>gini = 0.104<br/>samples = 92<br/>value = [0, 4, 87, 1, 0, 0, 0, 0]<br/>class = 2>, fillcolor="#51e644"] ;
66 -> 68 ;
69 [label=<gini = 0.085<br/>samples = 91<br/>value = [0, 3, 87, 1, 0, 0, 0, 0]<br/>class = 2>, fillcolor="#4fe642"] ;
68 -> 69 ;
70 [label=<gini = 0.0<br/>samples = 1<br/>value = [0, 1, 0, 0, 0, 0, 0, 0]<br/>class = 1>, fillcolor="#c8e539"] ;
68 -> 70 ;
71 [label=<gini = 0.421<br/>samples = 57<br/>value = [0, 2, 41, 14, 0, 0, 0, 0]<br/>class = 2>, fillcolor="#8bef83"] ;
63 -> 71 ;
72 [label=<gini = 0.568<br/>samples = 9<br/>value = [0, 5, 3, 1, 0, 0, 0, 0]<br/>class = 1>, fillcolor="#edf6bd"] ;
62 -> 72 ;
73 [label=<gini = 0.278<br/>samples = 6<br/>value = [0, 0, 1, 5, 0, 0, 0, 0]<br/>class = 3>, fillcolor="#61eabd"] ;
61 -> 73 ;
74 [label=<gini = 0.375<br/>samples = 8<br/>value = [0, 6, 2, 0, 0, 0, 0, 0]<br/>class = 1>, fillcolor="#daee7b"] ;
60 -> 74 ;
75 [label=<size8 &le; 263.426<br/>gini = 0.6<br/>samples = 1212<br/>value = [2, 142, 648, 383, 30, 0, 0, 7]<br/>class = 2>, fillcolor="#c4f7c0"] ;
45 -> 75 ;
76 [label=<delivery_rate7 &le; 10.837<br/>gini = 0.54<br/>samples = 755<br/>value = [2, 140, 476, 127, 3, 0, 0, 7]<br/>class = 2>, fillcolor="#9af193"] ;
75 -> 76 ;
77 [label=<trans_time4 &le; 3.76<br/>gini = 0.11<br/>samples = 156<br/>value = [0, 7, 147, 1, 0, 0, 0, 1]<br/>class = 2>, fillcolor="#52e745"] ;
76 -> 77 ;
78 [label=<gini = 0.375<br/>samples = 4<br/>value = [0, 3, 1, 0, 0, 0, 0, 0]<br/>class = 1>, fillcolor="#daee7b"] ;
77 -> 78 ;
79 [label=<gini = 0.077<br/>samples = 152<br/>value = [0, 4, 146, 1, 0, 0, 0, 1]<br/>class = 2>, fillcolor="#4ee641"] ;
77 -> 79 ;
80 [label=<in_flight8 &le; 6.5<br/>gini = 0.605<br/>samples = 599<br/>value = [2, 133, 329, 126, 3, 0, 0, 6]<br/>class = 2>, fillcolor="#b2f4ac"] ;
76 -> 80 ;
81 [label=<delivery_rate3 &le; 3.734<br/>gini = 0.617<br/>samples = 397<br/>value = [0, 61, 203, 124, 3, 0, 0, 6]<br/>class = 2>, fillcolor="#caf7c6"] ;
80 -> 81 ;
82 [label=<gini = 0.485<br/>samples = 100<br/>value = [0, 3, 28, 66, 2, 0, 0, 1]<br/>class = 3>, fillcolor="#96f1d3"] ;
81 -> 82 ;
83 [label=<delivery_rate3 &le; 9.17<br/>gini = 0.576<br/>samples = 297<br/>value = [0, 58, 175, 58, 1, 0, 0, 5]<br/>class = 2>, fillcolor="#a5f29e"] ;
81 -> 83 ;
84 [label=<delivery_rate8 &le; 100.469<br/>gini = 0.383<br/>samples = 134<br/>value = [0, 8, 103, 20, 0, 0, 0, 3]<br/>class = 2>, fillcolor="#79ec6f"] ;
83 -> 84 ;
85 [label=<gini = 0.631<br/>samples = 15<br/>value = [0, 0, 5, 7, 0, 0, 0, 3]<br/>class = 3>, fillcolor="#d7faee"] ;
84 -> 85 ;
86 [label=<size6 &le; 118.078<br/>gini = 0.305<br/>samples = 119<br/>value = [0, 8, 98, 13, 0, 0, 0, 0]<br/>class = 2>, fillcolor="#6bea60"] ;
84 -> 86 ;
87 [label=<size8 &le; 185.593<br/>gini = 0.16<br/>samples = 93<br/>value = [0, 2, 85, 6, 0, 0, 0, 0]<br/>class = 2>, fillcolor="#58e74b"] ;
86 -> 87 ;
88 [label=<gini = 0.079<br/>samples = 74<br/>value = [0, 2, 71, 1, 0, 0, 0, 0]<br/>class = 2>, fillcolor="#4fe641"] ;
87 -> 88 ;
89 [label=<gini = 0.388<br/>samples = 19<br/>value = [0, 0, 14, 5, 0, 0, 0, 0]<br/>class = 2>, fillcolor="#89ee80"] ;
87 -> 89 ;
90 [label=<gini = 0.624<br/>samples = 26<br/>value = [0, 6, 13, 7, 0, 0, 0, 0]<br/>class = 2>, fillcolor="#c5f7c0"] ;
86 -> 90 ;
91 [label=<gini = 0.656<br/>samples = 163<br/>value = [0, 50, 72, 38, 1, 0, 0, 2]<br/>class = 2>, fillcolor="#dbfad8"] ;
83 -> 91 ;
92 [label=<gini = 0.484<br/>samples = 202<br/>value = [2, 72, 126, 2, 0, 0, 0, 0]<br/>class = 2>, fillcolor="#b3f4ad"] ;
80 -> 92 ;
93 [label=<size7 &le; 509.636<br/>gini = 0.541<br/>samples = 457<br/>value = [0, 2, 172, 256, 27, 0, 0, 0]<br/>class = 3>, fillcolor="#c5f7e7"] ;
75 -> 93 ;
94 [label=<cwnd2 &le; 160.0<br/>gini = 0.528<br/>samples = 423<br/>value = [0, 2, 144, 251, 26, 0, 0, 0]<br/>class = 3>, fillcolor="#b3f5df"] ;
93 -> 94 ;
95 [label=<trans_time7 &le; 1.942<br/>gini = 0.51<br/>samples = 395<br/>value = [0, 1, 122, 247, 25, 0, 0, 0]<br/>class = 3>, fillcolor="#a4f3d9"] ;
94 -> 95 ;
96 [label=<gini = 0.497<br/>samples = 79<br/>value = [0, 0, 46, 32, 1, 0, 0, 0]<br/>class = 2>, fillcolor="#c8f7c4"] ;
95 -> 96 ;
97 [label=<delivery_rate3 &le; 9.434<br/>gini = 0.473<br/>samples = 316<br/>value = [0, 1, 76, 215, 24, 0, 0, 0]<br/>class = 3>, fillcolor="#8cf0cf"] ;
95 -> 97 ;
98 [label=<gini = 0.512<br/>samples = 62<br/>value = [0, 1, 33, 28, 0, 0, 0, 0]<br/>class = 2>, fillcolor="#e4fbe2"] ;
97 -> 98 ;
99 [label=<cwnd8 &le; 52.0<br/>gini = 0.42<br/>samples = 254<br/>value = [0, 0, 43, 187, 24, 0, 0, 0]<br/>class = 3>, fillcolor="#78edc6"] ;
97 -> 99 ;
100 [label=<gini = 0.0<br/>samples = 5<br/>value = [0, 0, 0, 0, 5, 0, 0, 0]<br/>class = 4>, fillcolor="#399de5"] ;
99 -> 100 ;
101 [label=<in_flight8 &le; 23.5<br/>gini = 0.4<br/>samples = 249<br/>value = [0, 0, 43, 187, 19, 0, 0, 0]<br/>class = 3>, fillcolor="#75edc5"] ;
99 -> 101 ;
102 [label=<size0 &le; 495.684<br/>gini = 0.358<br/>samples = 224<br/>value = [0, 0, 30, 176, 18, 0, 0, 0]<br/>class = 3>, fillcolor="#6aebc1"] ;
101 -> 102 ;
103 [label=<cwnd7 &le; 145.0<br/>gini = 0.344<br/>samples = 221<br/>value = [0, 0, 27, 176, 18, 0, 0, 0]<br/>class = 3>, fillcolor="#67ebbf"] ;
102 -> 103 ;
104 [label=<delivery_rate7 &le; 100.517<br/>gini = 0.239<br/>samples = 143<br/>value = [0, 0, 10, 124, 9, 0, 0, 0]<br/>class = 3>, fillcolor="#55e9b8"] ;
103 -> 104 ;
105 [label=<gini = 0.444<br/>samples = 3<br/>value = [0, 0, 2, 0, 1, 0, 0, 0]<br/>class = 2>, fillcolor="#a3f29c"] ;
104 -> 105 ;
106 [label=<trans_time5 &le; 10.848<br/>gini = 0.209<br/>samples = 140<br/>value = [0, 0, 8, 124, 8, 0, 0, 0]<br/>class = 3>, fillcolor="#51e8b6"] ;
104 -> 106 ;
107 [label=<in_flight4 &le; 29.5<br/>gini = 0.187<br/>samples = 138<br/>value = [0, 0, 8, 124, 6, 0, 0, 0]<br/>class = 3>, fillcolor="#4ee8b5"] ;
106 -> 107 ;
108 [label=<rtt0 &le; 0.1<br/>gini = 0.164<br/>samples = 136<br/>value = [0, 0, 8, 124, 4, 0, 0, 0]<br/>class = 3>, fillcolor="#4ce7b4"] ;
107 -> 108 ;
109 [label=<gini = 0.5<br/>samples = 6<br/>value = [0, 0, 3, 3, 0, 0, 0, 0]<br/>class = 2>, fillcolor="#ffffff"] ;
108 -> 109 ;
110 [label=<in_flight7 &le; 53.5<br/>gini = 0.131<br/>samples = 130<br/>value = [0, 0, 5, 121, 4, 0, 0, 0]<br/>class = 3>, fillcolor="#47e7b2"] ;
108 -> 110 ;
111 [label=<in_flight3 &le; 30.0<br/>gini = 0.118<br/>samples = 129<br/>value = [0, 0, 4, 121, 4, 0, 0, 0]<br/>class = 3>, fillcolor="#46e7b1"] ;
110 -> 111 ;
112 [label=<in_flight1 &le; 38.5<br/>gini = 0.105<br/>samples = 128<br/>value = [0, 0, 3, 121, 4, 0, 0, 0]<br/>class = 3>, fillcolor="#44e6b1"] ;
111 -> 112 ;
113 [label=<gini = 0.091<br/>samples = 127<br/>value = [0, 0, 2, 121, 4, 0, 0, 0]<br/>class = 3>, fillcolor="#43e6b0"] ;
112 -> 113 ;
114 [label=<gini = 0.0<br/>samples = 1<br/>value = [0, 0, 1, 0, 0, 0, 0, 0]<br/>class = 2>, fillcolor="#47e539"] ;
112 -> 114 ;
115 [label=<gini = 0.0<br/>samples = 1<br/>value = [0, 0, 1, 0, 0, 0, 0, 0]<br/>class = 2>, fillcolor="#47e539"] ;
111 -> 115 ;
116 [label=<gini = 0.0<br/>samples = 1<br/>value = [0, 0, 1, 0, 0, 0, 0, 0]<br/>class = 2>, fillcolor="#47e539"] ;
110 -> 116 ;
117 [label=<gini = 0.0<br/>samples = 2<br/>value = [0, 0, 0, 0, 2, 0, 0, 0]<br/>class = 4>, fillcolor="#399de5"] ;
107 -> 117 ;
118 [label=<gini = 0.0<br/>samples = 2<br/>value = [0, 0, 0, 0, 2, 0, 0, 0]<br/>class = 4>, fillcolor="#399de5"] ;
106 -> 118 ;
119 [label=<gini = 0.495<br/>samples = 78<br/>value = [0, 0, 17, 52, 9, 0, 0, 0]<br/>class = 3>, fillcolor="#8df0cf"] ;
103 -> 119 ;
120 [label=<gini = 0.0<br/>samples = 3<br/>value = [0, 0, 3, 0, 0, 0, 0, 0]<br/>class = 2>, fillcolor="#47e539"] ;
102 -> 120 ;
121 [label=<gini = 0.534<br/>samples = 25<br/>value = [0, 0, 13, 11, 1, 0, 0, 0]<br/>class = 2>, fillcolor="#e5fbe3"] ;
101 -> 121 ;
122 [label=<gini = 0.36<br/>samples = 28<br/>value = [0, 1, 22, 4, 1, 0, 0, 0]<br/>class = 2>, fillcolor="#75ec6b"] ;
94 -> 122 ;
123 [label=<gini = 0.299<br/>samples = 34<br/>value = [0, 0, 28, 5, 1, 0, 0, 0]<br/>class = 2>, fillcolor="#6dea62"] ;
93 -> 123 ;
124 [label=<gini = 0.601<br/>samples = 116<br/>value = [0, 0, 17, 65, 29, 4, 1, 0]<br/>class = 3>, fillcolor="#adf4dd"] ;
44 -> 124 ;
125 [label=<gini = 0.546<br/>samples = 191<br/>value = [0, 110, 65, 15, 1, 0, 0, 0]<br/>class = 1>, fillcolor="#ebf6b8"] ;
43 -> 125 ;
126 [label=<gini = 0.652<br/>samples = 148<br/>value = [0, 9, 25, 23, 12, 0, 0, 79]<br/>class = 7>, fillcolor="#f4a8c1"] ;
40 -> 126 ;
}
