digraph Tree {
node [shape=box, style="filled, rounded", color="black", fontname="helvetica"] ;
edge [fontname="helvetica"] ;
0 [label=<size8 &le; 219.713<br/>gini = 0.69<br/>samples = 191<br/>value = [47, 42, 85, 1, 1, 11, 2, 1, 1]<br/>class = 2>, fillcolor="#d6f8cb"] ;
1 [label=<size8 &le; 53.212<br/>gini = 0.619<br/>samples = 96<br/>value = [47, 35, 5, 0, 0, 7, 2, 0, 0]<br/>class = 0>, fillcolor="#fae6d8"] ;
0 -> 1 [labeldistance=2.5, labelangle=45, headlabel="True"] ;
2 [label=<cwnd6 &le; 235.0<br/>gini = 0.184<br/>samples = 40<br/>value = [36, 3, 0, 0, 0, 0, 1, 0, 0]<br/>class = 0>, fillcolor="#e88f4e"] ;
1 -> 2 ;
3 [label=<gini = 0.0<br/>samples = 3<br/>value = [0, 3, 0, 0, 0, 0, 0, 0, 0]<br/>class = 1>, fillcolor="#d7e539"] ;
2 -> 3 ;
4 [label=<gini = 0.053<br/>samples = 37<br/>value = [36, 0, 0, 0, 0, 0, 1, 0, 0]<br/>class = 0>, fillcolor="#e6843e"] ;
2 -> 4 ;
5 [label=<cwnd8 &le; 445.5<br/>gini = 0.611<br/>samples = 56<br/>value = [11, 32, 5, 0, 0, 7, 1, 0, 0]<br/>class = 1>, fillcolor="#ecf3a3"] ;
1 -> 5 ;
6 [label=<cwnd7 &le; 238.0<br/>gini = 0.406<br/>samples = 36<br/>value = [4, 27, 5, 0, 0, 0, 0, 0, 0]<br/>class = 1>, fillcolor="#e3ed72"] ;
5 -> 6 ;
7 [label=<min_rtt0 &le; 0.38<br/>gini = 0.32<br/>samples = 5<br/>value = [0, 1, 4, 0, 0, 0, 0, 0, 0]<br/>class = 2>, fillcolor="#8bec6a"] ;
6 -> 7 ;
8 [label=<gini = 0.0<br/>samples = 1<br/>value = [0, 1, 0, 0, 0, 0, 0, 0, 0]<br/>class = 1>, fillcolor="#d7e539"] ;
7 -> 8 ;
9 [label=<gini = 0.0<br/>samples = 4<br/>value = [0, 0, 4, 0, 0, 0, 0, 0, 0]<br/>class = 2>, fillcolor="#64e539"] ;
7 -> 9 ;
10 [label=<size2 &le; 377.526<br/>gini = 0.279<br/>samples = 31<br/>value = [4, 26, 1, 0, 0, 0, 0, 0, 0]<br/>class = 1>, fillcolor="#deea5e"] ;
6 -> 10 ;
11 [label=<delivery_rate0 &le; 494.16<br/>gini = 0.137<br/>samples = 27<br/>value = [2, 25, 0, 0, 0, 0, 0, 0, 0]<br/>class = 1>, fillcolor="#dae749"] ;
10 -> 11 ;
12 [label=<gini = 0.074<br/>samples = 26<br/>value = [1, 25, 0, 0, 0, 0, 0, 0, 0]<br/>class = 1>, fillcolor="#d9e641"] ;
11 -> 12 ;
13 [label=<gini = 0.0<br/>samples = 1<br/>value = [1, 0, 0, 0, 0, 0, 0, 0, 0]<br/>class = 0>, fillcolor="#e58139"] ;
11 -> 13 ;
14 [label=<gini = 0.625<br/>samples = 4<br/>value = [2, 1, 1, 0, 0, 0, 0, 0, 0]<br/>class = 0>, fillcolor="#f6d5bd"] ;
10 -> 14 ;
15 [label=<rtt7 &le; 0.445<br/>gini = 0.69<br/>samples = 20<br/>value = [7, 5, 0, 0, 0, 7, 1, 0, 0]<br/>class = 0>, fillcolor="#ffffff"] ;
5 -> 15 ;
16 [label=<rtt4 &le; 0.348<br/>gini = 0.494<br/>samples = 9<br/>value = [0, 2, 0, 0, 0, 6, 1, 0, 0]<br/>class = 5>, fillcolor="#8ea6f0"] ;
15 -> 16 ;
17 [label=<gini = 0.5<br/>samples = 2<br/>value = [0, 1, 0, 0, 0, 0, 1, 0, 0]<br/>class = 1>, fillcolor="#ffffff"] ;
16 -> 17 ;
18 [label=<rtt1 &le; 0.447<br/>gini = 0.245<br/>samples = 7<br/>value = [0, 1, 0, 0, 0, 6, 0, 0, 0]<br/>class = 5>, fillcolor="#5a7ee9"] ;
16 -> 18 ;
19 [label=<gini = 0.0<br/>samples = 6<br/>value = [0, 0, 0, 0, 0, 6, 0, 0, 0]<br/>class = 5>, fillcolor="#3964e5"] ;
18 -> 19 ;
20 [label=<gini = 0.0<br/>samples = 1<br/>value = [0, 1, 0, 0, 0, 0, 0, 0, 0]<br/>class = 1>, fillcolor="#d7e539"] ;
18 -> 20 ;
21 [label=<delivery_rate3 &le; 285.772<br/>gini = 0.512<br/>samples = 11<br/>value = [7, 3, 0, 0, 0, 1, 0, 0, 0]<br/>class = 0>, fillcolor="#f2c09c"] ;
15 -> 21 ;
22 [label=<gini = 0.0<br/>samples = 3<br/>value = [0, 3, 0, 0, 0, 0, 0, 0, 0]<br/>class = 1>, fillcolor="#d7e539"] ;
21 -> 22 ;
23 [label=<trans_time1 &le; 0.478<br/>gini = 0.219<br/>samples = 8<br/>value = [7, 0, 0, 0, 0, 1, 0, 0, 0]<br/>class = 0>, fillcolor="#e99355"] ;
21 -> 23 ;
24 [label=<gini = 0.0<br/>samples = 1<br/>value = [0, 0, 0, 0, 0, 1, 0, 0, 0]<br/>class = 5>, fillcolor="#3964e5"] ;
23 -> 24 ;
25 [label=<gini = 0.0<br/>samples = 7<br/>value = [7, 0, 0, 0, 0, 0, 0, 0, 0]<br/>class = 0>, fillcolor="#e58139"] ;
23 -> 25 ;
26 [label=<cwnd7 &le; 576.5<br/>gini = 0.283<br/>samples = 95<br/>value = [0, 7, 80, 1, 1, 4, 0, 1, 1]<br/>class = 2>, fillcolor="#7ee95b"] ;
0 -> 26 [labeldistance=2.5, labelangle=-45, headlabel="False"] ;
27 [label=<trans_time1 &le; 0.343<br/>gini = 0.112<br/>samples = 85<br/>value = [0, 4, 80, 1, 0, 0, 0, 0, 0]<br/>class = 2>, fillcolor="#6ee745"] ;
26 -> 27 ;
28 [label=<gini = 0.0<br/>samples = 1<br/>value = [0, 1, 0, 0, 0, 0, 0, 0, 0]<br/>class = 1>, fillcolor="#d7e539"] ;
27 -> 28 ;
29 [label=<gini = 0.092<br/>samples = 84<br/>value = [0, 3, 80, 1, 0, 0, 0, 0, 0]<br/>class = 2>, fillcolor="#6ce643"] ;
27 -> 29 ;
30 [label=<cwnd4 &le; 456.0<br/>gini = 0.72<br/>samples = 10<br/>value = [0, 3, 0, 0, 1, 4, 0, 1, 1]<br/>class = 5>, fillcolor="#e3e9fb"] ;
26 -> 30 ;
31 [label=<gini = 0.667<br/>samples = 6<br/>value = [0, 3, 0, 0, 1, 0, 0, 1, 1]<br/>class = 1>, fillcolor="#eff5b0"] ;
30 -> 31 ;
32 [label=<gini = 0.0<br/>samples = 4<br/>value = [0, 0, 0, 0, 0, 4, 0, 0, 0]<br/>class = 5>, fillcolor="#3964e5"] ;
30 -> 32 ;
}
