digraph Tree {
node [shape=box, style="filled, rounded", color="black", fontname="helvetica"] ;
edge [fontname="helvetica"] ;
0 [label=<trans_time7 &le; 5.444<br/>gini = 0.826<br/>samples = 3686<br/>value = [120, 568, 753, 761, 386, 46, 6, 12, 4, 2, 10, 16<br/>13, 16, 6, 17, 39, 26, 35, 850]<br/>class = 19>, fillcolor="#fefaf9"] ;
1 [label=<size8 &le; 263.426<br/>gini = 0.793<br/>samples = 2788<br/>value = [114, 561, 742, 757, 385, 44, 6, 11, 4, 2, 10, 16<br/>13, 16, 6, 16, 35, 19, 28, 3]<br/>class = 3>, fillcolor="#fefffe"] ;
0 -> 1 [labeldistance=2.5, labelangle=45, headlabel="True"] ;
2 [label=<trans_time7 &le; 0.685<br/>gini = 0.719<br/>samples = 1359<br/>value = [114, 527, 466, 95, 2, 1, 1, 5, 4, 2, 10, 15, 5<br/>16, 4, 14, 33, 18, 24, 3]<br/>class = 1>, fillcolor="#fdfaf1"] ;
1 -> 2 ;
3 [label=<cwnd4 &le; 127.0<br/>gini = 0.522<br/>samples = 422<br/>value = [82, 272, 66, 1, 0, 0, 0, 0, 0, 0, 0, 1, 0, 0<br/>0, 0, 0, 0, 0, 0]<br/>class = 1>, fillcolor="#f0d590"] ;
2 -> 3 ;
4 [label=<delivery_rate8 &le; 109.488<br/>gini = 0.42<br/>samples = 290<br/>value = [14, 211, 64, 1, 0, 0, 0, 0, 0, 0, 0, 0, 0, 0<br/>0, 0, 0, 0, 0, 0]<br/>class = 1>, fillcolor="#eece7e"] ;
3 -> 4 ;
5 [label=<gini = 0.524<br/>samples = 73<br/>value = [1, 33, 38, 1, 0, 0, 0, 0, 0, 0, 0, 0, 0, 0<br/>0, 0, 0, 0, 0, 0]<br/>class = 2>, fillcolor="#fbfce6"] ;
4 -> 5 ;
6 [label=<size6 &le; 81.193<br/>gini = 0.309<br/>samples = 217<br/>value = [13, 178, 26, 0, 0, 0, 0, 0, 0, 0, 0, 0, 0, 0<br/>0, 0, 0, 0, 0, 0]<br/>class = 1>, fillcolor="#eac361"] ;
4 -> 6 ;
7 [label=<size8 &le; 35.951<br/>gini = 0.208<br/>samples = 167<br/>value = [11, 148, 8, 0, 0, 0, 0, 0, 0, 0, 0, 0, 0, 0<br/>0, 0, 0, 0, 0, 0]<br/>class = 1>, fillcolor="#e8bd51"] ;
6 -> 7 ;
8 [label=<gini = 0.5<br/>samples = 18<br/>value = [9, 9, 0, 0, 0, 0, 0, 0, 0, 0, 0, 0, 0, 0<br/>0, 0, 0, 0, 0, 0]<br/>class = 0>, fillcolor="#ffffff"] ;
7 -> 8 ;
9 [label=<size0 &le; 12.826<br/>gini = 0.127<br/>samples = 149<br/>value = [2, 139, 8, 0, 0, 0, 0, 0, 0, 0, 0, 0, 0, 0<br/>0, 0, 0, 0, 0, 0]<br/>class = 1>, fillcolor="#e7b947"] ;
7 -> 9 ;
10 [label=<gini = 0.0<br/>samples = 2<br/>value = [0, 0, 2, 0, 0, 0, 0, 0, 0, 0, 0, 0, 0, 0<br/>0, 0, 0, 0, 0, 0]<br/>class = 2>, fillcolor="#e2e539"] ;
9 -> 10 ;
11 [label=<min_rtt8 &le; 0.045<br/>gini = 0.104<br/>samples = 147<br/>value = [2, 139, 6, 0, 0, 0, 0, 0, 0, 0, 0, 0, 0, 0<br/>0, 0, 0, 0, 0, 0]<br/>class = 1>, fillcolor="#e6b844"] ;
9 -> 11 ;
12 [label=<gini = 0.0<br/>samples = 1<br/>value = [1, 0, 0, 0, 0, 0, 0, 0, 0, 0, 0, 0, 0, 0<br/>0, 0, 0, 0, 0, 0]<br/>class = 0>, fillcolor="#e58139"] ;
11 -> 12 ;
13 [label=<gini = 0.092<br/>samples = 146<br/>value = [1, 139, 6, 0, 0, 0, 0, 0, 0, 0, 0, 0, 0, 0<br/>0, 0, 0, 0, 0, 0]<br/>class = 1>, fillcolor="#e6b843"] ;
11 -> 13 ;
14 [label=<gini = 0.509<br/>samples = 50<br/>value = [2, 30, 18, 0, 0, 0, 0, 0, 0, 0, 0, 0, 0, 0<br/>0, 0, 0, 0, 0, 0]<br/>class = 1>, fillcolor="#f5e3b5"] ;
6 -> 14 ;
15 [label=<gini = 0.521<br/>samples = 132<br/>value = [68, 61, 2, 0, 0, 0, 0, 0, 0, 0, 0, 1, 0, 0<br/>0, 0, 0, 0, 0, 0]<br/>class = 0>, fillcolor="#fcf3eb"] ;
3 -> 15 ;
16 [label=<trans_time7 &le; 3.273<br/>gini = 0.729<br/>samples = 937<br/>value = [32, 255, 400, 94, 2, 1, 1, 5, 4, 2, 10, 14, 5<br/>16, 4, 14, 33, 18, 24, 3]<br/>class = 2>, fillcolor="#f9f9d5"] ;
2 -> 16 ;
17 [label=<delivery_rate8 &le; 318.489<br/>gini = 0.634<br/>samples = 767<br/>value = [26, 247, 381, 92, 1, 1, 1, 5, 4, 2, 4, 1, 0<br/>2, 0, 0, 0, 0, 0, 0]<br/>class = 2>, fillcolor="#f8f8cc"] ;
16 -> 17 ;
18 [label=<size8 &le; 160.744<br/>gini = 0.614<br/>samples = 695<br/>value = [15, 196, 373, 92, 1, 1, 0, 4, 4, 2, 4, 1, 0<br/>2, 0, 0, 0, 0, 0, 0]<br/>class = 2>, fillcolor="#f5f6b9"] ;
17 -> 18 ;
19 [label=<cwnd8 &le; 127.0<br/>gini = 0.626<br/>samples = 430<br/>value = [15, 164, 202, 34, 0, 0, 0, 4, 4, 2, 3, 1, 0<br/>1, 0, 0, 0, 0, 0, 0]<br/>class = 2>, fillcolor="#fbfbe3"] ;
18 -> 19 ;
20 [label=<delivery_rate5 &le; 3.831<br/>gini = 0.583<br/>samples = 302<br/>value = [1, 82, 174, 32, 0, 0, 0, 4, 4, 2, 3, 0, 0, 0<br/>0, 0, 0, 0, 0, 0]<br/>class = 2>, fillcolor="#f3f4ac"] ;
19 -> 20 ;
21 [label=<gini = 0.536<br/>samples = 54<br/>value = [0, 33, 16, 0, 0, 0, 0, 1, 1, 2, 1, 0, 0, 0<br/>0, 0, 0, 0, 0, 0]<br/>class = 1>, fillcolor="#f3dda6"] ;
20 -> 21 ;
22 [label=<delivery_rate8 &le; 228.428<br/>gini = 0.538<br/>samples = 248<br/>value = [1, 49, 158, 32, 0, 0, 0, 3, 3, 0, 2, 0, 0, 0<br/>0, 0, 0, 0, 0, 0]<br/>class = 2>, fillcolor="#eff193"] ;
20 -> 22 ;
23 [label=<delivery_rate0 &le; 6.573<br/>gini = 0.503<br/>samples = 233<br/>value = [0, 36, 157, 32, 0, 0, 0, 3, 3, 0, 2, 0, 0, 0<br/>0, 0, 0, 0, 0, 0]<br/>class = 2>, fillcolor="#edef85"] ;
22 -> 23 ;
24 [label=<size8 &le; 22.564<br/>gini = 0.311<br/>samples = 113<br/>value = [0, 18, 92, 2, 0, 0, 0, 1, 0, 0, 0, 0, 0, 0<br/>0, 0, 0, 0, 0, 0]<br/>class = 2>, fillcolor="#e8eb65"] ;
23 -> 24 ;
25 [label=<gini = 0.626<br/>samples = 19<br/>value = [0, 9, 7, 2, 0, 0, 0, 1, 0, 0, 0, 0, 0, 0<br/>0, 0, 0, 0, 0, 0]<br/>class = 1>, fillcolor="#fbf2de"] ;
24 -> 25 ;
26 [label=<trans_time0 &le; 8.154<br/>gini = 0.173<br/>samples = 94<br/>value = [0, 9, 85, 0, 0, 0, 0, 0, 0, 0, 0, 0, 0, 0<br/>0, 0, 0, 0, 0, 0]<br/>class = 2>, fillcolor="#e5e84e"] ;
24 -> 26 ;
27 [label=<gini = 0.093<br/>samples = 82<br/>value = [0, 4, 78, 0, 0, 0, 0, 0, 0, 0, 0, 0, 0, 0<br/>0, 0, 0, 0, 0, 0]<br/>class = 2>, fillcolor="#e3e643"] ;
26 -> 27 ;
28 [label=<gini = 0.486<br/>samples = 12<br/>value = [0, 5, 7, 0, 0, 0, 0, 0, 0, 0, 0, 0, 0, 0<br/>0, 0, 0, 0, 0, 0]<br/>class = 2>, fillcolor="#f7f8c6"] ;
26 -> 28 ;
29 [label=<gini = 0.62<br/>samples = 120<br/>value = [0, 18, 65, 30, 0, 0, 0, 2, 3, 0, 2, 0, 0, 0<br/>0, 0, 0, 0, 0, 0]<br/>class = 2>, fillcolor="#f4f5b2"] ;
23 -> 29 ;
30 [label=<gini = 0.24<br/>samples = 15<br/>value = [1, 13, 1, 0, 0, 0, 0, 0, 0, 0, 0, 0, 0, 0<br/>0, 0, 0, 0, 0, 0]<br/>class = 1>, fillcolor="#e9bf55"] ;
22 -> 30 ;
31 [label=<gini = 0.529<br/>samples = 128<br/>value = [14, 82, 28, 2, 0, 0, 0, 0, 0, 0, 0, 1, 0, 1<br/>0, 0, 0, 0, 0, 0]<br/>class = 1>, fillcolor="#f1d694"] ;
19 -> 31 ;
32 [label=<cwnd1 &le; 53.5<br/>gini = 0.521<br/>samples = 265<br/>value = [0, 32, 171, 58, 1, 1, 0, 0, 0, 0, 1, 0, 0, 1<br/>0, 0, 0, 0, 0, 0]<br/>class = 2>, fillcolor="#eff193"] ;
18 -> 32 ;
33 [label=<delivery_rate0 &le; 3.749<br/>gini = 0.378<br/>samples = 150<br/>value = [0, 27, 115, 6, 1, 0, 0, 0, 0, 0, 1, 0, 0, 0<br/>0, 0, 0, 0, 0, 0]<br/>class = 2>, fillcolor="#eaec71"] ;
32 -> 33 ;
34 [label=<gini = 0.571<br/>samples = 21<br/>value = [0, 11, 8, 2, 0, 0, 0, 0, 0, 0, 0, 0, 0, 0<br/>0, 0, 0, 0, 0, 0]<br/>class = 1>, fillcolor="#f9eed1"] ;
33 -> 34 ;
35 [label=<size5 &le; 43.207<br/>gini = 0.296<br/>samples = 129<br/>value = [0, 16, 107, 4, 1, 0, 0, 0, 0, 0, 1, 0, 0, 0<br/>0, 0, 0, 0, 0, 0]<br/>class = 2>, fillcolor="#e8ea60"] ;
33 -> 35 ;
36 [label=<gini = 0.503<br/>samples = 28<br/>value = [0, 10, 17, 0, 0, 0, 0, 0, 0, 0, 1, 0, 0, 0<br/>0, 0, 0, 0, 0, 0]<br/>class = 2>, fillcolor="#f4f5b2"] ;
35 -> 36 ;
37 [label=<trans_time7 &le; 1.664<br/>gini = 0.201<br/>samples = 101<br/>value = [0, 6, 90, 4, 1, 0, 0, 0, 0, 0, 0, 0, 0, 0<br/>0, 0, 0, 0, 0, 0]<br/>class = 2>, fillcolor="#e5e850"] ;
35 -> 37 ;
38 [label=<rtt8 &le; 0.502<br/>gini = 0.13<br/>samples = 86<br/>value = [0, 6, 80, 0, 0, 0, 0, 0, 0, 0, 0, 0, 0, 0<br/>0, 0, 0, 0, 0, 0]<br/>class = 2>, fillcolor="#e4e748"] ;
37 -> 38 ;
39 [label=<gini = 0.071<br/>samples = 81<br/>value = [0, 3, 78, 0, 0, 0, 0, 0, 0, 0, 0, 0, 0, 0<br/>0, 0, 0, 0, 0, 0]<br/>class = 2>, fillcolor="#e3e641"] ;
38 -> 39 ;
40 [label=<gini = 0.48<br/>samples = 5<br/>value = [0, 3, 2, 0, 0, 0, 0, 0, 0, 0, 0, 0, 0, 0<br/>0, 0, 0, 0, 0, 0]<br/>class = 1>, fillcolor="#f6e6bd"] ;
38 -> 40 ;
41 [label=<gini = 0.48<br/>samples = 15<br/>value = [0, 0, 10, 4, 1, 0, 0, 0, 0, 0, 0, 0, 0, 0<br/>0, 0, 0, 0, 0, 0]<br/>class = 2>, fillcolor="#eff193"] ;
37 -> 41 ;
42 [label=<gini = 0.556<br/>samples = 115<br/>value = [0, 5, 56, 52, 0, 1, 0, 0, 0, 0, 0, 0, 0, 1<br/>0, 0, 0, 0, 0, 0]<br/>class = 2>, fillcolor="#fdfdf2"] ;
32 -> 42 ;
43 [label=<gini = 0.462<br/>samples = 72<br/>value = [11, 51, 8, 0, 0, 0, 1, 1, 0, 0, 0, 0, 0, 0<br/>0, 0, 0, 0, 0, 0]<br/>class = 1>, fillcolor="#eece7d"] ;
17 -> 43 ;
44 [label=<gini = 0.893<br/>samples = 170<br/>value = [6, 8, 19, 2, 1, 0, 0, 0, 0, 0, 6, 13, 5, 14<br/>4, 14, 33, 18, 24, 3]<br/>class = 16>, fillcolor="#fdf3fb"] ;
16 -> 44 ;
45 [label=<size8 &le; 436.232<br/>gini = 0.675<br/>samples = 1429<br/>value = [0, 34, 276, 662, 383, 43, 5, 6, 0, 0, 0, 1, 8<br/>0, 2, 2, 2, 1, 4, 0]<br/>class = 3>, fillcolor="#e9f8ca"] ;
1 -> 45 ;
46 [label=<trans_time7 &le; 1.299<br/>gini = 0.628<br/>samples = 1073<br/>value = [0, 33, 262, 570, 183, 9, 1, 2, 0, 0, 0, 1, 1<br/>0, 2, 2, 2, 1, 4, 0]<br/>class = 3>, fillcolor="#e0f5b4"] ;
45 -> 46 ;
47 [label=<delivery_rate4 &le; 25.461<br/>gini = 0.562<br/>samples = 197<br/>value = [0, 20, 116, 56, 5, 0, 0, 0, 0, 0, 0, 0, 0, 0<br/>0, 0, 0, 0, 0, 0]<br/>class = 2>, fillcolor="#f3f4ab"] ;
46 -> 47 ;
48 [label=<gini = 0.142<br/>samples = 13<br/>value = [0, 12, 1, 0, 0, 0, 0, 0, 0, 0, 0, 0, 0, 0<br/>0, 0, 0, 0, 0, 0]<br/>class = 1>, fillcolor="#e7ba49"] ;
47 -> 48 ;
49 [label=<rtt6 &le; 0.258<br/>gini = 0.514<br/>samples = 184<br/>value = [0, 8, 115, 56, 5, 0, 0, 0, 0, 0, 0, 0, 0, 0<br/>0, 0, 0, 0, 0, 0]<br/>class = 2>, fillcolor="#f2f3a4"] ;
47 -> 49 ;
50 [label=<gini = 0.525<br/>samples = 110<br/>value = [0, 1, 56, 51, 2, 0, 0, 0, 0, 0, 0, 0, 0, 0<br/>0, 0, 0, 0, 0, 0]<br/>class = 2>, fillcolor="#fdfdee"] ;
49 -> 50 ;
51 [label=<cwnd7 &le; 366.0<br/>gini = 0.349<br/>samples = 74<br/>value = [0, 7, 59, 5, 3, 0, 0, 0, 0, 0, 0, 0, 0, 0<br/>0, 0, 0, 0, 0, 0]<br/>class = 2>, fillcolor="#e8eb65"] ;
49 -> 51 ;
52 [label=<cwnd5 &le; 80.5<br/>gini = 0.243<br/>samples = 67<br/>value = [0, 1, 58, 5, 3, 0, 0, 0, 0, 0, 0, 0, 0, 0<br/>0, 0, 0, 0, 0, 0]<br/>class = 2>, fillcolor="#e6e956"] ;
51 -> 52 ;
53 [label=<gini = 0.656<br/>samples = 8<br/>value = [0, 0, 2, 3, 3, 0, 0, 0, 0, 0, 0, 0, 0, 0<br/>0, 0, 0, 0, 0, 0]<br/>class = 3>, fillcolor="#ffffff"] ;
52 -> 53 ;
54 [label=<gini = 0.098<br/>samples = 59<br/>value = [0, 1, 56, 2, 0, 0, 0, 0, 0, 0, 0, 0, 0, 0<br/>0, 0, 0, 0, 0, 0]<br/>class = 2>, fillcolor="#e4e643"] ;
52 -> 54 ;
55 [label=<gini = 0.245<br/>samples = 7<br/>value = [0, 6, 1, 0, 0, 0, 0, 0, 0, 0, 0, 0, 0, 0<br/>0, 0, 0, 0, 0, 0]<br/>class = 1>, fillcolor="#e9c15a"] ;
51 -> 55 ;
56 [label=<cwnd8 &le; 258.0<br/>gini = 0.586<br/>samples = 876<br/>value = [0, 13, 146, 514, 178, 9, 1, 2, 0, 0, 0, 1, 1<br/>0, 2, 2, 2, 1, 4, 0]<br/>class = 3>, fillcolor="#d8f2a0"] ;
46 -> 56 ;
57 [label=<delivery_rate8 &le; 218.673<br/>gini = 0.546<br/>samples = 819<br/>value = [0, 0, 112, 510, 178, 9, 1, 0, 0, 0, 0, 1, 1<br/>0, 2, 1, 0, 0, 4, 0]<br/>class = 3>, fillcolor="#d5f298"] ;
56 -> 57 ;
58 [label=<size8 &le; 353.888<br/>gini = 0.555<br/>samples = 242<br/>value = [0, 0, 3, 123, 104, 9, 1, 0, 0, 0, 0, 1, 1, 0<br/>0, 0, 0, 0, 0, 0]<br/>class = 3>, fillcolor="#f4fbe4"] ;
57 -> 58 ;
59 [label=<cwnd7 &le; 55.0<br/>gini = 0.325<br/>samples = 128<br/>value = [0, 0, 3, 103, 21, 0, 1, 0, 0, 0, 0, 0, 0, 0<br/>0, 0, 0, 0, 0, 0]<br/>class = 3>, fillcolor="#c1eb67"] ;
58 -> 59 ;
60 [label=<gini = 0.49<br/>samples = 14<br/>value = [0, 0, 0, 6, 8, 0, 0, 0, 0, 0, 0, 0, 0, 0<br/>0, 0, 0, 0, 0, 0]<br/>class = 4>, fillcolor="#def8ce"] ;
59 -> 60 ;
61 [label=<in_flight2 &le; 29.0<br/>gini = 0.262<br/>samples = 114<br/>value = [0, 0, 3, 97, 13, 0, 1, 0, 0, 0, 0, 0, 0, 0<br/>0, 0, 0, 0, 0, 0]<br/>class = 3>, fillcolor="#bce95a"] ;
59 -> 61 ;
62 [label=<delivery_rate7 &le; 92.705<br/>gini = 0.229<br/>samples = 110<br/>value = [0, 0, 3, 96, 10, 0, 1, 0, 0, 0, 0, 0, 0, 0<br/>0, 0, 0, 0, 0, 0]<br/>class = 3>, fillcolor="#b9e955"] ;
61 -> 62 ;
63 [label=<gini = 0.625<br/>samples = 4<br/>value = [0, 0, 1, 1, 2, 0, 0, 0, 0, 0, 0, 0, 0, 0<br/>0, 0, 0, 0, 0, 0]<br/>class = 4>, fillcolor="#d3f6bd"] ;
62 -> 63 ;
64 [label=<delivery_rate3 &le; 49.682<br/>gini = 0.191<br/>samples = 106<br/>value = [0, 0, 2, 95, 8, 0, 1, 0, 0, 0, 0, 0, 0, 0<br/>0, 0, 0, 0, 0, 0]<br/>class = 3>, fillcolor="#b7e84f"] ;
62 -> 64 ;
65 [label=<gini = 0.0<br/>samples = 1<br/>value = [0, 0, 0, 0, 1, 0, 0, 0, 0, 0, 0, 0, 0, 0<br/>0, 0, 0, 0, 0, 0]<br/>class = 4>, fillcolor="#7be539"] ;
64 -> 65 ;
66 [label=<rtt6 &le; 0.114<br/>gini = 0.177<br/>samples = 105<br/>value = [0, 0, 2, 95, 7, 0, 1, 0, 0, 0, 0, 0, 0, 0<br/>0, 0, 0, 0, 0, 0]<br/>class = 3>, fillcolor="#b6e84d"] ;
64 -> 66 ;
67 [label=<gini = 0.0<br/>samples = 1<br/>value = [0, 0, 0, 0, 1, 0, 0, 0, 0, 0, 0, 0, 0, 0<br/>0, 0, 0, 0, 0, 0]<br/>class = 4>, fillcolor="#7be539"] ;
66 -> 67 ;
68 [label=<delivery_rate8 &le; 218.433<br/>gini = 0.162<br/>samples = 104<br/>value = [0, 0, 2, 95, 6, 0, 1, 0, 0, 0, 0, 0, 0, 0<br/>0, 0, 0, 0, 0, 0]<br/>class = 3>, fillcolor="#b5e74b"] ;
66 -> 68 ;
69 [label=<size8 &le; 335.203<br/>gini = 0.146<br/>samples = 103<br/>value = [0, 0, 2, 95, 5, 0, 1, 0, 0, 0, 0, 0, 0, 0<br/>0, 0, 0, 0, 0, 0]<br/>class = 3>, fillcolor="#b5e749"] ;
68 -> 69 ;
70 [label=<trans_time6 &le; 5.375<br/>gini = 0.103<br/>samples = 94<br/>value = [0, 0, 2, 89, 2, 0, 1, 0, 0, 0, 0, 0, 0, 0<br/>0, 0, 0, 0, 0, 0]<br/>class = 3>, fillcolor="#b2e644"] ;
69 -> 70 ;
71 [label=<gini = 0.083<br/>samples = 93<br/>value = [0, 0, 2, 89, 2, 0, 0, 0, 0, 0, 0, 0, 0, 0<br/>0, 0, 0, 0, 0, 0]<br/>class = 3>, fillcolor="#b2e642"] ;
70 -> 71 ;
72 [label=<gini = 0.0<br/>samples = 1<br/>value = [0, 0, 0, 0, 0, 0, 1, 0, 0, 0, 0, 0, 0, 0<br/>0, 0, 0, 0, 0, 0]<br/>class = 6>, fillcolor="#39e55e"] ;
70 -> 72 ;
73 [label=<gini = 0.444<br/>samples = 9<br/>value = [0, 0, 0, 6, 3, 0, 0, 0, 0, 0, 0, 0, 0, 0<br/>0, 0, 0, 0, 0, 0]<br/>class = 3>, fillcolor="#d6f29c"] ;
69 -> 73 ;
74 [label=<gini = 0.0<br/>samples = 1<br/>value = [0, 0, 0, 0, 1, 0, 0, 0, 0, 0, 0, 0, 0, 0<br/>0, 0, 0, 0, 0, 0]<br/>class = 4>, fillcolor="#7be539"] ;
68 -> 74 ;
75 [label=<gini = 0.375<br/>samples = 4<br/>value = [0, 0, 0, 1, 3, 0, 0, 0, 0, 0, 0, 0, 0, 0<br/>0, 0, 0, 0, 0, 0]<br/>class = 4>, fillcolor="#a7ee7b"] ;
61 -> 75 ;
76 [label=<cwnd7 &le; 151.0<br/>gini = 0.433<br/>samples = 114<br/>value = [0, 0, 0, 20, 83, 9, 0, 0, 0, 0, 0, 1, 1, 0<br/>0, 0, 0, 0, 0, 0]<br/>class = 4>, fillcolor="#a7ee7a"] ;
58 -> 76 ;
77 [label=<size2 &le; 69.684<br/>gini = 0.348<br/>samples = 103<br/>value = [0, 0, 0, 12, 82, 7, 0, 0, 0, 0, 0, 1, 1, 0<br/>0, 0, 0, 0, 0, 0]<br/>class = 4>, fillcolor="#99eb67"] ;
76 -> 77 ;
78 [label=<gini = 0.0<br/>samples = 3<br/>value = [0, 0, 0, 3, 0, 0, 0, 0, 0, 0, 0, 0, 0, 0<br/>0, 0, 0, 0, 0, 0]<br/>class = 3>, fillcolor="#aee539"] ;
77 -> 78 ;
79 [label=<in_flight3 &le; 45.0<br/>gini = 0.314<br/>samples = 100<br/>value = [0, 0, 0, 9, 82, 7, 0, 0, 0, 0, 0, 1, 1, 0<br/>0, 0, 0, 0, 0, 0]<br/>class = 4>, fillcolor="#95ea60"] ;
77 -> 79 ;
80 [label=<delivery_rate6 &le; 112.416<br/>gini = 0.276<br/>samples = 97<br/>value = [0, 0, 0, 7, 82, 6, 0, 0, 0, 0, 0, 1, 1, 0<br/>0, 0, 0, 0, 0, 0]<br/>class = 4>, fillcolor="#91e95a"] ;
79 -> 80 ;
81 [label=<gini = 0.5<br/>samples = 2<br/>value = [0, 0, 0, 0, 0, 0, 0, 0, 0, 0, 0, 1, 1, 0<br/>0, 0, 0, 0, 0, 0]<br/>class = 11>, fillcolor="#ffffff"] ;
80 -> 81 ;
82 [label=<rtt8 &le; 0.113<br/>gini = 0.246<br/>samples = 95<br/>value = [0, 0, 0, 7, 82, 6, 0, 0, 0, 0, 0, 0, 0, 0<br/>0, 0, 0, 0, 0, 0]<br/>class = 4>, fillcolor="#8ee956"] ;
80 -> 82 ;
83 [label=<gini = 0.612<br/>samples = 7<br/>value = [0, 0, 0, 3, 3, 1, 0, 0, 0, 0, 0, 0, 0, 0<br/>0, 0, 0, 0, 0, 0]<br/>class = 3>, fillcolor="#ffffff"] ;
82 -> 83 ;
84 [label=<size7 &le; 390.425<br/>gini = 0.189<br/>samples = 88<br/>value = [0, 0, 0, 4, 79, 5, 0, 0, 0, 0, 0, 0, 0, 0<br/>0, 0, 0, 0, 0, 0]<br/>class = 4>, fillcolor="#89e84e"] ;
82 -> 84 ;
85 [label=<gini = 0.435<br/>samples = 25<br/>value = [0, 0, 0, 2, 18, 5, 0, 0, 0, 0, 0, 0, 0, 0<br/>0, 0, 0, 0, 0, 0]<br/>class = 4>, fillcolor="#a9ee7e"] ;
84 -> 85 ;
86 [label=<gini = 0.061<br/>samples = 63<br/>value = [0, 0, 0, 2, 61, 0, 0, 0, 0, 0, 0, 0, 0, 0<br/>0, 0, 0, 0, 0, 0]<br/>class = 4>, fillcolor="#7fe63f"] ;
84 -> 86 ;
87 [label=<gini = 0.444<br/>samples = 3<br/>value = [0, 0, 0, 2, 0, 1, 0, 0, 0, 0, 0, 0, 0, 0<br/>0, 0, 0, 0, 0, 0]<br/>class = 3>, fillcolor="#d6f29c"] ;
79 -> 87 ;
88 [label=<gini = 0.43<br/>samples = 11<br/>value = [0, 0, 0, 8, 1, 2, 0, 0, 0, 0, 0, 0, 0, 0<br/>0, 0, 0, 0, 0, 0]<br/>class = 3>, fillcolor="#c9ee7b"] ;
76 -> 88 ;
89 [label=<size8 &le; 331.388<br/>gini = 0.498<br/>samples = 577<br/>value = [0, 0, 109, 387, 74, 0, 0, 0, 0, 0, 0, 0, 0<br/>0, 2, 1, 0, 0, 4, 0]<br/>class = 3>, fillcolor="#cff089"] ;
57 -> 89 ;
90 [label=<delivery_rate8 &le; 283.462<br/>gini = 0.53<br/>samples = 147<br/>value = [0, 0, 76, 66, 1, 0, 0, 0, 0, 0, 0, 0, 0, 0<br/>0, 0, 0, 0, 4, 0]<br/>class = 2>, fillcolor="#fbfce7"] ;
89 -> 90 ;
91 [label=<rtt7 &le; 0.262<br/>gini = 0.441<br/>samples = 82<br/>value = [0, 0, 25, 56, 1, 0, 0, 0, 0, 0, 0, 0, 0, 0<br/>0, 0, 0, 0, 0, 0]<br/>class = 3>, fillcolor="#d3f193"] ;
90 -> 91 ;
92 [label=<trans_time6 &le; 1.55<br/>gini = 0.314<br/>samples = 68<br/>value = [0, 0, 12, 55, 1, 0, 0, 0, 0, 0, 0, 0, 0, 0<br/>0, 0, 0, 0, 0, 0]<br/>class = 3>, fillcolor="#c1eb67"] ;
91 -> 92 ;
93 [label=<gini = 0.484<br/>samples = 17<br/>value = [0, 0, 10, 7, 0, 0, 0, 0, 0, 0, 0, 0, 0, 0<br/>0, 0, 0, 0, 0, 0]<br/>class = 2>, fillcolor="#f6f7c4"] ;
92 -> 93 ;
94 [label=<cwnd2 &le; 214.0<br/>gini = 0.112<br/>samples = 51<br/>value = [0, 0, 2, 48, 1, 0, 0, 0, 0, 0, 0, 0, 0, 0<br/>0, 0, 0, 0, 0, 0]<br/>class = 3>, fillcolor="#b3e745"] ;
92 -> 94 ;
95 [label=<gini = 0.04<br/>samples = 49<br/>value = [0, 0, 1, 48, 0, 0, 0, 0, 0, 0, 0, 0, 0, 0<br/>0, 0, 0, 0, 0, 0]<br/>class = 3>, fillcolor="#b0e63d"] ;
94 -> 95 ;
96 [label=<gini = 0.5<br/>samples = 2<br/>value = [0, 0, 1, 0, 1, 0, 0, 0, 0, 0, 0, 0, 0, 0<br/>0, 0, 0, 0, 0, 0]<br/>class = 2>, fillcolor="#ffffff"] ;
94 -> 96 ;
97 [label=<gini = 0.133<br/>samples = 14<br/>value = [0, 0, 13, 1, 0, 0, 0, 0, 0, 0, 0, 0, 0, 0<br/>0, 0, 0, 0, 0, 0]<br/>class = 2>, fillcolor="#e4e748"] ;
91 -> 97 ;
98 [label=<gini = 0.357<br/>samples = 65<br/>value = [0, 0, 51, 10, 0, 0, 0, 0, 0, 0, 0, 0, 0, 0<br/>0, 0, 0, 0, 4, 0]<br/>class = 2>, fillcolor="#e9ec6b"] ;
90 -> 98 ;
99 [label=<delivery_rate8 &le; 298.304<br/>gini = 0.408<br/>samples = 430<br/>value = [0, 0, 33, 321, 73, 0, 0, 0, 0, 0, 0, 0, 0, 0<br/>2, 1, 0, 0, 0, 0]<br/>class = 3>, fillcolor="#c7ed75"] ;
89 -> 99 ;
100 [label=<gini = 0.457<br/>samples = 198<br/>value = [0, 0, 4, 133, 60, 0, 0, 0, 0, 0, 0, 0, 0, 0<br/>0, 1, 0, 0, 0, 0]<br/>class = 3>, fillcolor="#d4f196"] ;
99 -> 100 ;
101 [label=<trans_time6 &le; 0.933<br/>gini = 0.325<br/>samples = 232<br/>value = [0, 0, 29, 188, 13, 0, 0, 0, 0, 0, 0, 0, 0, 0<br/>2, 0, 0, 0, 0, 0]<br/>class = 3>, fillcolor="#c0eb64"] ;
99 -> 101 ;
102 [label=<gini = 0.165<br/>samples = 11<br/>value = [0, 0, 10, 1, 0, 0, 0, 0, 0, 0, 0, 0, 0, 0<br/>0, 0, 0, 0, 0, 0]<br/>class = 2>, fillcolor="#e5e84d"] ;
101 -> 102 ;
103 [label=<delivery_rate5 &le; 435.051<br/>gini = 0.273<br/>samples = 221<br/>value = [0, 0, 19, 187, 13, 0, 0, 0, 0, 0, 0, 0, 0, 0<br/>2, 0, 0, 0, 0, 0]<br/>class = 3>, fillcolor="#bce95a"] ;
101 -> 103 ;
104 [label=<size1 &le; 461.008<br/>gini = 0.241<br/>samples = 216<br/>value = [0, 0, 16, 187, 13, 0, 0, 0, 0, 0, 0, 0, 0, 0<br/>0, 0, 0, 0, 0, 0]<br/>class = 3>, fillcolor="#bae956"] ;
103 -> 104 ;
105 [label=<rtt4 &le; 0.431<br/>gini = 0.192<br/>samples = 202<br/>value = [0, 0, 9, 181, 12, 0, 0, 0, 0, 0, 0, 0, 0, 0<br/>0, 0, 0, 0, 0, 0]<br/>class = 3>, fillcolor="#b7e84f"] ;
104 -> 105 ;
106 [label=<cwnd8 &le; 63.0<br/>gini = 0.161<br/>samples = 197<br/>value = [0, 0, 8, 180, 9, 0, 0, 0, 0, 0, 0, 0, 0, 0<br/>0, 0, 0, 0, 0, 0]<br/>class = 3>, fillcolor="#b5e74b"] ;
105 -> 106 ;
107 [label=<gini = 0.444<br/>samples = 3<br/>value = [0, 0, 1, 0, 2, 0, 0, 0, 0, 0, 0, 0, 0, 0<br/>0, 0, 0, 0, 0, 0]<br/>class = 4>, fillcolor="#bdf29c"] ;
106 -> 107 ;
108 [label=<trans_time3 &le; 14.216<br/>gini = 0.137<br/>samples = 194<br/>value = [0, 0, 7, 180, 7, 0, 0, 0, 0, 0, 0, 0, 0, 0<br/>0, 0, 0, 0, 0, 0]<br/>class = 3>, fillcolor="#b4e748"] ;
106 -> 108 ;
109 [label=<delivery_rate2 &le; 8.751<br/>gini = 0.119<br/>samples = 192<br/>value = [0, 0, 7, 180, 5, 0, 0, 0, 0, 0, 0, 0, 0, 0<br/>0, 0, 0, 0, 0, 0]<br/>class = 3>, fillcolor="#b3e746"] ;
108 -> 109 ;
110 [label=<gini = 0.444<br/>samples = 3<br/>value = [0, 0, 2, 1, 0, 0, 0, 0, 0, 0, 0, 0, 0, 0<br/>0, 0, 0, 0, 0, 0]<br/>class = 2>, fillcolor="#f0f29c"] ;
109 -> 110 ;
111 [label=<rtt7 &le; 0.506<br/>gini = 0.102<br/>samples = 189<br/>value = [0, 0, 5, 179, 5, 0, 0, 0, 0, 0, 0, 0, 0, 0<br/>0, 0, 0, 0, 0, 0]<br/>class = 3>, fillcolor="#b2e644"] ;
109 -> 111 ;
112 [label=<gini = 0.092<br/>samples = 188<br/>value = [0, 0, 5, 179, 4, 0, 0, 0, 0, 0, 0, 0, 0, 0<br/>0, 0, 0, 0, 0, 0]<br/>class = 3>, fillcolor="#b2e643"] ;
111 -> 112 ;
113 [label=<gini = 0.0<br/>samples = 1<br/>value = [0, 0, 0, 0, 1, 0, 0, 0, 0, 0, 0, 0, 0, 0<br/>0, 0, 0, 0, 0, 0]<br/>class = 4>, fillcolor="#7be539"] ;
111 -> 113 ;
114 [label=<gini = 0.0<br/>samples = 2<br/>value = [0, 0, 0, 0, 2, 0, 0, 0, 0, 0, 0, 0, 0, 0<br/>0, 0, 0, 0, 0, 0]<br/>class = 4>, fillcolor="#7be539"] ;
108 -> 114 ;
115 [label=<gini = 0.56<br/>samples = 5<br/>value = [0, 0, 1, 1, 3, 0, 0, 0, 0, 0, 0, 0, 0, 0<br/>0, 0, 0, 0, 0, 0]<br/>class = 4>, fillcolor="#bdf29c"] ;
105 -> 115 ;
116 [label=<gini = 0.561<br/>samples = 14<br/>value = [0, 0, 7, 6, 1, 0, 0, 0, 0, 0, 0, 0, 0, 0<br/>0, 0, 0, 0, 0, 0]<br/>class = 2>, fillcolor="#fbfce6"] ;
104 -> 116 ;
117 [label=<gini = 0.48<br/>samples = 5<br/>value = [0, 0, 3, 0, 0, 0, 0, 0, 0, 0, 0, 0, 0, 0<br/>2, 0, 0, 0, 0, 0]<br/>class = 2>, fillcolor="#f5f6bd"] ;
103 -> 117 ;
118 [label=<gini = 0.584<br/>samples = 57<br/>value = [0, 13, 34, 4, 0, 0, 0, 2, 0, 0, 0, 0, 0, 0<br/>0, 1, 2, 1, 0, 0]<br/>class = 2>, fillcolor="#f1f3a0"] ;
56 -> 118 ;
119 [label=<cwnd8 &le; 99.0<br/>gini = 0.606<br/>samples = 356<br/>value = [0, 1, 14, 92, 200, 34, 4, 4, 0, 0, 0, 0, 7<br/>0, 0, 0, 0, 0, 0, 0]<br/>class = 4>, fillcolor="#c9f4ae"] ;
45 -> 119 ;
120 [label=<delivery_rate8 &le; 203.718<br/>gini = 0.377<br/>samples = 192<br/>value = [0, 0, 0, 18, 149, 21, 1, 0, 0, 0, 0, 0, 3, 0<br/>0, 0, 0, 0, 0, 0]<br/>class = 4>, fillcolor="#9cec6b"] ;
119 -> 120 ;
121 [label=<gini = 0.546<br/>samples = 36<br/>value = [0, 0, 0, 0, 15, 19, 1, 0, 0, 0, 0, 0, 1, 0<br/>0, 0, 0, 0, 0, 0]<br/>class = 5>, fillcolor="#dcfad9"] ;
120 -> 121 ;
122 [label=<in_flight3 &le; 34.5<br/>gini = 0.249<br/>samples = 156<br/>value = [0, 0, 0, 18, 134, 2, 0, 0, 0, 0, 0, 0, 2, 0<br/>0, 0, 0, 0, 0, 0]<br/>class = 4>, fillcolor="#90e959"] ;
120 -> 122 ;
123 [label=<in_flight5 &le; 43.0<br/>gini = 0.187<br/>samples = 148<br/>value = [0, 0, 0, 11, 133, 2, 0, 0, 0, 0, 0, 0, 2, 0<br/>0, 0, 0, 0, 0, 0]<br/>class = 4>, fillcolor="#89e84f"] ;
122 -> 123 ;
124 [label=<in_flight1 &le; 46.5<br/>gini = 0.155<br/>samples = 145<br/>value = [0, 0, 0, 8, 133, 2, 0, 0, 0, 0, 0, 0, 2, 0<br/>0, 0, 0, 0, 0, 0]<br/>class = 4>, fillcolor="#87e74a"] ;
123 -> 124 ;
125 [label=<delivery_rate8 &le; 320.283<br/>gini = 0.133<br/>samples = 143<br/>value = [0, 0, 0, 6, 133, 2, 0, 0, 0, 0, 0, 0, 2, 0<br/>0, 0, 0, 0, 0, 0]<br/>class = 4>, fillcolor="#85e747"] ;
124 -> 125 ;
126 [label=<gini = 0.085<br/>samples = 136<br/>value = [0, 0, 0, 4, 130, 0, 0, 0, 0, 0, 0, 0, 2, 0<br/>0, 0, 0, 0, 0, 0]<br/>class = 4>, fillcolor="#81e642"] ;
125 -> 126 ;
127 [label=<gini = 0.653<br/>samples = 7<br/>value = [0, 0, 0, 2, 3, 2, 0, 0, 0, 0, 0, 0, 0, 0<br/>0, 0, 0, 0, 0, 0]<br/>class = 4>, fillcolor="#e5fad7"] ;
125 -> 127 ;
128 [label=<gini = 0.0<br/>samples = 2<br/>value = [0, 0, 0, 2, 0, 0, 0, 0, 0, 0, 0, 0, 0, 0<br/>0, 0, 0, 0, 0, 0]<br/>class = 3>, fillcolor="#aee539"] ;
124 -> 128 ;
129 [label=<gini = 0.0<br/>samples = 3<br/>value = [0, 0, 0, 3, 0, 0, 0, 0, 0, 0, 0, 0, 0, 0<br/>0, 0, 0, 0, 0, 0]<br/>class = 3>, fillcolor="#aee539"] ;
123 -> 129 ;
130 [label=<gini = 0.219<br/>samples = 8<br/>value = [0, 0, 0, 7, 1, 0, 0, 0, 0, 0, 0, 0, 0, 0<br/>0, 0, 0, 0, 0, 0]<br/>class = 3>, fillcolor="#bae955"] ;
122 -> 130 ;
131 [label=<gini = 0.685<br/>samples = 164<br/>value = [0, 1, 14, 74, 51, 13, 3, 4, 0, 0, 0, 0, 4, 0<br/>0, 0, 0, 0, 0, 0]<br/>class = 3>, fillcolor="#effad7"] ;
119 -> 131 ;
132 [label=<trans_time5 &le; 3.816<br/>gini = 0.11<br/>samples = 898<br/>value = [6, 7, 11, 4, 1, 2, 0, 1, 0, 0, 0, 0, 0, 0<br/>0, 1, 4, 7, 7, 847]<br/>class = 19>, fillcolor="#e65744"] ;
0 -> 132 [labeldistance=2.5, labelangle=-45, headlabel="False"] ;
133 [label=<gini = 0.735<br/>samples = 14<br/>value = [2, 3, 6, 0, 0, 1, 0, 1, 0, 0, 0, 0, 0, 0<br/>0, 0, 0, 0, 0, 1]<br/>class = 2>, fillcolor="#f7f8c9"] ;
132 -> 133 ;
134 [label=<gini = 0.084<br/>samples = 884<br/>value = [4, 4, 5, 4, 1, 1, 0, 0, 0, 0, 0, 0, 0, 0<br/>0, 1, 4, 7, 7, 846]<br/>class = 19>, fillcolor="#e65542"] ;
132 -> 134 ;
}
