digraph Tree {
node [shape=box, style="filled, rounded", color="black", fontname="helvetica"] ;
edge [fontname="helvetica"] ;
0 [label=<size8 &le; 238.513<br/>gini = 0.75<br/>samples = 191<br/>value = [45, 54, 25, 59, 8]<br/>class = 3>, fillcolor="#f8f8fe"] ;
1 [label=<size8 &le; 44.506<br/>gini = 0.535<br/>samples = 101<br/>value = [45, 52, 4, 0, 0]<br/>class = 1>, fillcolor="#eefce6"] ;
0 -> 1 [labeldistance=2.5, labelangle=45, headlabel="True"] ;
2 [label=<trans_time7 &le; 1.364<br/>gini = 0.121<br/>samples = 31<br/>value = [29, 2, 0, 0, 0]<br/>class = 0>, fillcolor="#e78a47"] ;
1 -> 2 ;
3 [label=<gini = 0.064<br/>samples = 30<br/>value = [29, 1, 0, 0, 0]<br/>class = 0>, fillcolor="#e68540"] ;
2 -> 3 ;
4 [label=<gini = 0.0<br/>samples = 1<br/>value = [0, 1, 0, 0, 0]<br/>class = 1>, fillcolor="#7be539"] ;
2 -> 4 ;
5 [label=<in_flight2 &le; 22.5<br/>gini = 0.434<br/>samples = 70<br/>value = [16, 50, 4, 0, 0]<br/>class = 1>, fillcolor="#acef82"] ;
1 -> 5 ;
6 [label=<trans_time4 &le; 0.404<br/>gini = 0.335<br/>samples = 60<br/>value = [9, 48, 3, 0, 0]<br/>class = 1>, fillcolor="#9aeb68"] ;
5 -> 6 ;
7 [label=<size6 &le; 37.239<br/>gini = 0.48<br/>samples = 10<br/>value = [6, 4, 0, 0, 0]<br/>class = 0>, fillcolor="#f6d5bd"] ;
6 -> 7 ;
8 [label=<gini = 0.0<br/>samples = 4<br/>value = [0, 4, 0, 0, 0]<br/>class = 1>, fillcolor="#7be539"] ;
7 -> 8 ;
9 [label=<gini = 0.0<br/>samples = 6<br/>value = [6, 0, 0, 0, 0]<br/>class = 0>, fillcolor="#e58139"] ;
7 -> 9 ;
10 [label=<in_flight6 &le; 41.5<br/>gini = 0.218<br/>samples = 50<br/>value = [3, 44, 3, 0, 0]<br/>class = 1>, fillcolor="#8ce852"] ;
6 -> 10 ;
11 [label=<cwnd3 &le; 843.0<br/>gini = 0.122<br/>samples = 46<br/>value = [0, 43, 3, 0, 0]<br/>class = 1>, fillcolor="#84e747"] ;
10 -> 11 ;
12 [label=<gini = 0.085<br/>samples = 45<br/>value = [0, 43, 2, 0, 0]<br/>class = 1>, fillcolor="#81e642"] ;
11 -> 12 ;
13 [label=<gini = 0.0<br/>samples = 1<br/>value = [0, 0, 1, 0, 0]<br/>class = 2>, fillcolor="#39e5c5"] ;
11 -> 13 ;
14 [label=<trans_time5 &le; 0.444<br/>gini = 0.375<br/>samples = 4<br/>value = [3, 1, 0, 0, 0]<br/>class = 0>, fillcolor="#eeab7b"] ;
10 -> 14 ;
15 [label=<gini = 0.0<br/>samples = 1<br/>value = [0, 1, 0, 0, 0]<br/>class = 1>, fillcolor="#7be539"] ;
14 -> 15 ;
16 [label=<gini = 0.0<br/>samples = 3<br/>value = [3, 0, 0, 0, 0]<br/>class = 0>, fillcolor="#e58139"] ;
14 -> 16 ;
17 [label=<cwnd2 &le; 230.0<br/>gini = 0.46<br/>samples = 10<br/>value = [7, 2, 1, 0, 0]<br/>class = 0>, fillcolor="#efb083"] ;
5 -> 17 ;
18 [label=<gini = 0.0<br/>samples = 2<br/>value = [0, 2, 0, 0, 0]<br/>class = 1>, fillcolor="#7be539"] ;
17 -> 18 ;
19 [label=<size6 &le; 250.447<br/>gini = 0.219<br/>samples = 8<br/>value = [7, 0, 1, 0, 0]<br/>class = 0>, fillcolor="#e99355"] ;
17 -> 19 ;
20 [label=<gini = 0.0<br/>samples = 7<br/>value = [7, 0, 0, 0, 0]<br/>class = 0>, fillcolor="#e58139"] ;
19 -> 20 ;
21 [label=<gini = 0.0<br/>samples = 1<br/>value = [0, 0, 1, 0, 0]<br/>class = 2>, fillcolor="#39e5c5"] ;
19 -> 21 ;
22 [label=<trans_time7 &le; 1.471<br/>gini = 0.507<br/>samples = 90<br/>value = [0, 2, 21, 59, 8]<br/>class = 3>, fillcolor="#9492f1"] ;
0 -> 22 [labeldistance=2.5, labelangle=-45, headlabel="False"] ;
23 [label=<cwnd7 &le; 272.0<br/>gini = 0.587<br/>samples = 31<br/>value = [0, 2, 17, 10, 2]<br/>class = 2>, fillcolor="#bdf6ec"] ;
22 -> 23 ;
24 [label=<gini = 0.0<br/>samples = 5<br/>value = [0, 0, 0, 5, 0]<br/>class = 3>, fillcolor="#3c39e5"] ;
23 -> 24 ;
25 [label=<size8 &le; 465.297<br/>gini = 0.524<br/>samples = 26<br/>value = [0, 2, 17, 5, 2]<br/>class = 2>, fillcolor="#8ef0de"] ;
23 -> 25 ;
26 [label=<in_flight3 &le; 23.5<br/>gini = 0.376<br/>samples = 22<br/>value = [0, 2, 17, 3, 0]<br/>class = 2>, fillcolor="#6decd4"] ;
25 -> 26 ;
27 [label=<rtt2 &le; 0.821<br/>gini = 0.194<br/>samples = 19<br/>value = [0, 1, 17, 1, 0]<br/>class = 2>, fillcolor="#4fe8cb"] ;
26 -> 27 ;
28 [label=<in_flight7 &le; 23.5<br/>gini = 0.105<br/>samples = 18<br/>value = [0, 0, 17, 1, 0]<br/>class = 2>, fillcolor="#45e7c8"] ;
27 -> 28 ;
29 [label=<gini = 0.0<br/>samples = 17<br/>value = [0, 0, 17, 0, 0]<br/>class = 2>, fillcolor="#39e5c5"] ;
28 -> 29 ;
30 [label=<gini = 0.0<br/>samples = 1<br/>value = [0, 0, 0, 1, 0]<br/>class = 3>, fillcolor="#3c39e5"] ;
28 -> 30 ;
31 [label=<gini = 0.0<br/>samples = 1<br/>value = [0, 1, 0, 0, 0]<br/>class = 1>, fillcolor="#7be539"] ;
27 -> 31 ;
32 [label=<gini = 0.444<br/>samples = 3<br/>value = [0, 1, 0, 2, 0]<br/>class = 3>, fillcolor="#9e9cf2"] ;
26 -> 32 ;
33 [label=<gini = 0.5<br/>samples = 4<br/>value = [0, 0, 0, 2, 2]<br/>class = 3>, fillcolor="#ffffff"] ;
25 -> 33 ;
34 [label=<size8 &le; 503.447<br/>gini = 0.295<br/>samples = 59<br/>value = [0, 0, 4, 49, 6]<br/>class = 3>, fillcolor="#615eea"] ;
22 -> 34 ;
35 [label=<cwnd7 &le; 568.0<br/>gini = 0.171<br/>samples = 54<br/>value = [0, 0, 4, 49, 1]<br/>class = 3>, fillcolor="#504de8"] ;
34 -> 35 ;
36 [label=<delivery_rate6 &le; 42.831<br/>gini = 0.11<br/>samples = 52<br/>value = [0, 0, 2, 49, 1]<br/>class = 3>, fillcolor="#4845e7"] ;
35 -> 36 ;
37 [label=<gini = 0.0<br/>samples = 1<br/>value = [0, 0, 0, 0, 1]<br/>class = 4>, fillcolor="#e539c0"] ;
36 -> 37 ;
38 [label=<gini = 0.075<br/>samples = 51<br/>value = [0, 0, 2, 49, 0]<br/>class = 3>, fillcolor="#4441e6"] ;
36 -> 38 ;
39 [label=<gini = 0.0<br/>samples = 2<br/>value = [0, 0, 2, 0, 0]<br/>class = 2>, fillcolor="#39e5c5"] ;
35 -> 39 ;
40 [label=<gini = 0.0<br/>samples = 5<br/>value = [0, 0, 0, 0, 5]<br/>class = 4>, fillcolor="#e539c0"] ;
34 -> 40 ;
}
