digraph Tree {
node [shape=box, style="filled, rounded", color="black", fontname="helvetica"] ;
edge [fontname="helvetica"] ;
0 [label=<trans_time7 &le; 5.22<br/>gini = 0.798<br/>samples = 4645<br/>value = [350, 656, 1142, 1318, 108, 53, 12, 2, 2, 1, 8, 7<br/>16, 6, 4, 13, 23, 34, 27, 863]<br/>class = 3>, fillcolor="#fbfef5"] ;
1 [label=<size8 &le; 261.801<br/>gini = 0.742<br/>samples = 3687<br/>value = [336, 650, 1128, 1300, 108, 53, 12, 2, 2, 1, 8, 7<br/>14, 5, 4, 6, 10, 16, 16, 9]<br/>class = 3>, fillcolor="#fafdf2"] ;
0 -> 1 [labeldistance=2.5, labelangle=45, headlabel="True"] ;
2 [label=<trans_time7 &le; 0.673<br/>gini = 0.719<br/>samples = 1491<br/>value = [336, 552, 448, 66, 0, 0, 0, 2, 2, 0, 7, 6, 10<br/>3, 3, 6, 10, 16, 16, 8]<br/>class = 1>, fillcolor="#fcf8eb"] ;
1 -> 2 ;
3 [label=<size8 &le; 59.966<br/>gini = 0.564<br/>samples = 644<br/>value = [297, 301, 43, 2, 0, 0, 0, 0, 0, 0, 0, 0, 0<br/>0, 0, 0, 0, 0, 0, 1]<br/>class = 1>, fillcolor="#fffefd"] ;
2 -> 3 ;
4 [label=<cwnd8 &le; 105.0<br/>gini = 0.333<br/>samples = 310<br/>value = [247, 55, 8, 0, 0, 0, 0, 0, 0, 0, 0, 0, 0, 0<br/>0, 0, 0, 0, 0, 0]<br/>class = 0>, fillcolor="#eba06a"] ;
3 -> 4 ;
5 [label=<gini = 0.366<br/>samples = 39<br/>value = [1, 30, 8, 0, 0, 0, 0, 0, 0, 0, 0, 0, 0, 0<br/>0, 0, 0, 0, 0, 0]<br/>class = 1>, fillcolor="#edca72"] ;
4 -> 5 ;
6 [label=<trans_time4 &le; 4.38<br/>gini = 0.167<br/>samples = 271<br/>value = [246, 25, 0, 0, 0, 0, 0, 0, 0, 0, 0, 0, 0, 0<br/>0, 0, 0, 0, 0, 0]<br/>class = 0>, fillcolor="#e88e4d"] ;
4 -> 6 ;
7 [label=<gini = 0.088<br/>samples = 238<br/>value = [227, 11, 0, 0, 0, 0, 0, 0, 0, 0, 0, 0, 0, 0<br/>0, 0, 0, 0, 0, 0]<br/>class = 0>, fillcolor="#e68743"] ;
6 -> 7 ;
8 [label=<gini = 0.489<br/>samples = 33<br/>value = [19, 14, 0, 0, 0, 0, 0, 0, 0, 0, 0, 0, 0, 0<br/>0, 0, 0, 0, 0, 0]<br/>class = 0>, fillcolor="#f8decb"] ;
6 -> 8 ;
9 [label=<cwnd7 &le; 205.0<br/>gini = 0.424<br/>samples = 334<br/>value = [50, 246, 35, 2, 0, 0, 0, 0, 0, 0, 0, 0, 0, 0<br/>0, 0, 0, 0, 0, 1]<br/>class = 1>, fillcolor="#edcb76"] ;
3 -> 9 ;
10 [label=<delivery_rate8 &le; 89.772<br/>gini = 0.32<br/>samples = 279<br/>value = [16, 227, 34, 2, 0, 0, 0, 0, 0, 0, 0, 0, 0, 0<br/>0, 0, 0, 0, 0, 0]<br/>class = 1>, fillcolor="#ebc463"] ;
9 -> 10 ;
11 [label=<gini = 0.524<br/>samples = 15<br/>value = [0, 5, 9, 1, 0, 0, 0, 0, 0, 0, 0, 0, 0, 0<br/>0, 0, 0, 0, 0, 0]<br/>class = 2>, fillcolor="#f3f5b0"] ;
10 -> 11 ;
12 [label=<in_flight0 &le; 32.0<br/>gini = 0.28<br/>samples = 264<br/>value = [16, 222, 25, 1, 0, 0, 0, 0, 0, 0, 0, 0, 0, 0<br/>0, 0, 0, 0, 0, 0]<br/>class = 1>, fillcolor="#eac15c"] ;
10 -> 12 ;
13 [label=<trans_time6 &le; 0.683<br/>gini = 0.255<br/>samples = 258<br/>value = [11, 221, 25, 1, 0, 0, 0, 0, 0, 0, 0, 0, 0, 0<br/>0, 0, 0, 0, 0, 0]<br/>class = 1>, fillcolor="#e9c058"] ;
12 -> 13 ;
14 [label=<in_flight4 &le; 27.0<br/>gini = 0.181<br/>samples = 205<br/>value = [11, 185, 9, 0, 0, 0, 0, 0, 0, 0, 0, 0, 0, 0<br/>0, 0, 0, 0, 0, 0]<br/>class = 1>, fillcolor="#e8bc4d"] ;
13 -> 14 ;
15 [label=<size3 &le; 13.632<br/>gini = 0.158<br/>samples = 201<br/>value = [8, 184, 9, 0, 0, 0, 0, 0, 0, 0, 0, 0, 0, 0<br/>0, 0, 0, 0, 0, 0]<br/>class = 1>, fillcolor="#e7bb4b"] ;
14 -> 15 ;
16 [label=<gini = 0.642<br/>samples = 9<br/>value = [3, 4, 2, 0, 0, 0, 0, 0, 0, 0, 0, 0, 0, 0<br/>0, 0, 0, 0, 0, 0]<br/>class = 1>, fillcolor="#fbf2de"] ;
15 -> 16 ;
17 [label=<delivery_rate3 &le; 2.908<br/>gini = 0.119<br/>samples = 192<br/>value = [5, 180, 7, 0, 0, 0, 0, 0, 0, 0, 0, 0, 0, 0<br/>0, 0, 0, 0, 0, 0]<br/>class = 1>, fillcolor="#e7b946"] ;
15 -> 17 ;
18 [label=<gini = 0.0<br/>samples = 1<br/>value = [0, 0, 1, 0, 0, 0, 0, 0, 0, 0, 0, 0, 0, 0<br/>0, 0, 0, 0, 0, 0]<br/>class = 2>, fillcolor="#e2e539"] ;
17 -> 18 ;
19 [label=<rtt7 &le; 0.255<br/>gini = 0.11<br/>samples = 191<br/>value = [5, 180, 6, 0, 0, 0, 0, 0, 0, 0, 0, 0, 0, 0<br/>0, 0, 0, 0, 0, 0]<br/>class = 1>, fillcolor="#e7b845"] ;
17 -> 19 ;
20 [label=<gini = 0.086<br/>samples = 180<br/>value = [5, 172, 3, 0, 0, 0, 0, 0, 0, 0, 0, 0, 0, 0<br/>0, 0, 0, 0, 0, 0]<br/>class = 1>, fillcolor="#e6b742"] ;
19 -> 20 ;
21 [label=<gini = 0.397<br/>samples = 11<br/>value = [0, 8, 3, 0, 0, 0, 0, 0, 0, 0, 0, 0, 0, 0<br/>0, 0, 0, 0, 0, 0]<br/>class = 1>, fillcolor="#efd083"] ;
19 -> 21 ;
22 [label=<gini = 0.375<br/>samples = 4<br/>value = [3, 1, 0, 0, 0, 0, 0, 0, 0, 0, 0, 0, 0, 0<br/>0, 0, 0, 0, 0, 0]<br/>class = 0>, fillcolor="#eeab7b"] ;
14 -> 22 ;
23 [label=<gini = 0.447<br/>samples = 53<br/>value = [0, 36, 16, 1, 0, 0, 0, 0, 0, 0, 0, 0, 0, 0<br/>0, 0, 0, 0, 0, 0]<br/>class = 1>, fillcolor="#f1d694"] ;
13 -> 23 ;
24 [label=<gini = 0.278<br/>samples = 6<br/>value = [5, 1, 0, 0, 0, 0, 0, 0, 0, 0, 0, 0, 0, 0<br/>0, 0, 0, 0, 0, 0]<br/>class = 0>, fillcolor="#ea9a61"] ;
12 -> 24 ;
25 [label=<gini = 0.498<br/>samples = 55<br/>value = [34, 19, 1, 0, 0, 0, 0, 0, 0, 0, 0, 0, 0, 0<br/>0, 0, 0, 0, 0, 1]<br/>class = 0>, fillcolor="#f4caac"] ;
9 -> 25 ;
26 [label=<size8 &le; 160.744<br/>gini = 0.674<br/>samples = 847<br/>value = [39, 251, 405, 64, 0, 0, 0, 2, 2, 0, 7, 6, 10<br/>3, 3, 6, 10, 16, 16, 7]<br/>class = 2>, fillcolor="#f8f8cc"] ;
2 -> 26 ;
27 [label=<delivery_rate8 &le; 174.55<br/>gini = 0.692<br/>samples = 579<br/>value = [39, 221, 228, 17, 0, 0, 0, 2, 2, 0, 3, 4, 8<br/>2, 3, 5, 9, 15, 15, 6]<br/>class = 2>, fillcolor="#fefefb"] ;
26 -> 27 ;
28 [label=<trans_time7 &le; 4.047<br/>gini = 0.635<br/>samples = 394<br/>value = [7, 108, 210, 17, 0, 0, 0, 0, 2, 0, 1, 1, 5<br/>1, 3, 0, 7, 15, 13, 4]<br/>class = 2>, fillcolor="#f5f6b8"] ;
27 -> 28 ;
29 [label=<in_flight8 &le; 8.5<br/>gini = 0.54<br/>samples = 342<br/>value = [7, 105, 206, 17, 0, 0, 0, 0, 2, 0, 1, 0, 3<br/>0, 0, 0, 0, 0, 0, 1]<br/>class = 2>, fillcolor="#f3f4ab"] ;
28 -> 29 ;
30 [label=<cwnd8 &le; 171.0<br/>gini = 0.475<br/>samples = 247<br/>value = [6, 50, 171, 15, 0, 0, 0, 0, 1, 0, 0, 0, 3, 0<br/>0, 0, 0, 0, 0, 1]<br/>class = 2>, fillcolor="#edef85"] ;
29 -> 30 ;
31 [label=<size8 &le; 18.726<br/>gini = 0.415<br/>samples = 223<br/>value = [2, 36, 166, 15, 0, 0, 0, 0, 1, 0, 0, 0, 3, 0<br/>0, 0, 0, 0, 0, 0]<br/>class = 2>, fillcolor="#ebed75"] ;
30 -> 31 ;
32 [label=<gini = 0.551<br/>samples = 37<br/>value = [1, 18, 17, 0, 0, 0, 0, 0, 0, 0, 0, 0, 1, 0<br/>0, 0, 0, 0, 0, 0]<br/>class = 1>, fillcolor="#fefbf5"] ;
31 -> 32 ;
33 [label=<trans_time5 &le; 3.258<br/>gini = 0.342<br/>samples = 186<br/>value = [1, 18, 149, 15, 0, 0, 0, 0, 1, 0, 0, 0, 2, 0<br/>0, 0, 0, 0, 0, 0]<br/>class = 2>, fillcolor="#e8eb65"] ;
31 -> 33 ;
34 [label=<delivery_rate5 &le; 277.629<br/>gini = 0.284<br/>samples = 168<br/>value = [1, 14, 141, 12, 0, 0, 0, 0, 0, 0, 0, 0, 0, 0<br/>0, 0, 0, 0, 0, 0]<br/>class = 2>, fillcolor="#e7ea5c"] ;
33 -> 34 ;
35 [label=<cwnd0 &le; 7.5<br/>gini = 0.26<br/>samples = 165<br/>value = [1, 11, 141, 12, 0, 0, 0, 0, 0, 0, 0, 0, 0, 0<br/>0, 0, 0, 0, 0, 0]<br/>class = 2>, fillcolor="#e7e958"] ;
34 -> 35 ;
36 [label=<gini = 0.444<br/>samples = 3<br/>value = [0, 1, 0, 2, 0, 0, 0, 0, 0, 0, 0, 0, 0, 0<br/>0, 0, 0, 0, 0, 0]<br/>class = 3>, fillcolor="#d6f29c"] ;
35 -> 36 ;
37 [label=<delivery_rate7 &le; 2.95<br/>gini = 0.235<br/>samples = 162<br/>value = [1, 10, 141, 10, 0, 0, 0, 0, 0, 0, 0, 0, 0, 0<br/>0, 0, 0, 0, 0, 0]<br/>class = 2>, fillcolor="#e6e954"] ;
35 -> 37 ;
38 [label=<gini = 0.0<br/>samples = 2<br/>value = [0, 2, 0, 0, 0, 0, 0, 0, 0, 0, 0, 0, 0, 0<br/>0, 0, 0, 0, 0, 0]<br/>class = 1>, fillcolor="#e5b439"] ;
37 -> 38 ;
39 [label=<size8 &le; 135.476<br/>gini = 0.217<br/>samples = 160<br/>value = [1, 8, 141, 10, 0, 0, 0, 0, 0, 0, 0, 0, 0, 0<br/>0, 0, 0, 0, 0, 0]<br/>class = 2>, fillcolor="#e6e852"] ;
37 -> 39 ;
40 [label=<delivery_rate6 &le; 282.536<br/>gini = 0.177<br/>samples = 147<br/>value = [1, 8, 133, 5, 0, 0, 0, 0, 0, 0, 0, 0, 0, 0<br/>0, 0, 0, 0, 0, 0]<br/>class = 2>, fillcolor="#e5e84d"] ;
39 -> 40 ;
41 [label=<delivery_rate1 &le; 386.129<br/>gini = 0.166<br/>samples = 146<br/>value = [0, 8, 133, 5, 0, 0, 0, 0, 0, 0, 0, 0, 0, 0<br/>0, 0, 0, 0, 0, 0]<br/>class = 2>, fillcolor="#e5e74c"] ;
40 -> 41 ;
42 [label=<rtt1 &le; 0.555<br/>gini = 0.155<br/>samples = 145<br/>value = [0, 8, 133, 4, 0, 0, 0, 0, 0, 0, 0, 0, 0, 0<br/>0, 0, 0, 0, 0, 0]<br/>class = 2>, fillcolor="#e5e74a"] ;
41 -> 42 ;
43 [label=<rtt7 &le; 0.1<br/>gini = 0.144<br/>samples = 144<br/>value = [0, 7, 133, 4, 0, 0, 0, 0, 0, 0, 0, 0, 0, 0<br/>0, 0, 0, 0, 0, 0]<br/>class = 2>, fillcolor="#e4e749"] ;
42 -> 43 ;
44 [label=<gini = 0.0<br/>samples = 1<br/>value = [0, 1, 0, 0, 0, 0, 0, 0, 0, 0, 0, 0, 0, 0<br/>0, 0, 0, 0, 0, 0]<br/>class = 1>, fillcolor="#e5b439"] ;
43 -> 44 ;
45 [label=<delivery_rate7 &le; 7.827<br/>gini = 0.132<br/>samples = 143<br/>value = [0, 6, 133, 4, 0, 0, 0, 0, 0, 0, 0, 0, 0, 0<br/>0, 0, 0, 0, 0, 0]<br/>class = 2>, fillcolor="#e4e747"] ;
43 -> 45 ;
46 [label=<gini = 0.486<br/>samples = 12<br/>value = [0, 3, 8, 1, 0, 0, 0, 0, 0, 0, 0, 0, 0, 0<br/>0, 0, 0, 0, 0, 0]<br/>class = 2>, fillcolor="#eff191"] ;
45 -> 46 ;
47 [label=<gini = 0.088<br/>samples = 131<br/>value = [0, 3, 125, 3, 0, 0, 0, 0, 0, 0, 0, 0, 0, 0<br/>0, 0, 0, 0, 0, 0]<br/>class = 2>, fillcolor="#e3e642"] ;
45 -> 47 ;
48 [label=<gini = 0.0<br/>samples = 1<br/>value = [0, 1, 0, 0, 0, 0, 0, 0, 0, 0, 0, 0, 0, 0<br/>0, 0, 0, 0, 0, 0]<br/>class = 1>, fillcolor="#e5b439"] ;
42 -> 48 ;
49 [label=<gini = 0.0<br/>samples = 1<br/>value = [0, 0, 0, 1, 0, 0, 0, 0, 0, 0, 0, 0, 0, 0<br/>0, 0, 0, 0, 0, 0]<br/>class = 3>, fillcolor="#aee539"] ;
41 -> 49 ;
50 [label=<gini = 0.0<br/>samples = 1<br/>value = [1, 0, 0, 0, 0, 0, 0, 0, 0, 0, 0, 0, 0, 0<br/>0, 0, 0, 0, 0, 0]<br/>class = 0>, fillcolor="#e58139"] ;
40 -> 50 ;
51 [label=<gini = 0.473<br/>samples = 13<br/>value = [0, 0, 8, 5, 0, 0, 0, 0, 0, 0, 0, 0, 0, 0<br/>0, 0, 0, 0, 0, 0]<br/>class = 2>, fillcolor="#f4f5b5"] ;
39 -> 51 ;
52 [label=<gini = 0.0<br/>samples = 3<br/>value = [0, 3, 0, 0, 0, 0, 0, 0, 0, 0, 0, 0, 0, 0<br/>0, 0, 0, 0, 0, 0]<br/>class = 1>, fillcolor="#e5b439"] ;
34 -> 52 ;
53 [label=<gini = 0.71<br/>samples = 18<br/>value = [0, 4, 8, 3, 0, 0, 0, 0, 1, 0, 0, 0, 2, 0<br/>0, 0, 0, 0, 0, 0]<br/>class = 2>, fillcolor="#f7f8c6"] ;
33 -> 53 ;
54 [label=<gini = 0.587<br/>samples = 24<br/>value = [4, 14, 5, 0, 0, 0, 0, 0, 0, 0, 0, 0, 0, 0<br/>0, 0, 0, 0, 0, 1]<br/>class = 1>, fillcolor="#f3dba1"] ;
30 -> 54 ;
55 [label=<gini = 0.528<br/>samples = 95<br/>value = [1, 55, 35, 2, 0, 0, 0, 0, 1, 0, 1, 0, 0, 0<br/>0, 0, 0, 0, 0, 0]<br/>class = 1>, fillcolor="#f6e6bd"] ;
29 -> 55 ;
56 [label=<gini = 0.818<br/>samples = 52<br/>value = [0, 3, 4, 0, 0, 0, 0, 0, 0, 0, 0, 1, 2, 1<br/>3, 0, 7, 15, 13, 3]<br/>class = 17>, fillcolor="#fef5f9"] ;
28 -> 56 ;
57 [label=<size8 &le; 53.342<br/>gini = 0.586<br/>samples = 185<br/>value = [32, 113, 18, 0, 0, 0, 0, 2, 0, 0, 2, 3, 3, 1<br/>0, 5, 2, 0, 2, 2]<br/>class = 1>, fillcolor="#f1d796"] ;
27 -> 57 ;
58 [label=<gini = 0.489<br/>samples = 33<br/>value = [22, 8, 0, 0, 0, 0, 0, 0, 0, 0, 0, 0, 0, 0<br/>0, 3, 0, 0, 0, 0]<br/>class = 0>, fillcolor="#f0b890"] ;
57 -> 58 ;
59 [label=<trans_time7 &le; 3.217<br/>gini = 0.503<br/>samples = 152<br/>value = [10, 105, 18, 0, 0, 0, 0, 2, 0, 0, 2, 3, 3, 1<br/>0, 2, 2, 0, 2, 2]<br/>class = 1>, fillcolor="#eece7e"] ;
57 -> 59 ;
60 [label=<cwnd2 &le; 384.5<br/>gini = 0.359<br/>samples = 128<br/>value = [10, 101, 14, 0, 0, 0, 0, 2, 0, 0, 1, 0, 0, 0<br/>0, 0, 0, 0, 0, 0]<br/>class = 1>, fillcolor="#ebc668"] ;
59 -> 60 ;
61 [label=<delivery_rate7 &le; 209.301<br/>gini = 0.3<br/>samples = 122<br/>value = [4, 101, 14, 0, 0, 0, 0, 2, 0, 0, 1, 0, 0, 0<br/>0, 0, 0, 0, 0, 0]<br/>class = 1>, fillcolor="#eac360"] ;
60 -> 61 ;
62 [label=<gini = 0.544<br/>samples = 38<br/>value = [2, 23, 11, 0, 0, 0, 0, 2, 0, 0, 0, 0, 0, 0<br/>0, 0, 0, 0, 0, 0]<br/>class = 1>, fillcolor="#f3dea7"] ;
61 -> 62 ;
63 [label=<cwnd5 &le; 50.5<br/>gini = 0.136<br/>samples = 84<br/>value = [2, 78, 3, 0, 0, 0, 0, 0, 0, 0, 1, 0, 0, 0<br/>0, 0, 0, 0, 0, 0]<br/>class = 1>, fillcolor="#e7ba48"] ;
61 -> 63 ;
64 [label=<gini = 0.64<br/>samples = 5<br/>value = [0, 2, 2, 0, 0, 0, 0, 0, 0, 0, 1, 0, 0, 0<br/>0, 0, 0, 0, 0, 0]<br/>class = 1>, fillcolor="#ffffff"] ;
63 -> 64 ;
65 [label=<gini = 0.074<br/>samples = 79<br/>value = [2, 76, 1, 0, 0, 0, 0, 0, 0, 0, 0, 0, 0, 0<br/>0, 0, 0, 0, 0, 0]<br/>class = 1>, fillcolor="#e6b741"] ;
63 -> 65 ;
66 [label=<gini = 0.0<br/>samples = 6<br/>value = [6, 0, 0, 0, 0, 0, 0, 0, 0, 0, 0, 0, 0, 0<br/>0, 0, 0, 0, 0, 0]<br/>class = 0>, fillcolor="#e58139"] ;
60 -> 66 ;
67 [label=<gini = 0.882<br/>samples = 24<br/>value = [0, 4, 4, 0, 0, 0, 0, 0, 0, 0, 1, 3, 3, 1<br/>0, 2, 2, 0, 2, 2]<br/>class = 1>, fillcolor="#ffffff"] ;
59 -> 67 ;
68 [label=<size0 &le; 130.292<br/>gini = 0.52<br/>samples = 268<br/>value = [0, 30, 177, 47, 0, 0, 0, 0, 0, 0, 4, 2, 2, 1<br/>0, 1, 1, 1, 1, 1]<br/>class = 2>, fillcolor="#eef08b"] ;
26 -> 68 ;
69 [label=<delivery_rate8 &le; 346.324<br/>gini = 0.458<br/>samples = 203<br/>value = [0, 27, 146, 16, 0, 0, 0, 0, 0, 0, 4, 2, 2, 1<br/>0, 1, 1, 1, 1, 1]<br/>class = 2>, fillcolor="#ebed79"] ;
68 -> 69 ;
70 [label=<delivery_rate8 &le; 151.861<br/>gini = 0.345<br/>samples = 178<br/>value = [0, 18, 142, 16, 0, 0, 0, 0, 0, 0, 0, 0, 1, 1<br/>0, 0, 0, 0, 0, 0]<br/>class = 2>, fillcolor="#e9eb66"] ;
69 -> 70 ;
71 [label=<gini = 0.49<br/>samples = 28<br/>value = [0, 0, 16, 12, 0, 0, 0, 0, 0, 0, 0, 0, 0, 0<br/>0, 0, 0, 0, 0, 0]<br/>class = 2>, fillcolor="#f8f8ce"] ;
70 -> 71 ;
72 [label=<delivery_rate7 &le; 318.551<br/>gini = 0.279<br/>samples = 150<br/>value = [0, 18, 126, 4, 0, 0, 0, 0, 0, 0, 0, 0, 1, 1<br/>0, 0, 0, 0, 0, 0]<br/>class = 2>, fillcolor="#e7ea5d"] ;
70 -> 72 ;
73 [label=<delivery_rate3 &le; 5.554<br/>gini = 0.237<br/>samples = 144<br/>value = [0, 13, 125, 4, 0, 0, 0, 0, 0, 0, 0, 0, 1, 1<br/>0, 0, 0, 0, 0, 0]<br/>class = 2>, fillcolor="#e6e956"] ;
72 -> 73 ;
74 [label=<gini = 0.588<br/>samples = 17<br/>value = [0, 6, 9, 0, 0, 0, 0, 0, 0, 0, 0, 0, 1, 1<br/>0, 0, 0, 0, 0, 0]<br/>class = 2>, fillcolor="#f7f8c9"] ;
73 -> 74 ;
75 [label=<cwnd7 &le; 321.0<br/>gini = 0.162<br/>samples = 127<br/>value = [0, 7, 116, 4, 0, 0, 0, 0, 0, 0, 0, 0, 0, 0<br/>0, 0, 0, 0, 0, 0]<br/>class = 2>, fillcolor="#e5e74b"] ;
73 -> 75 ;
76 [label=<trans_time3 &le; 0.36<br/>gini = 0.136<br/>samples = 125<br/>value = [0, 5, 116, 4, 0, 0, 0, 0, 0, 0, 0, 0, 0, 0<br/>0, 0, 0, 0, 0, 0]<br/>class = 2>, fillcolor="#e4e748"] ;
75 -> 76 ;
77 [label=<gini = 0.0<br/>samples = 1<br/>value = [0, 0, 0, 1, 0, 0, 0, 0, 0, 0, 0, 0, 0, 0<br/>0, 0, 0, 0, 0, 0]<br/>class = 3>, fillcolor="#aee539"] ;
76 -> 77 ;
78 [label=<rtt7 &le; 0.69<br/>gini = 0.123<br/>samples = 124<br/>value = [0, 5, 116, 3, 0, 0, 0, 0, 0, 0, 0, 0, 0, 0<br/>0, 0, 0, 0, 0, 0]<br/>class = 2>, fillcolor="#e4e746"] ;
76 -> 78 ;
79 [label=<trans_time2 &le; 11.347<br/>gini = 0.109<br/>samples = 123<br/>value = [0, 4, 116, 3, 0, 0, 0, 0, 0, 0, 0, 0, 0, 0<br/>0, 0, 0, 0, 0, 0]<br/>class = 2>, fillcolor="#e4e745"] ;
78 -> 79 ;
80 [label=<gini = 0.081<br/>samples = 120<br/>value = [0, 3, 115, 2, 0, 0, 0, 0, 0, 0, 0, 0, 0, 0<br/>0, 0, 0, 0, 0, 0]<br/>class = 2>, fillcolor="#e3e641"] ;
79 -> 80 ;
81 [label=<gini = 0.667<br/>samples = 3<br/>value = [0, 1, 1, 1, 0, 0, 0, 0, 0, 0, 0, 0, 0, 0<br/>0, 0, 0, 0, 0, 0]<br/>class = 1>, fillcolor="#ffffff"] ;
79 -> 81 ;
82 [label=<gini = 0.0<br/>samples = 1<br/>value = [0, 1, 0, 0, 0, 0, 0, 0, 0, 0, 0, 0, 0, 0<br/>0, 0, 0, 0, 0, 0]<br/>class = 1>, fillcolor="#e5b439"] ;
78 -> 82 ;
83 [label=<gini = 0.0<br/>samples = 2<br/>value = [0, 2, 0, 0, 0, 0, 0, 0, 0, 0, 0, 0, 0, 0<br/>0, 0, 0, 0, 0, 0]<br/>class = 1>, fillcolor="#e5b439"] ;
75 -> 83 ;
84 [label=<gini = 0.278<br/>samples = 6<br/>value = [0, 5, 1, 0, 0, 0, 0, 0, 0, 0, 0, 0, 0, 0<br/>0, 0, 0, 0, 0, 0]<br/>class = 1>, fillcolor="#eac361"] ;
72 -> 84 ;
85 [label=<gini = 0.803<br/>samples = 25<br/>value = [0, 9, 4, 0, 0, 0, 0, 0, 0, 0, 4, 2, 1, 0<br/>0, 1, 1, 1, 1, 1]<br/>class = 1>, fillcolor="#f9edd0"] ;
69 -> 85 ;
86 [label=<gini = 0.543<br/>samples = 65<br/>value = [0, 3, 31, 31, 0, 0, 0, 0, 0, 0, 0, 0, 0, 0<br/>0, 0, 0, 0, 0, 0]<br/>class = 2>, fillcolor="#ffffff"] ;
68 -> 86 ;
87 [label=<trans_time7 &le; 1.211<br/>gini = 0.583<br/>samples = 2196<br/>value = [0, 98, 680, 1234, 108, 53, 12, 0, 0, 1, 1, 1<br/>4, 2, 1, 0, 0, 0, 0, 1]<br/>class = 3>, fillcolor="#e1f5b7"] ;
1 -> 87 ;
88 [label=<size8 &le; 490.909<br/>gini = 0.519<br/>samples = 559<br/>value = [0, 54, 356, 144, 3, 2, 0, 0, 0, 0, 0, 0, 0<br/>0, 0, 0, 0, 0, 0, 0]<br/>class = 2>, fillcolor="#f0f29a"] ;
87 -> 88 ;
89 [label=<delivery_rate8 &le; 418.915<br/>gini = 0.477<br/>samples = 513<br/>value = [0, 52, 350, 111, 0, 0, 0, 0, 0, 0, 0, 0, 0<br/>0, 0, 0, 0, 0, 0, 0]<br/>class = 2>, fillcolor="#eef089"] ;
88 -> 89 ;
90 [label=<gini = 0.532<br/>samples = 262<br/>value = [0, 13, 146, 103, 0, 0, 0, 0, 0, 0, 0, 0, 0<br/>0, 0, 0, 0, 0, 0, 0]<br/>class = 2>, fillcolor="#f7f8c9"] ;
89 -> 90 ;
91 [label=<rtt8 &le; 0.304<br/>gini = 0.314<br/>samples = 251<br/>value = [0, 39, 204, 8, 0, 0, 0, 0, 0, 0, 0, 0, 0, 0<br/>0, 0, 0, 0, 0, 0]<br/>class = 2>, fillcolor="#e8eb65"] ;
89 -> 91 ;
92 [label=<cwnd5 &le; 30.0<br/>gini = 0.233<br/>samples = 231<br/>value = [0, 22, 201, 8, 0, 0, 0, 0, 0, 0, 0, 0, 0, 0<br/>0, 0, 0, 0, 0, 0]<br/>class = 2>, fillcolor="#e6e955"] ;
91 -> 92 ;
93 [label=<gini = 0.0<br/>samples = 9<br/>value = [0, 9, 0, 0, 0, 0, 0, 0, 0, 0, 0, 0, 0, 0<br/>0, 0, 0, 0, 0, 0]<br/>class = 1>, fillcolor="#e5b439"] ;
92 -> 93 ;
94 [label=<size7 &le; 490.909<br/>gini = 0.176<br/>samples = 222<br/>value = [0, 13, 201, 8, 0, 0, 0, 0, 0, 0, 0, 0, 0, 0<br/>0, 0, 0, 0, 0, 0]<br/>class = 2>, fillcolor="#e5e84d"] ;
92 -> 94 ;
95 [label=<min_rtt7 &le; 0.183<br/>gini = 0.146<br/>samples = 218<br/>value = [0, 13, 201, 4, 0, 0, 0, 0, 0, 0, 0, 0, 0, 0<br/>0, 0, 0, 0, 0, 0]<br/>class = 2>, fillcolor="#e4e749"] ;
94 -> 95 ;
96 [label=<gini = 0.057<br/>samples = 172<br/>value = [0, 1, 167, 4, 0, 0, 0, 0, 0, 0, 0, 0, 0, 0<br/>0, 0, 0, 0, 0, 0]<br/>class = 2>, fillcolor="#e3e63f"] ;
95 -> 96 ;
97 [label=<gini = 0.386<br/>samples = 46<br/>value = [0, 12, 34, 0, 0, 0, 0, 0, 0, 0, 0, 0, 0, 0<br/>0, 0, 0, 0, 0, 0]<br/>class = 2>, fillcolor="#ecee7f"] ;
95 -> 97 ;
98 [label=<gini = 0.0<br/>samples = 4<br/>value = [0, 0, 0, 4, 0, 0, 0, 0, 0, 0, 0, 0, 0, 0<br/>0, 0, 0, 0, 0, 0]<br/>class = 3>, fillcolor="#aee539"] ;
94 -> 98 ;
99 [label=<gini = 0.255<br/>samples = 20<br/>value = [0, 17, 3, 0, 0, 0, 0, 0, 0, 0, 0, 0, 0, 0<br/>0, 0, 0, 0, 0, 0]<br/>class = 1>, fillcolor="#eac15c"] ;
91 -> 99 ;
100 [label=<gini = 0.46<br/>samples = 46<br/>value = [0, 2, 6, 33, 3, 2, 0, 0, 0, 0, 0, 0, 0, 0<br/>0, 0, 0, 0, 0, 0]<br/>class = 3>, fillcolor="#c8ed79"] ;
88 -> 100 ;
101 [label=<cwnd8 &le; 193.0<br/>gini = 0.512<br/>samples = 1637<br/>value = [0, 44, 324, 1090, 105, 51, 12, 0, 0, 1, 1, 1<br/>4, 2, 1, 0, 0, 0, 0, 1]<br/>class = 3>, fillcolor="#d0f08b"] ;
87 -> 101 ;
102 [label=<size8 &le; 310.138<br/>gini = 0.411<br/>samples = 1362<br/>value = [0, 5, 157, 1027, 103, 50, 12, 0, 0, 1, 1, 1, 3<br/>0, 1, 0, 0, 0, 0, 1]<br/>class = 3>, fillcolor="#c5ec70"] ;
101 -> 102 ;
103 [label=<gini = 0.561<br/>samples = 201<br/>value = [0, 5, 79, 107, 5, 2, 0, 0, 0, 0, 1, 0, 1, 0<br/>0, 0, 0, 0, 0, 1]<br/>class = 3>, fillcolor="#ecf9d2"] ;
102 -> 103 ;
104 [label=<delivery_rate8 &le; 176.657<br/>gini = 0.359<br/>samples = 1161<br/>value = [0, 0, 78, 920, 98, 48, 12, 0, 0, 1, 0, 1, 2<br/>0, 1, 0, 0, 0, 0, 0]<br/>class = 3>, fillcolor="#c0eb66"] ;
102 -> 104 ;
105 [label=<gini = 0.688<br/>samples = 112<br/>value = [0, 0, 0, 42, 40, 22, 8, 0, 0, 0, 0, 0, 0, 0<br/>0, 0, 0, 0, 0, 0]<br/>class = 3>, fillcolor="#fdfefa"] ;
104 -> 105 ;
106 [label=<size8 &le; 590.56<br/>gini = 0.29<br/>samples = 1049<br/>value = [0, 0, 78, 878, 58, 26, 4, 0, 0, 1, 0, 1, 2<br/>0, 1, 0, 0, 0, 0, 0]<br/>class = 3>, fillcolor="#bcea5c"] ;
104 -> 106 ;
107 [label=<delivery_rate8 &le; 445.881<br/>gini = 0.246<br/>samples = 998<br/>value = [0, 0, 78, 862, 39, 13, 1, 0, 0, 1, 0, 1, 2<br/>0, 1, 0, 0, 0, 0, 0]<br/>class = 3>, fillcolor="#bae956"] ;
106 -> 107 ;
108 [label=<delivery_rate7 &le; 245.235<br/>gini = 0.213<br/>samples = 949<br/>value = [0, 0, 54, 839, 39, 13, 1, 0, 0, 1, 0, 0, 1<br/>0, 1, 0, 0, 0, 0, 0]<br/>class = 3>, fillcolor="#b8e851"] ;
107 -> 108 ;
109 [label=<gini = 0.373<br/>samples = 200<br/>value = [0, 0, 4, 155, 31, 9, 1, 0, 0, 0, 0, 0, 0, 0<br/>0, 0, 0, 0, 0, 0]<br/>class = 3>, fillcolor="#c4ec6e"] ;
108 -> 109 ;
110 [label=<in_flight8 &le; 38.0<br/>gini = 0.161<br/>samples = 749<br/>value = [0, 0, 50, 684, 8, 4, 0, 0, 0, 1, 0, 0, 1, 0<br/>1, 0, 0, 0, 0, 0]<br/>class = 3>, fillcolor="#b6e74b"] ;
108 -> 110 ;
111 [label=<size8 &le; 347.706<br/>gini = 0.14<br/>samples = 728<br/>value = [0, 0, 39, 674, 8, 4, 0, 0, 0, 1, 0, 0, 1, 0<br/>1, 0, 0, 0, 0, 0]<br/>class = 3>, fillcolor="#b4e749"] ;
110 -> 111 ;
112 [label=<gini = 0.388<br/>samples = 76<br/>value = [0, 0, 20, 56, 0, 0, 0, 0, 0, 0, 0, 0, 0, 0<br/>0, 0, 0, 0, 0, 0]<br/>class = 3>, fillcolor="#cbee80"] ;
111 -> 112 ;
113 [label=<trans_time2 &le; 21.151<br/>gini = 0.101<br/>samples = 652<br/>value = [0, 0, 19, 618, 8, 4, 0, 0, 0, 1, 0, 0, 1, 0<br/>1, 0, 0, 0, 0, 0]<br/>class = 3>, fillcolor="#b2e644"] ;
111 -> 113 ;
114 [label=<gini = 0.092<br/>samples = 649<br/>value = [0, 0, 17, 618, 7, 4, 0, 0, 0, 1, 0, 0, 1, 0<br/>1, 0, 0, 0, 0, 0]<br/>class = 3>, fillcolor="#b2e643"] ;
113 -> 114 ;
115 [label=<gini = 0.444<br/>samples = 3<br/>value = [0, 0, 2, 0, 1, 0, 0, 0, 0, 0, 0, 0, 0, 0<br/>0, 0, 0, 0, 0, 0]<br/>class = 2>, fillcolor="#f0f29c"] ;
113 -> 115 ;
116 [label=<gini = 0.499<br/>samples = 21<br/>value = [0, 0, 11, 10, 0, 0, 0, 0, 0, 0, 0, 0, 0, 0<br/>0, 0, 0, 0, 0, 0]<br/>class = 2>, fillcolor="#fcfded"] ;
110 -> 116 ;
117 [label=<gini = 0.539<br/>samples = 49<br/>value = [0, 0, 24, 23, 0, 0, 0, 0, 0, 0, 0, 1, 1, 0<br/>0, 0, 0, 0, 0, 0]<br/>class = 2>, fillcolor="#fefef7"] ;
107 -> 117 ;
118 [label=<gini = 0.694<br/>samples = 51<br/>value = [0, 0, 0, 16, 19, 13, 3, 0, 0, 0, 0, 0, 0, 0<br/>0, 0, 0, 0, 0, 0]<br/>class = 4>, fillcolor="#f4fdee"] ;
106 -> 118 ;
119 [label=<cwnd8 &le; 452.0<br/>gini = 0.558<br/>samples = 275<br/>value = [0, 39, 167, 63, 2, 1, 0, 0, 0, 0, 0, 0, 1, 2<br/>0, 0, 0, 0, 0, 0]<br/>class = 2>, fillcolor="#f1f29e"] ;
101 -> 119 ;
120 [label=<size8 &le; 458.429<br/>gini = 0.503<br/>samples = 249<br/>value = [0, 17, 163, 63, 2, 1, 0, 0, 0, 0, 0, 0, 1, 2<br/>0, 0, 0, 0, 0, 0]<br/>class = 2>, fillcolor="#eff195"] ;
119 -> 120 ;
121 [label=<trans_time7 &le; 1.647<br/>gini = 0.431<br/>samples = 193<br/>value = [0, 17, 141, 32, 0, 0, 0, 0, 0, 0, 0, 0, 1, 2<br/>0, 0, 0, 0, 0, 0]<br/>class = 2>, fillcolor="#ebed79"] ;
120 -> 121 ;
122 [label=<in_flight8 &le; 48.0<br/>gini = 0.135<br/>samples = 84<br/>value = [0, 4, 78, 2, 0, 0, 0, 0, 0, 0, 0, 0, 0, 0<br/>0, 0, 0, 0, 0, 0]<br/>class = 2>, fillcolor="#e4e748"] ;
121 -> 122 ;
123 [label=<gini = 0.094<br/>samples = 82<br/>value = [0, 2, 78, 2, 0, 0, 0, 0, 0, 0, 0, 0, 0, 0<br/>0, 0, 0, 0, 0, 0]<br/>class = 2>, fillcolor="#e3e643"] ;
122 -> 123 ;
124 [label=<gini = 0.0<br/>samples = 2<br/>value = [0, 2, 0, 0, 0, 0, 0, 0, 0, 0, 0, 0, 0, 0<br/>0, 0, 0, 0, 0, 0]<br/>class = 1>, fillcolor="#e5b439"] ;
122 -> 124 ;
125 [label=<gini = 0.576<br/>samples = 109<br/>value = [0, 13, 63, 30, 0, 0, 0, 0, 0, 0, 0, 0, 1, 2<br/>0, 0, 0, 0, 0, 0]<br/>class = 2>, fillcolor="#f3f4ac"] ;
121 -> 125 ;
126 [label=<gini = 0.538<br/>samples = 56<br/>value = [0, 0, 22, 31, 2, 1, 0, 0, 0, 0, 0, 0, 0, 0<br/>0, 0, 0, 0, 0, 0]<br/>class = 3>, fillcolor="#eaf8cb"] ;
120 -> 126 ;
127 [label=<gini = 0.26<br/>samples = 26<br/>value = [0, 22, 4, 0, 0, 0, 0, 0, 0, 0, 0, 0, 0, 0<br/>0, 0, 0, 0, 0, 0]<br/>class = 1>, fillcolor="#eac25d"] ;
119 -> 127 ;
128 [label=<cwnd1 &le; 43.5<br/>gini = 0.204<br/>samples = 958<br/>value = [14, 6, 14, 18, 0, 0, 0, 0, 0, 0, 0, 0, 2, 1<br/>0, 7, 13, 18, 11, 854]<br/>class = 19>, fillcolor="#e8614f"] ;
0 -> 128 [labeldistance=2.5, labelangle=-45, headlabel="False"] ;
129 [label=<trans_time7 &le; 5.816<br/>gini = 0.138<br/>samples = 873<br/>value = [5, 4, 4, 1, 0, 0, 0, 0, 0, 0, 0, 0, 0, 1<br/>0, 7, 13, 17, 11, 810]<br/>class = 19>, fillcolor="#e75a48"] ;
128 -> 129 ;
130 [label=<gini = 0.602<br/>samples = 102<br/>value = [2, 3, 1, 0, 0, 0, 0, 0, 0, 0, 0, 0, 0, 1<br/>0, 6, 8, 10, 9, 62]<br/>class = 19>, fillcolor="#f09a8f"] ;
129 -> 130 ;
131 [label=<gini = 0.059<br/>samples = 771<br/>value = [3, 1, 3, 1, 0, 0, 0, 0, 0, 0, 0, 0, 0, 0<br/>0, 1, 5, 7, 2, 748]<br/>class = 19>, fillcolor="#e6523f"] ;
129 -> 131 ;
132 [label=<gini = 0.666<br/>samples = 85<br/>value = [9, 2, 10, 17, 0, 0, 0, 0, 0, 0, 0, 0, 2, 0<br/>0, 0, 0, 1, 0, 44]<br/>class = 19>, fillcolor="#f5b8b0"] ;
128 -> 132 ;
}
