digraph Tree {
node [shape=box, style="filled, rounded", color="black", fontname="helvetica"] ;
edge [fontname="helvetica"] ;
0 [label=<trans_time7 &le; 1.007<br/>gini = 0.707<br/>samples = 1293<br/>value = [174, 401, 518, 172, 21, 2, 5]<br/>class = 2>, fillcolor="#e5fce8"] ;
1 [label=<size8 &le; 58.769<br/>gini = 0.532<br/>samples = 407<br/>value = [163, 225, 19, 0, 0, 0, 0]<br/>class = 1>, fillcolor="#edf8cd"] ;
0 -> 1 [labeldistance=2.5, labelangle=45, headlabel="True"] ;
2 [label=<delivery_rate7 &le; 175.906<br/>gini = 0.39<br/>samples = 183<br/>value = [136, 44, 3, 0, 0, 0, 0]<br/>class = 0>, fillcolor="#eeac7c"] ;
1 -> 2 ;
3 [label=<gini = 0.471<br/>samples = 52<br/>value = [14, 35, 3, 0, 0, 0, 0]<br/>class = 1>, fillcolor="#d7f192"] ;
2 -> 3 ;
4 [label=<trans_time7 &le; 0.975<br/>gini = 0.128<br/>samples = 131<br/>value = [122, 9, 0, 0, 0, 0, 0]<br/>class = 0>, fillcolor="#e78a48"] ;
2 -> 4 ;
5 [label=<cwnd0 &le; 107.5<br/>gini = 0.103<br/>samples = 129<br/>value = [122, 7, 0, 0, 0, 0, 0]<br/>class = 0>, fillcolor="#e68844"] ;
4 -> 5 ;
6 [label=<gini = 0.5<br/>samples = 6<br/>value = [3, 3, 0, 0, 0, 0, 0]<br/>class = 0>, fillcolor="#ffffff"] ;
5 -> 6 ;
7 [label=<gini = 0.063<br/>samples = 123<br/>value = [119, 4, 0, 0, 0, 0, 0]<br/>class = 0>, fillcolor="#e68540"] ;
5 -> 7 ;
8 [label=<gini = 0.0<br/>samples = 2<br/>value = [0, 2, 0, 0, 0, 0, 0]<br/>class = 1>, fillcolor="#b7e539"] ;
4 -> 8 ;
9 [label=<size8 &le; 129.315<br/>gini = 0.327<br/>samples = 224<br/>value = [27, 181, 16, 0, 0, 0, 0]<br/>class = 1>, fillcolor="#c7eb64"] ;
1 -> 9 ;
10 [label=<gini = 0.508<br/>samples = 73<br/>value = [26, 44, 3, 0, 0, 0, 0]<br/>class = 1>, fillcolor="#e3f5b3"] ;
9 -> 10 ;
11 [label=<size8 &le; 432.169<br/>gini = 0.169<br/>samples = 151<br/>value = [1, 137, 13, 0, 0, 0, 0]<br/>class = 1>, fillcolor="#bee84d"] ;
9 -> 11 ;
12 [label=<gini = 0.098<br/>samples = 137<br/>value = [1, 130, 6, 0, 0, 0, 0]<br/>class = 1>, fillcolor="#bbe644"] ;
11 -> 12 ;
13 [label=<gini = 0.5<br/>samples = 14<br/>value = [0, 7, 7, 0, 0, 0, 0]<br/>class = 1>, fillcolor="#ffffff"] ;
11 -> 13 ;
14 [label=<trans_time7 &le; 1.706<br/>gini = 0.605<br/>samples = 886<br/>value = [11, 176, 499, 172, 21, 2, 5]<br/>class = 2>, fillcolor="#a5f3ae"] ;
0 -> 14 [labeldistance=2.5, labelangle=-45, headlabel="False"] ;
15 [label=<cwnd7 &le; 160.0<br/>gini = 0.48<br/>samples = 466<br/>value = [6, 135, 307, 18, 0, 0, 0]<br/>class = 2>, fillcolor="#98f1a3"] ;
14 -> 15 ;
16 [label=<size8 &le; 331.129<br/>gini = 0.361<br/>samples = 369<br/>value = [2, 61, 288, 18, 0, 0, 0]<br/>class = 2>, fillcolor="#6dec7c"] ;
15 -> 16 ;
17 [label=<delivery_rate7 &le; 306.368<br/>gini = 0.547<br/>samples = 109<br/>value = [2, 46, 57, 4, 0, 0, 0]<br/>class = 2>, fillcolor="#dcfae0"] ;
16 -> 17 ;
18 [label=<size8 &le; 111.981<br/>gini = 0.481<br/>samples = 86<br/>value = [1, 24, 57, 4, 0, 0, 0]<br/>class = 2>, fillcolor="#96f1a0"] ;
17 -> 18 ;
19 [label=<gini = 0.405<br/>samples = 23<br/>value = [1, 17, 5, 0, 0, 0, 0]<br/>class = 1>, fillcolor="#cfee7b"] ;
18 -> 19 ;
20 [label=<cwnd2 &le; 56.0<br/>gini = 0.302<br/>samples = 63<br/>value = [0, 7, 52, 4, 0, 0, 0]<br/>class = 2>, fillcolor="#60ea70"] ;
18 -> 20 ;
21 [label=<gini = 0.56<br/>samples = 5<br/>value = [0, 1, 1, 3, 0, 0, 0]<br/>class = 3>, fillcolor="#9cf2f0"] ;
20 -> 21 ;
22 [label=<rtt8 &le; 0.258<br/>gini = 0.216<br/>samples = 58<br/>value = [0, 6, 51, 1, 0, 0, 0]<br/>class = 2>, fillcolor="#54e865"] ;
20 -> 22 ;
23 [label=<size0 &le; 723.249<br/>gini = 0.114<br/>samples = 50<br/>value = [0, 2, 47, 1, 0, 0, 0]<br/>class = 2>, fillcolor="#45e758"] ;
22 -> 23 ;
24 [label=<gini = 0.078<br/>samples = 49<br/>value = [0, 2, 47, 0, 0, 0, 0]<br/>class = 2>, fillcolor="#41e655"] ;
23 -> 24 ;
25 [label=<gini = 0.0<br/>samples = 1<br/>value = [0, 0, 0, 1, 0, 0, 0]<br/>class = 3>, fillcolor="#39e5e2"] ;
23 -> 25 ;
26 [label=<gini = 0.5<br/>samples = 8<br/>value = [0, 4, 4, 0, 0, 0, 0]<br/>class = 1>, fillcolor="#ffffff"] ;
22 -> 26 ;
27 [label=<gini = 0.083<br/>samples = 23<br/>value = [1, 22, 0, 0, 0, 0, 0]<br/>class = 1>, fillcolor="#bae642"] ;
17 -> 27 ;
28 [label=<delivery_rate8 &le; 476.503<br/>gini = 0.204<br/>samples = 260<br/>value = [0, 15, 231, 14, 0, 0, 0]<br/>class = 2>, fillcolor="#50e862"] ;
16 -> 28 ;
29 [label=<delivery_rate8 &le; 163.979<br/>gini = 0.171<br/>samples = 250<br/>value = [0, 9, 227, 14, 0, 0, 0]<br/>class = 2>, fillcolor="#4ce85e"] ;
28 -> 29 ;
30 [label=<gini = 0.49<br/>samples = 7<br/>value = [0, 0, 3, 4, 0, 0, 0]<br/>class = 3>, fillcolor="#cef8f8"] ;
29 -> 30 ;
31 [label=<delivery_rate0 &le; 230.557<br/>gini = 0.147<br/>samples = 243<br/>value = [0, 9, 224, 10, 0, 0, 0]<br/>class = 2>, fillcolor="#49e75c"] ;
29 -> 31 ;
32 [label=<gini = 0.5<br/>samples = 6<br/>value = [0, 0, 3, 3, 0, 0, 0]<br/>class = 2>, fillcolor="#ffffff"] ;
31 -> 32 ;
33 [label=<cwnd4 &le; 166.0<br/>gini = 0.128<br/>samples = 237<br/>value = [0, 9, 221, 7, 0, 0, 0]<br/>class = 2>, fillcolor="#47e759"] ;
31 -> 33 ;
34 [label=<delivery_rate8 &le; 376.178<br/>gini = 0.114<br/>samples = 234<br/>value = [0, 9, 220, 5, 0, 0, 0]<br/>class = 2>, fillcolor="#45e758"] ;
33 -> 34 ;
35 [label=<gini = 0.053<br/>samples = 184<br/>value = [0, 0, 179, 5, 0, 0, 0]<br/>class = 2>, fillcolor="#3fe652"] ;
34 -> 35 ;
36 [label=<delivery_rate0 &le; 441.792<br/>gini = 0.295<br/>samples = 50<br/>value = [0, 9, 41, 0, 0, 0, 0]<br/>class = 2>, fillcolor="#64eb74"] ;
34 -> 36 ;
37 [label=<gini = 0.444<br/>samples = 6<br/>value = [0, 4, 2, 0, 0, 0, 0]<br/>class = 1>, fillcolor="#dbf29c"] ;
36 -> 37 ;
38 [label=<cwnd8 &le; 117.0<br/>gini = 0.201<br/>samples = 44<br/>value = [0, 5, 39, 0, 0, 0, 0]<br/>class = 2>, fillcolor="#52e864"] ;
36 -> 38 ;
39 [label=<gini = 0.059<br/>samples = 33<br/>value = [0, 1, 32, 0, 0, 0, 0]<br/>class = 2>, fillcolor="#3fe653"] ;
38 -> 39 ;
40 [label=<gini = 0.463<br/>samples = 11<br/>value = [0, 4, 7, 0, 0, 0, 0]<br/>class = 2>, fillcolor="#aaf4b3"] ;
38 -> 40 ;
41 [label=<gini = 0.444<br/>samples = 3<br/>value = [0, 0, 1, 2, 0, 0, 0]<br/>class = 3>, fillcolor="#9cf2f0"] ;
33 -> 41 ;
42 [label=<gini = 0.48<br/>samples = 10<br/>value = [0, 6, 4, 0, 0, 0, 0]<br/>class = 1>, fillcolor="#e7f6bd"] ;
28 -> 42 ;
43 [label=<trans_time6 &le; 2.185<br/>gini = 0.378<br/>samples = 97<br/>value = [4, 74, 19, 0, 0, 0, 0]<br/>class = 1>, fillcolor="#cced73"] ;
15 -> 43 ;
44 [label=<trans_time0 &le; 12.716<br/>gini = 0.307<br/>samples = 89<br/>value = [4, 73, 12, 0, 0, 0, 0]<br/>class = 1>, fillcolor="#c6ea62"] ;
43 -> 44 ;
45 [label=<size8 &le; 49.168<br/>gini = 0.266<br/>samples = 86<br/>value = [4, 73, 9, 0, 0, 0, 0]<br/>class = 1>, fillcolor="#c3e95a"] ;
44 -> 45 ;
46 [label=<gini = 0.49<br/>samples = 7<br/>value = [4, 3, 0, 0, 0, 0, 0]<br/>class = 0>, fillcolor="#f8e0ce"] ;
45 -> 46 ;
47 [label=<size8 &le; 482.711<br/>gini = 0.202<br/>samples = 79<br/>value = [0, 70, 9, 0, 0, 0, 0]<br/>class = 1>, fillcolor="#c0e852"] ;
45 -> 47 ;
48 [label=<rtt8 &le; 0.156<br/>gini = 0.147<br/>samples = 75<br/>value = [0, 69, 6, 0, 0, 0, 0]<br/>class = 1>, fillcolor="#bde74a"] ;
47 -> 48 ;
49 [label=<gini = 0.375<br/>samples = 4<br/>value = [0, 1, 3, 0, 0, 0, 0]<br/>class = 2>, fillcolor="#7bee88"] ;
48 -> 49 ;
50 [label=<gini = 0.081<br/>samples = 71<br/>value = [0, 68, 3, 0, 0, 0, 0]<br/>class = 1>, fillcolor="#bae642"] ;
48 -> 50 ;
51 [label=<gini = 0.375<br/>samples = 4<br/>value = [0, 1, 3, 0, 0, 0, 0]<br/>class = 2>, fillcolor="#7bee88"] ;
47 -> 51 ;
52 [label=<gini = 0.0<br/>samples = 3<br/>value = [0, 0, 3, 0, 0, 0, 0]<br/>class = 2>, fillcolor="#39e54d"] ;
44 -> 52 ;
53 [label=<gini = 0.219<br/>samples = 8<br/>value = [0, 1, 7, 0, 0, 0, 0]<br/>class = 2>, fillcolor="#55e966"] ;
43 -> 53 ;
54 [label=<size8 &le; 456.963<br/>gini = 0.644<br/>samples = 420<br/>value = [5, 41, 192, 154, 21, 2, 5]<br/>class = 2>, fillcolor="#e3fbe6"] ;
14 -> 54 ;
55 [label=<size8 &le; 193.365<br/>gini = 0.619<br/>samples = 341<br/>value = [5, 41, 177, 106, 8, 0, 4]<br/>class = 2>, fillcolor="#c3f7c9"] ;
54 -> 55 ;
56 [label=<gini = 0.648<br/>samples = 57<br/>value = [5, 24, 23, 3, 0, 0, 2]<br/>class = 1>, fillcolor="#fdfef9"] ;
55 -> 56 ;
57 [label=<cwnd8 &le; 155.0<br/>gini = 0.57<br/>samples = 284<br/>value = [0, 17, 154, 103, 8, 0, 2]<br/>class = 2>, fillcolor="#c7f8cd"] ;
55 -> 57 ;
58 [label=<trans_time6 &le; 2.003<br/>gini = 0.551<br/>samples = 219<br/>value = [0, 4, 108, 99, 8, 0, 0]<br/>class = 2>, fillcolor="#f0fdf2"] ;
57 -> 58 ;
59 [label=<delivery_rate8 &le; 250.078<br/>gini = 0.455<br/>samples = 99<br/>value = [0, 3, 67, 29, 0, 0, 0]<br/>class = 2>, fillcolor="#94f19e"] ;
58 -> 59 ;
60 [label=<gini = 0.531<br/>samples = 56<br/>value = [0, 2, 29, 25, 0, 0, 0]<br/>class = 2>, fillcolor="#e5fce8"] ;
59 -> 60 ;
61 [label=<trans_time4 &le; 2.285<br/>gini = 0.21<br/>samples = 43<br/>value = [0, 1, 38, 4, 0, 0, 0]<br/>class = 2>, fillcolor="#52e864"] ;
59 -> 61 ;
62 [label=<delivery_rate1 &le; 454.751<br/>gini = 0.104<br/>samples = 37<br/>value = [0, 1, 35, 1, 0, 0, 0]<br/>class = 2>, fillcolor="#44e657"] ;
61 -> 62 ;
63 [label=<gini = 0.054<br/>samples = 36<br/>value = [0, 0, 35, 1, 0, 0, 0]<br/>class = 2>, fillcolor="#3fe652"] ;
62 -> 63 ;
64 [label=<gini = 0.0<br/>samples = 1<br/>value = [0, 1, 0, 0, 0, 0, 0]<br/>class = 1>, fillcolor="#b7e539"] ;
62 -> 64 ;
65 [label=<gini = 0.5<br/>samples = 6<br/>value = [0, 0, 3, 3, 0, 0, 0]<br/>class = 2>, fillcolor="#ffffff"] ;
61 -> 65 ;
66 [label=<size8 &le; 263.249<br/>gini = 0.538<br/>samples = 120<br/>value = [0, 1, 41, 70, 8, 0, 0]<br/>class = 3>, fillcolor="#b6f5f4"] ;
58 -> 66 ;
67 [label=<gini = 0.142<br/>samples = 13<br/>value = [0, 0, 12, 1, 0, 0, 0]<br/>class = 2>, fillcolor="#49e75c"] ;
66 -> 67 ;
68 [label=<trans_time1 &le; 1.413<br/>gini = 0.505<br/>samples = 107<br/>value = [0, 1, 29, 69, 8, 0, 0]<br/>class = 3>, fillcolor="#99f2f0"] ;
66 -> 68 ;
69 [label=<gini = 0.604<br/>samples = 24<br/>value = [0, 1, 13, 7, 3, 0, 0]<br/>class = 2>, fillcolor="#b9f6c0"] ;
68 -> 69 ;
70 [label=<size2 &le; 435.168<br/>gini = 0.401<br/>samples = 83<br/>value = [0, 0, 16, 62, 5, 0, 0]<br/>class = 3>, fillcolor="#77edeb"] ;
68 -> 70 ;
71 [label=<trans_time7 &le; 3.525<br/>gini = 0.272<br/>samples = 65<br/>value = [0, 0, 6, 55, 4, 0, 0]<br/>class = 3>, fillcolor="#5be9e7"] ;
70 -> 71 ;
72 [label=<in_flight0 &le; 38.5<br/>gini = 0.206<br/>samples = 61<br/>value = [0, 0, 6, 54, 1, 0, 0]<br/>class = 3>, fillcolor="#52e8e6"] ;
71 -> 72 ;
73 [label=<cwnd7 &le; 140.0<br/>gini = 0.157<br/>samples = 59<br/>value = [0, 0, 4, 54, 1, 0, 0]<br/>class = 3>, fillcolor="#4be7e5"] ;
72 -> 73 ;
74 [label=<gini = 0.039<br/>samples = 50<br/>value = [0, 0, 1, 49, 0, 0, 0]<br/>class = 3>, fillcolor="#3de6e3"] ;
73 -> 74 ;
75 [label=<gini = 0.568<br/>samples = 9<br/>value = [0, 0, 3, 5, 1, 0, 0]<br/>class = 3>, fillcolor="#bdf6f5"] ;
73 -> 75 ;
76 [label=<gini = 0.0<br/>samples = 2<br/>value = [0, 0, 2, 0, 0, 0, 0]<br/>class = 2>, fillcolor="#39e54d"] ;
72 -> 76 ;
77 [label=<gini = 0.375<br/>samples = 4<br/>value = [0, 0, 0, 1, 3, 0, 0]<br/>class = 4>, fillcolor="#7b8eee"] ;
71 -> 77 ;
78 [label=<gini = 0.537<br/>samples = 18<br/>value = [0, 0, 10, 7, 1, 0, 0]<br/>class = 2>, fillcolor="#c9f8ce"] ;
70 -> 78 ;
79 [label=<cwnd2 &le; 374.5<br/>gini = 0.454<br/>samples = 65<br/>value = [0, 13, 46, 4, 0, 0, 2]<br/>class = 2>, fillcolor="#81ee8e"] ;
57 -> 79 ;
80 [label=<delivery_rate6 &le; 408.065<br/>gini = 0.284<br/>samples = 50<br/>value = [0, 3, 42, 4, 0, 0, 1]<br/>class = 2>, fillcolor="#5bea6c"] ;
79 -> 80 ;
81 [label=<in_flight3 &le; 37.5<br/>gini = 0.162<br/>samples = 45<br/>value = [0, 0, 41, 4, 0, 0, 0]<br/>class = 2>, fillcolor="#4ce85e"] ;
80 -> 81 ;
82 [label=<gini = 0.089<br/>samples = 43<br/>value = [0, 0, 41, 2, 0, 0, 0]<br/>class = 2>, fillcolor="#43e656"] ;
81 -> 82 ;
83 [label=<gini = 0.0<br/>samples = 2<br/>value = [0, 0, 0, 2, 0, 0, 0]<br/>class = 3>, fillcolor="#39e5e2"] ;
81 -> 83 ;
84 [label=<gini = 0.56<br/>samples = 5<br/>value = [0, 3, 1, 0, 0, 0, 1]<br/>class = 1>, fillcolor="#dbf29c"] ;
80 -> 84 ;
85 [label=<gini = 0.48<br/>samples = 15<br/>value = [0, 10, 4, 0, 0, 0, 1]<br/>class = 1>, fillcolor="#d8f193"] ;
79 -> 85 ;
86 [label=<cwnd8 &le; 61.0<br/>gini = 0.567<br/>samples = 79<br/>value = [0, 0, 15, 48, 13, 2, 1]<br/>class = 3>, fillcolor="#99f2f0"] ;
54 -> 86 ;
87 [label=<gini = 0.37<br/>samples = 9<br/>value = [0, 0, 0, 1, 7, 1, 0]<br/>class = 4>, fillcolor="#6a80ec"] ;
86 -> 87 ;
88 [label=<cwnd6 &le; 147.0<br/>gini = 0.496<br/>samples = 70<br/>value = [0, 0, 15, 47, 6, 1, 1]<br/>class = 3>, fillcolor="#8cf0ee"] ;
86 -> 88 ;
89 [label=<trans_time6 &le; 2.973<br/>gini = 0.323<br/>samples = 53<br/>value = [0, 0, 6, 43, 4, 0, 0]<br/>class = 3>, fillcolor="#63ebe8"] ;
88 -> 89 ;
90 [label=<trans_time6 &le; 1.236<br/>gini = 0.227<br/>samples = 46<br/>value = [0, 0, 6, 40, 0, 0, 0]<br/>class = 3>, fillcolor="#57e9e6"] ;
89 -> 90 ;
91 [label=<gini = 0.0<br/>samples = 2<br/>value = [0, 0, 2, 0, 0, 0, 0]<br/>class = 2>, fillcolor="#39e54d"] ;
90 -> 91 ;
92 [label=<cwnd4 &le; 27.0<br/>gini = 0.165<br/>samples = 44<br/>value = [0, 0, 4, 40, 0, 0, 0]<br/>class = 3>, fillcolor="#4de8e5"] ;
90 -> 92 ;
93 [label=<gini = 0.0<br/>samples = 1<br/>value = [0, 0, 1, 0, 0, 0, 0]<br/>class = 2>, fillcolor="#39e54d"] ;
92 -> 93 ;
94 [label=<in_flight7 &le; 48.5<br/>gini = 0.13<br/>samples = 43<br/>value = [0, 0, 3, 40, 0, 0, 0]<br/>class = 3>, fillcolor="#48e7e4"] ;
92 -> 94 ;
95 [label=<gini = 0.091<br/>samples = 42<br/>value = [0, 0, 2, 40, 0, 0, 0]<br/>class = 3>, fillcolor="#43e6e3"] ;
94 -> 95 ;
96 [label=<gini = 0.0<br/>samples = 1<br/>value = [0, 0, 1, 0, 0, 0, 0]<br/>class = 2>, fillcolor="#39e54d"] ;
94 -> 96 ;
97 [label=<gini = 0.49<br/>samples = 7<br/>value = [0, 0, 0, 3, 4, 0, 0]<br/>class = 4>, fillcolor="#ced5f8"] ;
89 -> 97 ;
98 [label=<gini = 0.644<br/>samples = 17<br/>value = [0, 0, 9, 4, 2, 1, 1]<br/>class = 2>, fillcolor="#b3f5bb"] ;
88 -> 98 ;
}
