digraph Tree {
node [shape=box, style="filled, rounded", color="black", fontname="helvetica"] ;
edge [fontname="helvetica"] ;
0 [label=<size8 &le; 243.492<br/>gini = 0.79<br/>samples = 3325<br/>value = [121, 544, 772, 962, 685, 97, 119, 6, 2, 3, 1, 13]<br/>class = 3>, fillcolor="#f1fdf0"] ;
1 [label=<trans_time7 &le; 0.872<br/>gini = 0.725<br/>samples = 2076<br/>value = [121, 468, 569, 784, 121, 3, 0, 1, 2, 3, 1, 3]<br/>class = 3>, fillcolor="#e5fbe3"] ;
0 -> 1 [labeldistance=2.5, labelangle=45, headlabel="True"] ;
2 [label=<trans_time6 &le; 0.899<br/>gini = 0.611<br/>samples = 579<br/>value = [99, 321, 129, 28, 2, 0, 0, 0, 0, 0, 0, 0]<br/>class = 1>, fillcolor="#f4eeab"] ;
1 -> 2 ;
3 [label=<delivery_rate7 &le; 201.212<br/>gini = 0.513<br/>samples = 377<br/>value = [87, 245, 40, 4, 1, 0, 0, 0, 0, 0, 0, 0]<br/>class = 1>, fillcolor="#f1e993"] ;
2 -> 3 ;
4 [label=<size8 &le; 89.336<br/>gini = 0.385<br/>samples = 220<br/>value = [15, 169, 31, 4, 1, 0, 0, 0, 0, 0, 0, 0]<br/>class = 1>, fillcolor="#ece26e"] ;
3 -> 4 ;
5 [label=<cwnd6 &le; 262.0<br/>gini = 0.297<br/>samples = 171<br/>value = [15, 142, 13, 1, 0, 0, 0, 0, 0, 0, 0, 0]<br/>class = 1>, fillcolor="#eade5e"] ;
4 -> 5 ;
6 [label=<cwnd8 &le; 37.0<br/>gini = 0.274<br/>samples = 168<br/>value = [12, 142, 13, 1, 0, 0, 0, 0, 0, 0, 0, 0]<br/>class = 1>, fillcolor="#e9de5a"] ;
5 -> 6 ;
7 [label=<gini = 0.475<br/>samples = 39<br/>value = [1, 26, 11, 1, 0, 0, 0, 0, 0, 0, 0, 0]<br/>class = 1>, fillcolor="#f1ea95"] ;
6 -> 7 ;
8 [label=<trans_time3 &le; 0.304<br/>gini = 0.184<br/>samples = 129<br/>value = [11, 116, 2, 0, 0, 0, 0, 0, 0, 0, 0, 0]<br/>class = 1>, fillcolor="#e8db4f"] ;
6 -> 8 ;
9 [label=<gini = 0.484<br/>samples = 17<br/>value = [7, 10, 0, 0, 0, 0, 0, 0, 0, 0, 0, 0]<br/>class = 1>, fillcolor="#f7f3c4"] ;
8 -> 9 ;
10 [label=<in_flight4 &le; 25.5<br/>gini = 0.103<br/>samples = 112<br/>value = [4, 106, 2, 0, 0, 0, 0, 0, 0, 0, 0, 0]<br/>class = 1>, fillcolor="#e6d944"] ;
8 -> 10 ;
11 [label=<gini = 0.071<br/>samples = 109<br/>value = [2, 105, 2, 0, 0, 0, 0, 0, 0, 0, 0, 0]<br/>class = 1>, fillcolor="#e6d840"] ;
10 -> 11 ;
12 [label=<gini = 0.444<br/>samples = 3<br/>value = [2, 1, 0, 0, 0, 0, 0, 0, 0, 0, 0, 0]<br/>class = 0>, fillcolor="#f2c09c"] ;
10 -> 12 ;
13 [label=<gini = 0.0<br/>samples = 3<br/>value = [3, 0, 0, 0, 0, 0, 0, 0, 0, 0, 0, 0]<br/>class = 0>, fillcolor="#e58139"] ;
5 -> 13 ;
14 [label=<gini = 0.557<br/>samples = 49<br/>value = [0, 27, 18, 3, 1, 0, 0, 0, 0, 0, 0, 0]<br/>class = 1>, fillcolor="#f7f3c6"] ;
4 -> 14 ;
15 [label=<size8 &le; 69.373<br/>gini = 0.552<br/>samples = 157<br/>value = [72, 76, 9, 0, 0, 0, 0, 0, 0, 0, 0, 0]<br/>class = 1>, fillcolor="#fefdf6"] ;
3 -> 15 ;
16 [label=<gini = 0.388<br/>samples = 87<br/>value = [65, 20, 2, 0, 0, 0, 0, 0, 0, 0, 0, 0]<br/>class = 0>, fillcolor="#eeaa7a"] ;
15 -> 16 ;
17 [label=<cwnd2 &le; 69.0<br/>gini = 0.34<br/>samples = 70<br/>value = [7, 56, 7, 0, 0, 0, 0, 0, 0, 0, 0, 0]<br/>class = 1>, fillcolor="#ebe065"] ;
15 -> 17 ;
18 [label=<gini = 0.642<br/>samples = 9<br/>value = [2, 3, 4, 0, 0, 0, 0, 0, 0, 0, 0, 0]<br/>class = 2>, fillcolor="#effbde"] ;
17 -> 18 ;
19 [label=<rtt3 &le; 0.107<br/>gini = 0.236<br/>samples = 61<br/>value = [5, 53, 3, 0, 0, 0, 0, 0, 0, 0, 0, 0]<br/>class = 1>, fillcolor="#e9dd55"] ;
17 -> 19 ;
20 [label=<gini = 0.0<br/>samples = 2<br/>value = [0, 0, 2, 0, 0, 0, 0, 0, 0, 0, 0, 0]<br/>class = 2>, fillcolor="#9de539"] ;
19 -> 20 ;
21 [label=<in_flight6 &le; 46.0<br/>gini = 0.186<br/>samples = 59<br/>value = [5, 53, 1, 0, 0, 0, 0, 0, 0, 0, 0, 0]<br/>class = 1>, fillcolor="#e8db4f"] ;
19 -> 21 ;
22 [label=<rtt8 &le; 0.385<br/>gini = 0.132<br/>samples = 57<br/>value = [3, 53, 1, 0, 0, 0, 0, 0, 0, 0, 0, 0]<br/>class = 1>, fillcolor="#e7da48"] ;
21 -> 22 ;
23 [label=<gini = 0.072<br/>samples = 54<br/>value = [1, 52, 1, 0, 0, 0, 0, 0, 0, 0, 0, 0]<br/>class = 1>, fillcolor="#e6d940"] ;
22 -> 23 ;
24 [label=<gini = 0.444<br/>samples = 3<br/>value = [2, 1, 0, 0, 0, 0, 0, 0, 0, 0, 0, 0]<br/>class = 0>, fillcolor="#f2c09c"] ;
22 -> 24 ;
25 [label=<gini = 0.0<br/>samples = 2<br/>value = [2, 0, 0, 0, 0, 0, 0, 0, 0, 0, 0, 0]<br/>class = 0>, fillcolor="#e58139"] ;
21 -> 25 ;
26 [label=<gini = 0.647<br/>samples = 202<br/>value = [12, 76, 89, 24, 1, 0, 0, 0, 0, 0, 0, 0]<br/>class = 2>, fillcolor="#f5fceb"] ;
2 -> 26 ;
27 [label=<cwnd7 &le; 40.5<br/>gini = 0.642<br/>samples = 1497<br/>value = [22, 147, 440, 756, 119, 3, 0, 1, 2, 3, 1, 3]<br/>class = 3>, fillcolor="#c8f7c4"] ;
1 -> 27 ;
28 [label=<trans_time7 &le; 1.317<br/>gini = 0.508<br/>samples = 731<br/>value = [2, 30, 139, 489, 59, 3, 0, 1, 2, 3, 1, 2]<br/>class = 3>, fillcolor="#92f08a"] ;
27 -> 28 ;
29 [label=<gini = 0.567<br/>samples = 137<br/>value = [1, 8, 64, 63, 1, 0, 0, 0, 0, 0, 0, 0]<br/>class = 2>, fillcolor="#fefffc"] ;
28 -> 29 ;
30 [label=<size8 &le; 166.902<br/>gini = 0.459<br/>samples = 594<br/>value = [1, 22, 75, 426, 58, 3, 0, 1, 2, 3, 1, 2]<br/>class = 3>, fillcolor="#83ed79"] ;
28 -> 30 ;
31 [label=<trans_time7 &le; 3.336<br/>gini = 0.42<br/>samples = 517<br/>value = [1, 22, 75, 385, 25, 0, 0, 1, 2, 3, 1, 2]<br/>class = 3>, fillcolor="#7eed74"] ;
30 -> 31 ;
32 [label=<delivery_rate7 &le; 109.939<br/>gini = 0.338<br/>samples = 438<br/>value = [0, 16, 49, 352, 20, 0, 0, 1, 0, 0, 0, 0]<br/>class = 3>, fillcolor="#70eb65"] ;
31 -> 32 ;
33 [label=<cwnd0 &le; 212.0<br/>gini = 0.312<br/>samples = 426<br/>value = [0, 14, 41, 350, 20, 0, 0, 1, 0, 0, 0, 0]<br/>class = 3>, fillcolor="#6bea60"] ;
32 -> 33 ;
34 [label=<size5 &le; 338.817<br/>gini = 0.291<br/>samples = 419<br/>value = [0, 10, 40, 350, 18, 0, 0, 1, 0, 0, 0, 0]<br/>class = 3>, fillcolor="#68ea5d"] ;
33 -> 34 ;
35 [label=<size8 &le; 27.994<br/>gini = 0.273<br/>samples = 412<br/>value = [0, 8, 36, 349, 18, 0, 0, 1, 0, 0, 0, 0]<br/>class = 3>, fillcolor="#66e95a"] ;
34 -> 35 ;
36 [label=<gini = 0.467<br/>samples = 67<br/>value = [0, 2, 19, 45, 0, 0, 0, 1, 0, 0, 0, 0]<br/>class = 3>, fillcolor="#9bf194"] ;
35 -> 36 ;
37 [label=<rtt7 &le; 0.151<br/>gini = 0.218<br/>samples = 345<br/>value = [0, 6, 17, 304, 18, 0, 0, 0, 0, 0, 0, 0]<br/>class = 3>, fillcolor="#5ee852"] ;
35 -> 37 ;
38 [label=<gini = 0.547<br/>samples = 17<br/>value = [0, 0, 1, 9, 7, 0, 0, 0, 0, 0, 0, 0]<br/>class = 3>, fillcolor="#dafad7"] ;
37 -> 38 ;
39 [label=<trans_time0 &le; 0.264<br/>gini = 0.187<br/>samples = 328<br/>value = [0, 6, 16, 295, 11, 0, 0, 0, 0, 0, 0, 0]<br/>class = 3>, fillcolor="#5ae84e"] ;
37 -> 39 ;
40 [label=<gini = 0.0<br/>samples = 2<br/>value = [0, 2, 0, 0, 0, 0, 0, 0, 0, 0, 0, 0]<br/>class = 1>, fillcolor="#e5d739"] ;
39 -> 40 ;
41 [label=<cwnd4 &le; 7.0<br/>gini = 0.177<br/>samples = 326<br/>value = [0, 4, 16, 295, 11, 0, 0, 0, 0, 0, 0, 0]<br/>class = 3>, fillcolor="#59e84d"] ;
39 -> 41 ;
42 [label=<gini = 0.593<br/>samples = 9<br/>value = [0, 0, 4, 4, 1, 0, 0, 0, 0, 0, 0, 0]<br/>class = 2>, fillcolor="#ffffff"] ;
41 -> 42 ;
43 [label=<delivery_rate1 &le; 1.594<br/>gini = 0.155<br/>samples = 317<br/>value = [0, 4, 12, 291, 10, 0, 0, 0, 0, 0, 0, 0]<br/>class = 3>, fillcolor="#57e74a"] ;
41 -> 43 ;
44 [label=<gini = 0.5<br/>samples = 2<br/>value = [0, 1, 0, 0, 1, 0, 0, 0, 0, 0, 0, 0]<br/>class = 1>, fillcolor="#ffffff"] ;
43 -> 44 ;
45 [label=<rtt1 &le; 0.105<br/>gini = 0.144<br/>samples = 315<br/>value = [0, 3, 12, 291, 9, 0, 0, 0, 0, 0, 0, 0]<br/>class = 3>, fillcolor="#56e749"] ;
43 -> 45 ;
46 [label=<gini = 0.0<br/>samples = 1<br/>value = [0, 1, 0, 0, 0, 0, 0, 0, 0, 0, 0, 0]<br/>class = 1>, fillcolor="#e5d739"] ;
45 -> 46 ;
47 [label=<size3 &le; 483.542<br/>gini = 0.139<br/>samples = 314<br/>value = [0, 2, 12, 291, 9, 0, 0, 0, 0, 0, 0, 0]<br/>class = 3>, fillcolor="#55e748"] ;
45 -> 47 ;
48 [label=<size7 &le; 104.115<br/>gini = 0.134<br/>samples = 313<br/>value = [0, 2, 11, 291, 9, 0, 0, 0, 0, 0, 0, 0]<br/>class = 3>, fillcolor="#54e747"] ;
47 -> 48 ;
49 [label=<gini = 0.062<br/>samples = 220<br/>value = [0, 0, 5, 213, 2, 0, 0, 0, 0, 0, 0, 0]<br/>class = 3>, fillcolor="#4de63f"] ;
48 -> 49 ;
50 [label=<size8 &le; 64.194<br/>gini = 0.286<br/>samples = 93<br/>value = [0, 2, 6, 78, 7, 0, 0, 0, 0, 0, 0, 0]<br/>class = 3>, fillcolor="#67ea5c"] ;
48 -> 50 ;
51 [label=<gini = 0.62<br/>samples = 10<br/>value = [0, 2, 5, 3, 0, 0, 0, 0, 0, 0, 0, 0]<br/>class = 2>, fillcolor="#e3f8c6"] ;
50 -> 51 ;
52 [label=<delivery_rate3 &le; 67.461<br/>gini = 0.176<br/>samples = 83<br/>value = [0, 0, 1, 75, 7, 0, 0, 0, 0, 0, 0, 0]<br/>class = 3>, fillcolor="#5ae84e"] ;
50 -> 52 ;
53 [label=<gini = 0.515<br/>samples = 20<br/>value = [0, 0, 1, 12, 7, 0, 0, 0, 0, 0, 0, 0]<br/>class = 3>, fillcolor="#b8f5b3"] ;
52 -> 53 ;
54 [label=<gini = 0.0<br/>samples = 63<br/>value = [0, 0, 0, 63, 0, 0, 0, 0, 0, 0, 0, 0]<br/>class = 3>, fillcolor="#47e539"] ;
52 -> 54 ;
55 [label=<gini = 0.0<br/>samples = 1<br/>value = [0, 0, 1, 0, 0, 0, 0, 0, 0, 0, 0, 0]<br/>class = 2>, fillcolor="#9de539"] ;
47 -> 55 ;
56 [label=<gini = 0.571<br/>samples = 7<br/>value = [0, 2, 4, 1, 0, 0, 0, 0, 0, 0, 0, 0]<br/>class = 2>, fillcolor="#d8f5b0"] ;
34 -> 56 ;
57 [label=<gini = 0.571<br/>samples = 7<br/>value = [0, 4, 1, 0, 2, 0, 0, 0, 0, 0, 0, 0]<br/>class = 1>, fillcolor="#f5efb0"] ;
33 -> 57 ;
58 [label=<gini = 0.5<br/>samples = 12<br/>value = [0, 2, 8, 2, 0, 0, 0, 0, 0, 0, 0, 0]<br/>class = 2>, fillcolor="#c4ef88"] ;
32 -> 58 ;
59 [label=<gini = 0.704<br/>samples = 79<br/>value = [1, 6, 26, 33, 5, 0, 0, 0, 2, 3, 1, 2]<br/>class = 3>, fillcolor="#e7fce5"] ;
31 -> 59 ;
60 [label=<gini = 0.531<br/>samples = 77<br/>value = [0, 0, 0, 41, 33, 3, 0, 0, 0, 0, 0, 0]<br/>class = 3>, fillcolor="#defadb"] ;
30 -> 60 ;
61 [label=<size8 &le; 104.491<br/>gini = 0.694<br/>samples = 766<br/>value = [20, 117, 301, 267, 60, 0, 0, 0, 0, 0, 0, 1]<br/>class = 2>, fillcolor="#f8fdf2"] ;
27 -> 61 ;
62 [label=<delivery_rate3 &le; 241.769<br/>gini = 0.631<br/>samples = 285<br/>value = [19, 78, 148, 40, 0, 0, 0, 0, 0, 0, 0, 0]<br/>class = 2>, fillcolor="#def6bc"] ;
61 -> 62 ;
63 [label=<delivery_rate8 &le; 32.858<br/>gini = 0.586<br/>samples = 257<br/>value = [8, 62, 148, 39, 0, 0, 0, 0, 0, 0, 0, 0]<br/>class = 2>, fillcolor="#d4f4a8"] ;
62 -> 63 ;
64 [label=<gini = 0.659<br/>samples = 72<br/>value = [1, 16, 27, 28, 0, 0, 0, 0, 0, 0, 0, 0]<br/>class = 3>, fillcolor="#fbfefb"] ;
63 -> 64 ;
65 [label=<trans_time5 &le; 0.374<br/>gini = 0.505<br/>samples = 185<br/>value = [7, 46, 121, 11, 0, 0, 0, 0, 0, 0, 0, 0]<br/>class = 2>, fillcolor="#caf194"] ;
63 -> 65 ;
66 [label=<gini = 0.198<br/>samples = 9<br/>value = [0, 8, 1, 0, 0, 0, 0, 0, 0, 0, 0, 0]<br/>class = 1>, fillcolor="#e8dc52"] ;
65 -> 66 ;
67 [label=<in_flight8 &le; 35.5<br/>gini = 0.483<br/>samples = 176<br/>value = [7, 38, 120, 11, 0, 0, 0, 0, 0, 0, 0, 0]<br/>class = 2>, fillcolor="#c5f089"] ;
65 -> 67 ;
68 [label=<delivery_rate1 &le; 3.451<br/>gini = 0.46<br/>samples = 170<br/>value = [7, 32, 120, 11, 0, 0, 0, 0, 0, 0, 0, 0]<br/>class = 2>, fillcolor="#c1ee81"] ;
67 -> 68 ;
69 [label=<gini = 0.594<br/>samples = 8<br/>value = [1, 4, 0, 3, 0, 0, 0, 0, 0, 0, 0, 0]<br/>class = 1>, fillcolor="#faf7d7"] ;
68 -> 69 ;
70 [label=<size0 &le; 516.677<br/>gini = 0.418<br/>samples = 162<br/>value = [6, 28, 120, 8, 0, 0, 0, 0, 0, 0, 0, 0]<br/>class = 2>, fillcolor="#bced77"] ;
68 -> 70 ;
71 [label=<in_flight4 &le; 46.0<br/>gini = 0.39<br/>samples = 157<br/>value = [6, 23, 120, 8, 0, 0, 0, 0, 0, 0, 0, 0]<br/>class = 2>, fillcolor="#b8ec70"] ;
70 -> 71 ;
72 [label=<rtt4 &le; 1.459<br/>gini = 0.351<br/>samples = 150<br/>value = [4, 19, 119, 8, 0, 0, 0, 0, 0, 0, 0, 0]<br/>class = 2>, fillcolor="#b4eb68"] ;
71 -> 72 ;
73 [label=<size5 &le; 514.074<br/>gini = 0.328<br/>samples = 146<br/>value = [4, 19, 118, 5, 0, 0, 0, 0, 0, 0, 0, 0]<br/>class = 2>, fillcolor="#b3eb65"] ;
72 -> 73 ;
74 [label=<delivery_rate8 &le; 238.958<br/>gini = 0.31<br/>samples = 144<br/>value = [2, 19, 118, 5, 0, 0, 0, 0, 0, 0, 0, 0]<br/>class = 2>, fillcolor="#b1ea62"] ;
73 -> 74 ;
75 [label=<size8 &le; 35.881<br/>gini = 0.277<br/>samples = 139<br/>value = [1, 16, 117, 5, 0, 0, 0, 0, 0, 0, 0, 0]<br/>class = 2>, fillcolor="#afea5c"] ;
74 -> 75 ;
76 [label=<gini = 0.471<br/>samples = 32<br/>value = [1, 10, 21, 0, 0, 0, 0, 0, 0, 0, 0, 0]<br/>class = 2>, fillcolor="#cef29c"] ;
75 -> 76 ;
77 [label=<in_flight7 &le; 54.5<br/>gini = 0.19<br/>samples = 107<br/>value = [0, 6, 96, 5, 0, 0, 0, 0, 0, 0, 0, 0]<br/>class = 2>, fillcolor="#a8e84f"] ;
75 -> 77 ;
78 [label=<delivery_rate7 &le; 2.661<br/>gini = 0.16<br/>samples = 105<br/>value = [0, 4, 96, 5, 0, 0, 0, 0, 0, 0, 0, 0]<br/>class = 2>, fillcolor="#a6e74b"] ;
77 -> 78 ;
79 [label=<gini = 0.0<br/>samples = 1<br/>value = [0, 1, 0, 0, 0, 0, 0, 0, 0, 0, 0, 0]<br/>class = 1>, fillcolor="#e5d739"] ;
78 -> 79 ;
80 [label=<rtt5 &le; 0.111<br/>gini = 0.145<br/>samples = 104<br/>value = [0, 3, 96, 5, 0, 0, 0, 0, 0, 0, 0, 0]<br/>class = 2>, fillcolor="#a5e749"] ;
78 -> 80 ;
81 [label=<gini = 0.0<br/>samples = 1<br/>value = [0, 1, 0, 0, 0, 0, 0, 0, 0, 0, 0, 0]<br/>class = 1>, fillcolor="#e5d739"] ;
80 -> 81 ;
82 [label=<cwnd6 &le; 11.0<br/>gini = 0.129<br/>samples = 103<br/>value = [0, 2, 96, 5, 0, 0, 0, 0, 0, 0, 0, 0]<br/>class = 2>, fillcolor="#a4e747"] ;
80 -> 82 ;
83 [label=<gini = 0.0<br/>samples = 1<br/>value = [0, 0, 0, 1, 0, 0, 0, 0, 0, 0, 0, 0]<br/>class = 3>, fillcolor="#47e539"] ;
82 -> 83 ;
84 [label=<trans_time6 &le; 3.492<br/>gini = 0.112<br/>samples = 102<br/>value = [0, 2, 96, 4, 0, 0, 0, 0, 0, 0, 0, 0]<br/>class = 2>, fillcolor="#a3e745"] ;
82 -> 84 ;
85 [label=<gini = 0.081<br/>samples = 96<br/>value = [0, 2, 92, 2, 0, 0, 0, 0, 0, 0, 0, 0]<br/>class = 2>, fillcolor="#a1e641"] ;
84 -> 85 ;
86 [label=<gini = 0.444<br/>samples = 6<br/>value = [0, 0, 4, 2, 0, 0, 0, 0, 0, 0, 0, 0]<br/>class = 2>, fillcolor="#cef29c"] ;
84 -> 86 ;
87 [label=<gini = 0.0<br/>samples = 2<br/>value = [0, 2, 0, 0, 0, 0, 0, 0, 0, 0, 0, 0]<br/>class = 1>, fillcolor="#e5d739"] ;
77 -> 87 ;
88 [label=<gini = 0.56<br/>samples = 5<br/>value = [1, 3, 1, 0, 0, 0, 0, 0, 0, 0, 0, 0]<br/>class = 1>, fillcolor="#f2eb9c"] ;
74 -> 88 ;
89 [label=<gini = 0.0<br/>samples = 2<br/>value = [2, 0, 0, 0, 0, 0, 0, 0, 0, 0, 0, 0]<br/>class = 0>, fillcolor="#e58139"] ;
73 -> 89 ;
90 [label=<gini = 0.375<br/>samples = 4<br/>value = [0, 0, 1, 3, 0, 0, 0, 0, 0, 0, 0, 0]<br/>class = 3>, fillcolor="#84ee7b"] ;
72 -> 90 ;
91 [label=<gini = 0.571<br/>samples = 7<br/>value = [2, 4, 1, 0, 0, 0, 0, 0, 0, 0, 0, 0]<br/>class = 1>, fillcolor="#f5efb0"] ;
71 -> 91 ;
92 [label=<gini = 0.0<br/>samples = 5<br/>value = [0, 5, 0, 0, 0, 0, 0, 0, 0, 0, 0, 0]<br/>class = 1>, fillcolor="#e5d739"] ;
70 -> 92 ;
93 [label=<gini = 0.0<br/>samples = 6<br/>value = [0, 6, 0, 0, 0, 0, 0, 0, 0, 0, 0, 0]<br/>class = 1>, fillcolor="#e5d739"] ;
67 -> 93 ;
94 [label=<gini = 0.518<br/>samples = 28<br/>value = [11, 16, 0, 1, 0, 0, 0, 0, 0, 0, 0, 0]<br/>class = 1>, fillcolor="#f7f3c5"] ;
62 -> 94 ;
95 [label=<delivery_rate2 &le; 220.258<br/>gini = 0.654<br/>samples = 481<br/>value = [1, 39, 153, 227, 60, 0, 0, 0, 0, 0, 0, 1]<br/>class = 3>, fillcolor="#d5f9d2"] ;
61 -> 95 ;
96 [label=<cwnd8 &le; 156.0<br/>gini = 0.598<br/>samples = 387<br/>value = [0, 17, 90, 220, 59, 0, 0, 0, 0, 0, 0, 1]<br/>class = 3>, fillcolor="#aef4a8"] ;
95 -> 96 ;
97 [label=<trans_time7 &le; 1.148<br/>gini = 0.557<br/>samples = 356<br/>value = [0, 7, 71, 218, 59, 0, 0, 0, 0, 0, 0, 1]<br/>class = 3>, fillcolor="#a0f299"] ;
96 -> 97 ;
98 [label=<gini = 0.516<br/>samples = 41<br/>value = [0, 4, 26, 11, 0, 0, 0, 0, 0, 0, 0, 0]<br/>class = 2>, fillcolor="#cef29c"] ;
97 -> 98 ;
99 [label=<size4 &le; 481.637<br/>gini = 0.513<br/>samples = 315<br/>value = [0, 3, 45, 207, 59, 0, 0, 0, 0, 0, 0, 1]<br/>class = 3>, fillcolor="#95f08d"] ;
97 -> 99 ;
100 [label=<delivery_rate8 &le; 112.467<br/>gini = 0.494<br/>samples = 307<br/>value = [0, 3, 37, 207, 59, 0, 0, 0, 0, 0, 0, 1]<br/>class = 3>, fillcolor="#91ef89"] ;
99 -> 100 ;
101 [label=<size8 &le; 204.128<br/>gini = 0.476<br/>samples = 193<br/>value = [0, 0, 10, 128, 55, 0, 0, 0, 0, 0, 0, 0]<br/>class = 3>, fillcolor="#9ef196"] ;
100 -> 101 ;
102 [label=<delivery_rate7 &le; 93.159<br/>gini = 0.402<br/>samples = 143<br/>value = [0, 0, 10, 107, 26, 0, 0, 0, 0, 0, 0, 0]<br/>class = 3>, fillcolor="#80ed76"] ;
101 -> 102 ;
103 [label=<gini = 0.52<br/>samples = 82<br/>value = [0, 0, 7, 51, 24, 0, 0, 0, 0, 0, 0, 0]<br/>class = 3>, fillcolor="#a9f3a3"] ;
102 -> 103 ;
104 [label=<in_flight5 &le; 27.5<br/>gini = 0.154<br/>samples = 61<br/>value = [0, 0, 3, 56, 2, 0, 0, 0, 0, 0, 0, 0]<br/>class = 3>, fillcolor="#57e74a"] ;
102 -> 104 ;
105 [label=<gini = 0.069<br/>samples = 56<br/>value = [0, 0, 0, 54, 2, 0, 0, 0, 0, 0, 0, 0]<br/>class = 3>, fillcolor="#4ee640"] ;
104 -> 105 ;
106 [label=<gini = 0.48<br/>samples = 5<br/>value = [0, 0, 3, 2, 0, 0, 0, 0, 0, 0, 0, 0]<br/>class = 2>, fillcolor="#def6bd"] ;
104 -> 106 ;
107 [label=<gini = 0.487<br/>samples = 50<br/>value = [0, 0, 0, 21, 29, 0, 0, 0, 0, 0, 0, 0]<br/>class = 4>, fillcolor="#c8f8dc"] ;
101 -> 107 ;
108 [label=<size8 &le; 169.044<br/>gini = 0.462<br/>samples = 114<br/>value = [0, 3, 27, 79, 4, 0, 0, 0, 0, 0, 0, 1]<br/>class = 3>, fillcolor="#91ef89"] ;
100 -> 108 ;
109 [label=<gini = 0.584<br/>samples = 42<br/>value = [0, 3, 20, 18, 0, 0, 0, 0, 0, 0, 0, 1]<br/>class = 2>, fillcolor="#f7fdee"] ;
108 -> 109 ;
110 [label=<size1 &le; 534.052<br/>gini = 0.27<br/>samples = 72<br/>value = [0, 0, 7, 61, 4, 0, 0, 0, 0, 0, 0, 0]<br/>class = 3>, fillcolor="#66e95b"] ;
108 -> 110 ;
111 [label=<cwnd4 &le; 158.5<br/>gini = 0.232<br/>samples = 70<br/>value = [0, 0, 5, 61, 4, 0, 0, 0, 0, 0, 0, 0]<br/>class = 3>, fillcolor="#60e954"] ;
110 -> 111 ;
112 [label=<in_flight1 &le; 49.5<br/>gini = 0.19<br/>samples = 68<br/>value = [0, 0, 4, 61, 3, 0, 0, 0, 0, 0, 0, 0]<br/>class = 3>, fillcolor="#5be84f"] ;
111 -> 112 ;
113 [label=<cwnd7 &le; 41.5<br/>gini = 0.167<br/>samples = 67<br/>value = [0, 0, 4, 61, 2, 0, 0, 0, 0, 0, 0, 0]<br/>class = 3>, fillcolor="#59e74c"] ;
112 -> 113 ;
114 [label=<gini = 0.0<br/>samples = 1<br/>value = [0, 0, 0, 0, 1, 0, 0, 0, 0, 0, 0, 0]<br/>class = 4>, fillcolor="#39e581"] ;
113 -> 114 ;
115 [label=<in_flight7 &le; 48.0<br/>gini = 0.142<br/>samples = 66<br/>value = [0, 0, 4, 61, 1, 0, 0, 0, 0, 0, 0, 0]<br/>class = 3>, fillcolor="#56e749"] ;
113 -> 115 ;
116 [label=<in_flight8 &le; 24.0<br/>gini = 0.117<br/>samples = 65<br/>value = [0, 0, 3, 61, 1, 0, 0, 0, 0, 0, 0, 0]<br/>class = 3>, fillcolor="#53e746"] ;
115 -> 116 ;
117 [label=<gini = 0.064<br/>samples = 61<br/>value = [0, 0, 1, 59, 1, 0, 0, 0, 0, 0, 0, 0]<br/>class = 3>, fillcolor="#4de640"] ;
116 -> 117 ;
118 [label=<gini = 0.5<br/>samples = 4<br/>value = [0, 0, 2, 2, 0, 0, 0, 0, 0, 0, 0, 0]<br/>class = 2>, fillcolor="#ffffff"] ;
116 -> 118 ;
119 [label=<gini = 0.0<br/>samples = 1<br/>value = [0, 0, 1, 0, 0, 0, 0, 0, 0, 0, 0, 0]<br/>class = 2>, fillcolor="#9de539"] ;
115 -> 119 ;
120 [label=<gini = 0.0<br/>samples = 1<br/>value = [0, 0, 0, 0, 1, 0, 0, 0, 0, 0, 0, 0]<br/>class = 4>, fillcolor="#39e581"] ;
112 -> 120 ;
121 [label=<gini = 0.5<br/>samples = 2<br/>value = [0, 0, 1, 0, 1, 0, 0, 0, 0, 0, 0, 0]<br/>class = 2>, fillcolor="#ffffff"] ;
111 -> 121 ;
122 [label=<gini = 0.0<br/>samples = 2<br/>value = [0, 0, 2, 0, 0, 0, 0, 0, 0, 0, 0, 0]<br/>class = 2>, fillcolor="#9de539"] ;
110 -> 122 ;
123 [label=<gini = 0.0<br/>samples = 8<br/>value = [0, 0, 8, 0, 0, 0, 0, 0, 0, 0, 0, 0]<br/>class = 2>, fillcolor="#9de539"] ;
99 -> 123 ;
124 [label=<gini = 0.516<br/>samples = 31<br/>value = [0, 10, 19, 2, 0, 0, 0, 0, 0, 0, 0, 0]<br/>class = 2>, fillcolor="#d5f4aa"] ;
96 -> 124 ;
125 [label=<delivery_rate8 &le; 311.856<br/>gini = 0.49<br/>samples = 94<br/>value = [1, 22, 63, 7, 1, 0, 0, 0, 0, 0, 0, 0]<br/>class = 2>, fillcolor="#c7f08e"] ;
95 -> 125 ;
126 [label=<size8 &le; 127.9<br/>gini = 0.309<br/>samples = 73<br/>value = [0, 7, 60, 6, 0, 0, 0, 0, 0, 0, 0, 0]<br/>class = 2>, fillcolor="#b0ea60"] ;
125 -> 126 ;
127 [label=<gini = 0.531<br/>samples = 8<br/>value = [0, 5, 2, 1, 0, 0, 0, 0, 0, 0, 0, 0]<br/>class = 1>, fillcolor="#f2eb9c"] ;
126 -> 127 ;
128 [label=<in_flight4 &le; 27.5<br/>gini = 0.197<br/>samples = 65<br/>value = [0, 2, 58, 5, 0, 0, 0, 0, 0, 0, 0, 0]<br/>class = 2>, fillcolor="#a8e850"] ;
126 -> 128 ;
129 [label=<gini = 0.096<br/>samples = 60<br/>value = [0, 2, 57, 1, 0, 0, 0, 0, 0, 0, 0, 0]<br/>class = 2>, fillcolor="#a2e643"] ;
128 -> 129 ;
130 [label=<gini = 0.32<br/>samples = 5<br/>value = [0, 0, 1, 4, 0, 0, 0, 0, 0, 0, 0, 0]<br/>class = 3>, fillcolor="#75ec6a"] ;
128 -> 130 ;
131 [label=<gini = 0.463<br/>samples = 21<br/>value = [1, 15, 3, 1, 1, 0, 0, 0, 0, 0, 0, 0]<br/>class = 1>, fillcolor="#eee47b"] ;
125 -> 131 ;
132 [label=<cwnd8 &le; 199.0<br/>gini = 0.731<br/>samples = 1249<br/>value = [0, 76, 203, 178, 564, 94, 119, 5, 0, 0, 0, 10]<br/>class = 4>, fillcolor="#bbf6d4"] ;
0 -> 132 [labeldistance=2.5, labelangle=-45, headlabel="False"] ;
133 [label=<trans_time7 &le; 1.447<br/>gini = 0.642<br/>samples = 942<br/>value = [0, 16, 129, 146, 521, 70, 57, 1, 0, 0, 0, 2]<br/>class = 4>, fillcolor="#a2f3c4"] ;
132 -> 133 ;
134 [label=<delivery_rate8 &le; 292.882<br/>gini = 0.726<br/>samples = 307<br/>value = [0, 16, 82, 70, 117, 13, 9, 0, 0, 0, 0, 0]<br/>class = 4>, fillcolor="#e0fbeb"] ;
133 -> 134 ;
135 [label=<gini = 0.679<br/>samples = 205<br/>value = [0, 4, 27, 61, 94, 11, 8, 0, 0, 0, 0, 0]<br/>class = 4>, fillcolor="#d2f9e2"] ;
134 -> 135 ;
136 [label=<size8 &le; 589.594<br/>gini = 0.636<br/>samples = 102<br/>value = [0, 12, 55, 9, 23, 2, 1, 0, 0, 0, 0, 0]<br/>class = 2>, fillcolor="#d7f4af"] ;
134 -> 136 ;
137 [label=<size8 &le; 292.526<br/>gini = 0.467<br/>samples = 78<br/>value = [0, 12, 55, 8, 3, 0, 0, 0, 0, 0, 0, 0]<br/>class = 2>, fillcolor="#bfee7e"] ;
136 -> 137 ;
138 [label=<gini = 0.32<br/>samples = 10<br/>value = [0, 8, 2, 0, 0, 0, 0, 0, 0, 0, 0, 0]<br/>class = 1>, fillcolor="#ece16a"] ;
137 -> 138 ;
139 [label=<in_flight0 &le; 54.0<br/>gini = 0.373<br/>samples = 68<br/>value = [0, 4, 53, 8, 3, 0, 0, 0, 0, 0, 0, 0]<br/>class = 2>, fillcolor="#b6ec6a"] ;
137 -> 139 ;
140 [label=<size8 &le; 529.097<br/>gini = 0.318<br/>samples = 65<br/>value = [0, 1, 53, 8, 3, 0, 0, 0, 0, 0, 0, 0]<br/>class = 2>, fillcolor="#b2ea63"] ;
139 -> 140 ;
141 [label=<cwnd7 &le; 201.0<br/>gini = 0.221<br/>samples = 58<br/>value = [0, 1, 51, 3, 3, 0, 0, 0, 0, 0, 0, 0]<br/>class = 2>, fillcolor="#a9e852"] ;
140 -> 141 ;
142 [label=<size6 &le; 951.502<br/>gini = 0.138<br/>samples = 55<br/>value = [0, 1, 51, 2, 1, 0, 0, 0, 0, 0, 0, 0]<br/>class = 2>, fillcolor="#a4e748"] ;
141 -> 142 ;
143 [label=<delivery_rate6 &le; 431.762<br/>gini = 0.106<br/>samples = 54<br/>value = [0, 1, 51, 2, 0, 0, 0, 0, 0, 0, 0, 0]<br/>class = 2>, fillcolor="#a3e644"] ;
142 -> 143 ;
144 [label=<gini = 0.073<br/>samples = 53<br/>value = [0, 0, 51, 2, 0, 0, 0, 0, 0, 0, 0, 0]<br/>class = 2>, fillcolor="#a1e641"] ;
143 -> 144 ;
145 [label=<gini = 0.0<br/>samples = 1<br/>value = [0, 1, 0, 0, 0, 0, 0, 0, 0, 0, 0, 0]<br/>class = 1>, fillcolor="#e5d739"] ;
143 -> 145 ;
146 [label=<gini = 0.0<br/>samples = 1<br/>value = [0, 0, 0, 0, 1, 0, 0, 0, 0, 0, 0, 0]<br/>class = 4>, fillcolor="#39e581"] ;
142 -> 146 ;
147 [label=<gini = 0.444<br/>samples = 3<br/>value = [0, 0, 0, 1, 2, 0, 0, 0, 0, 0, 0, 0]<br/>class = 4>, fillcolor="#9cf2c0"] ;
141 -> 147 ;
148 [label=<gini = 0.408<br/>samples = 7<br/>value = [0, 0, 2, 5, 0, 0, 0, 0, 0, 0, 0, 0]<br/>class = 3>, fillcolor="#91ef88"] ;
140 -> 148 ;
149 [label=<gini = 0.0<br/>samples = 3<br/>value = [0, 3, 0, 0, 0, 0, 0, 0, 0, 0, 0, 0]<br/>class = 1>, fillcolor="#e5d739"] ;
139 -> 149 ;
150 [label=<gini = 0.295<br/>samples = 24<br/>value = [0, 0, 0, 1, 20, 2, 1, 0, 0, 0, 0, 0]<br/>class = 4>, fillcolor="#5dea98"] ;
136 -> 150 ;
151 [label=<trans_time4 &le; 1.642<br/>gini = 0.562<br/>samples = 635<br/>value = [0, 0, 47, 76, 404, 57, 48, 1, 0, 0, 0, 2]<br/>class = 4>, fillcolor="#8bf0b5"] ;
133 -> 151 ;
152 [label=<gini = 0.682<br/>samples = 273<br/>value = [0, 0, 25, 52, 137, 29, 27, 1, 0, 0, 0, 2]<br/>class = 4>, fillcolor="#b3f5cf"] ;
151 -> 152 ;
153 [label=<delivery_rate4 &le; 22.611<br/>gini = 0.439<br/>samples = 362<br/>value = [0, 0, 22, 24, 267, 28, 21, 0, 0, 0, 0, 0]<br/>class = 4>, fillcolor="#71eca5"] ;
151 -> 153 ;
154 [label=<gini = 0.74<br/>samples = 28<br/>value = [0, 0, 1, 3, 8, 9, 7, 0, 0, 0, 0, 0]<br/>class = 5>, fillcolor="#f5fefd"] ;
153 -> 154 ;
155 [label=<size8 &le; 1130.982<br/>gini = 0.386<br/>samples = 334<br/>value = [0, 0, 21, 21, 259, 19, 14, 0, 0, 0, 0, 0]<br/>class = 4>, fillcolor="#68eb9f"] ;
153 -> 155 ;
156 [label=<rtt0 &le; 0.103<br/>gini = 0.369<br/>samples = 328<br/>value = [0, 0, 21, 21, 258, 19, 9, 0, 0, 0, 0, 0]<br/>class = 4>, fillcolor="#66eb9e"] ;
155 -> 156 ;
157 [label=<gini = 0.278<br/>samples = 6<br/>value = [0, 0, 5, 0, 1, 0, 0, 0, 0, 0, 0, 0]<br/>class = 2>, fillcolor="#b1ea61"] ;
156 -> 157 ;
158 [label=<delivery_rate8 &le; 450.574<br/>gini = 0.352<br/>samples = 322<br/>value = [0, 0, 16, 21, 257, 19, 9, 0, 0, 0, 0, 0]<br/>class = 4>, fillcolor="#64eb9c"] ;
156 -> 158 ;
159 [label=<trans_time2 &le; 1.649<br/>gini = 0.341<br/>samples = 319<br/>value = [0, 0, 13, 21, 257, 19, 9, 0, 0, 0, 0, 0]<br/>class = 4>, fillcolor="#62ea9b"] ;
158 -> 159 ;
160 [label=<gini = 0.558<br/>samples = 91<br/>value = [0, 0, 5, 9, 58, 12, 7, 0, 0, 0, 0, 0]<br/>class = 4>, fillcolor="#8cf0b6"] ;
159 -> 160 ;
161 [label=<cwnd6 &le; 220.0<br/>gini = 0.233<br/>samples = 228<br/>value = [0, 0, 8, 12, 199, 7, 2, 0, 0, 0, 0, 0]<br/>class = 4>, fillcolor="#54e892"] ;
159 -> 161 ;
162 [label=<in_flight6 &le; 12.5<br/>gini = 0.22<br/>samples = 226<br/>value = [0, 0, 8, 12, 199, 5, 2, 0, 0, 0, 0, 0]<br/>class = 4>, fillcolor="#52e891"] ;
161 -> 162 ;
163 [label=<cwnd8 &le; 187.0<br/>gini = 0.145<br/>samples = 170<br/>value = [0, 0, 4, 5, 157, 2, 2, 0, 0, 0, 0, 0]<br/>class = 4>, fillcolor="#49e78b"] ;
162 -> 163 ;
164 [label=<size5 &le; 1262.392<br/>gini = 0.116<br/>samples = 166<br/>value = [0, 0, 3, 4, 156, 2, 1, 0, 0, 0, 0, 0]<br/>class = 4>, fillcolor="#45e789"] ;
163 -> 164 ;
165 [label=<delivery_rate2 &le; 5.481<br/>gini = 0.105<br/>samples = 165<br/>value = [0, 0, 2, 4, 156, 2, 1, 0, 0, 0, 0, 0]<br/>class = 4>, fillcolor="#44e688"] ;
164 -> 165 ;
166 [label=<gini = 0.0<br/>samples = 1<br/>value = [0, 0, 0, 1, 0, 0, 0, 0, 0, 0, 0, 0]<br/>class = 3>, fillcolor="#47e539"] ;
165 -> 166 ;
167 [label=<gini = 0.095<br/>samples = 164<br/>value = [0, 0, 2, 3, 156, 2, 1, 0, 0, 0, 0, 0]<br/>class = 4>, fillcolor="#43e687"] ;
165 -> 167 ;
168 [label=<gini = 0.0<br/>samples = 1<br/>value = [0, 0, 1, 0, 0, 0, 0, 0, 0, 0, 0, 0]<br/>class = 2>, fillcolor="#9de539"] ;
164 -> 168 ;
169 [label=<gini = 0.75<br/>samples = 4<br/>value = [0, 0, 1, 1, 1, 0, 1, 0, 0, 0, 0, 0]<br/>class = 2>, fillcolor="#ffffff"] ;
163 -> 169 ;
170 [label=<gini = 0.414<br/>samples = 56<br/>value = [0, 0, 4, 7, 42, 3, 0, 0, 0, 0, 0, 0]<br/>class = 4>, fillcolor="#72eca5"] ;
162 -> 170 ;
171 [label=<gini = 0.0<br/>samples = 2<br/>value = [0, 0, 0, 0, 0, 2, 0, 0, 0, 0, 0, 0]<br/>class = 5>, fillcolor="#39e5d7"] ;
161 -> 171 ;
172 [label=<gini = 0.0<br/>samples = 3<br/>value = [0, 0, 3, 0, 0, 0, 0, 0, 0, 0, 0, 0]<br/>class = 2>, fillcolor="#9de539"] ;
158 -> 172 ;
173 [label=<gini = 0.278<br/>samples = 6<br/>value = [0, 0, 0, 0, 1, 0, 5, 0, 0, 0, 0, 0]<br/>class = 6>, fillcolor="#61b1ea"] ;
155 -> 173 ;
174 [label=<gini = 0.825<br/>samples = 307<br/>value = [0, 60, 74, 32, 43, 24, 62, 4, 0, 0, 0, 8]<br/>class = 2>, fillcolor="#fafef5"] ;
132 -> 174 ;
}
