digraph Tree {
node [shape=box, style="filled, rounded", color="black", fontname="helvetica"] ;
edge [fontname="helvetica"] ;
0 [label=<trans_time7 &le; 6.243<br/>gini = 0.773<br/>samples = 4788<br/>value = [226, 513, 1507, 1385, 285, 75, 13, 3, 781]<br/>class = 2>, fillcolor="#f9fef8"] ;
1 [label=<trans_time7 &le; 1.309<br/>gini = 0.728<br/>samples = 4017<br/>value = [226, 509, 1504, 1314, 285, 71, 13, 3, 92]<br/>class = 2>, fillcolor="#f4fdf1"] ;
0 -> 1 [labeldistance=2.5, labelangle=45, headlabel="True"] ;
2 [label=<size8 &le; 161.171<br/>gini = 0.645<br/>samples = 1840<br/>value = [211, 443, 963, 181, 28, 10, 2, 2, 0]<br/>class = 2>, fillcolor="#c5f5b5"] ;
1 -> 2 ;
3 [label=<delivery_rate6 &le; 146.877<br/>gini = 0.693<br/>samples = 924<br/>value = [211, 333, 322, 58, 0, 0, 0, 0, 0]<br/>class = 1>, fillcolor="#fefffb"] ;
2 -> 3 ;
4 [label=<trans_time4 &le; 5.141<br/>gini = 0.452<br/>samples = 417<br/>value = [6, 59, 298, 54, 0, 0, 0, 0, 0]<br/>class = 2>, fillcolor="#98ee7b"] ;
3 -> 4 ;
5 [label=<cwnd5 &le; 99.0<br/>gini = 0.375<br/>samples = 376<br/>value = [6, 40, 292, 38, 0, 0, 0, 0, 0]<br/>class = 2>, fillcolor="#8bec6b"] ;
4 -> 5 ;
6 [label=<delivery_rate8 &le; 304.314<br/>gini = 0.299<br/>samples = 319<br/>value = [2, 15, 264, 38, 0, 0, 0, 0, 0]<br/>class = 2>, fillcolor="#82ea60"] ;
5 -> 6 ;
7 [label=<delivery_rate6 &le; 3.731<br/>gini = 0.261<br/>samples = 307<br/>value = [0, 8, 261, 38, 0, 0, 0, 0, 0]<br/>class = 2>, fillcolor="#7fe95b"] ;
6 -> 7 ;
8 [label=<gini = 0.493<br/>samples = 34<br/>value = [0, 0, 19, 15, 0, 0, 0, 0, 0]<br/>class = 2>, fillcolor="#defad5"] ;
7 -> 8 ;
9 [label=<cwnd8 &le; 201.0<br/>gini = 0.206<br/>samples = 273<br/>value = [0, 8, 242, 23, 0, 0, 0, 0, 0]<br/>class = 2>, fillcolor="#77e852"] ;
7 -> 9 ;
10 [label=<trans_time3 &le; 6.906<br/>gini = 0.195<br/>samples = 271<br/>value = [0, 6, 242, 23, 0, 0, 0, 0, 0]<br/>class = 2>, fillcolor="#76e850"] ;
9 -> 10 ;
11 [label=<trans_time7 &le; 0.643<br/>gini = 0.178<br/>samples = 267<br/>value = [0, 4, 241, 22, 0, 0, 0, 0, 0]<br/>class = 2>, fillcolor="#74e84e"] ;
10 -> 11 ;
12 [label=<gini = 0.067<br/>samples = 116<br/>value = [0, 4, 112, 0, 0, 0, 0, 0, 0]<br/>class = 2>, fillcolor="#6ae640"] ;
11 -> 12 ;
13 [label=<gini = 0.249<br/>samples = 151<br/>value = [0, 0, 129, 22, 0, 0, 0, 0, 0]<br/>class = 2>, fillcolor="#7ee95b"] ;
11 -> 13 ;
14 [label=<gini = 0.625<br/>samples = 4<br/>value = [0, 2, 1, 1, 0, 0, 0, 0, 0]<br/>class = 1>, fillcolor="#f2f6bd"] ;
10 -> 14 ;
15 [label=<gini = 0.0<br/>samples = 2<br/>value = [0, 2, 0, 0, 0, 0, 0, 0, 0]<br/>class = 1>, fillcolor="#d7e539"] ;
9 -> 15 ;
16 [label=<gini = 0.569<br/>samples = 12<br/>value = [2, 7, 3, 0, 0, 0, 0, 0, 0]<br/>class = 1>, fillcolor="#edf3a7"] ;
6 -> 16 ;
17 [label=<gini = 0.561<br/>samples = 57<br/>value = [4, 25, 28, 0, 0, 0, 0, 0, 0]<br/>class = 2>, fillcolor="#f0fdec"] ;
5 -> 17 ;
18 [label=<gini = 0.612<br/>samples = 41<br/>value = [0, 19, 6, 16, 0, 0, 0, 0, 0]<br/>class = 1>, fillcolor="#fafce7"] ;
4 -> 18 ;
19 [label=<size8 &le; 49.434<br/>gini = 0.542<br/>samples = 507<br/>value = [205, 274, 24, 4, 0, 0, 0, 0, 0]<br/>class = 1>, fillcolor="#f6f9d2"] ;
3 -> 19 ;
20 [label=<delivery_rate7 &le; 304.265<br/>gini = 0.393<br/>samples = 224<br/>value = [165, 57, 2, 0, 0, 0, 0, 0, 0]<br/>class = 0>, fillcolor="#eeae7f"] ;
19 -> 20 ;
21 [label=<gini = 0.42<br/>samples = 74<br/>value = [19, 53, 2, 0, 0, 0, 0, 0, 0]<br/>class = 1>, fillcolor="#e6ef85"] ;
20 -> 21 ;
22 [label=<gini = 0.052<br/>samples = 150<br/>value = [146, 4, 0, 0, 0, 0, 0, 0, 0]<br/>class = 0>, fillcolor="#e6843e"] ;
20 -> 22 ;
23 [label=<rtt7 &le; 0.105<br/>gini = 0.386<br/>samples = 283<br/>value = [40, 217, 22, 4, 0, 0, 0, 0, 0]<br/>class = 1>, fillcolor="#e2ec6f"] ;
19 -> 23 ;
24 [label=<gini = 0.544<br/>samples = 33<br/>value = [18, 13, 0, 2, 0, 0, 0, 0, 0]<br/>class = 0>, fillcolor="#f8e0ce"] ;
23 -> 24 ;
25 [label=<delivery_rate8 &le; 187.076<br/>gini = 0.319<br/>samples = 250<br/>value = [22, 204, 22, 2, 0, 0, 0, 0, 0]<br/>class = 1>, fillcolor="#dfea61"] ;
23 -> 25 ;
26 [label=<gini = 0.529<br/>samples = 31<br/>value = [0, 14, 16, 1, 0, 0, 0, 0, 0]<br/>class = 2>, fillcolor="#edfce8"] ;
25 -> 26 ;
27 [label=<cwnd5 &le; 519.0<br/>gini = 0.236<br/>samples = 219<br/>value = [22, 190, 6, 1, 0, 0, 0, 0, 0]<br/>class = 1>, fillcolor="#dde956"] ;
25 -> 27 ;
28 [label=<trans_time4 &le; 3.638<br/>gini = 0.2<br/>samples = 211<br/>value = [16, 188, 6, 1, 0, 0, 0, 0, 0]<br/>class = 1>, fillcolor="#dce850"] ;
27 -> 28 ;
29 [label=<trans_time0 &le; 0.163<br/>gini = 0.139<br/>samples = 191<br/>value = [8, 177, 5, 1, 0, 0, 0, 0, 0]<br/>class = 1>, fillcolor="#dae748"] ;
28 -> 29 ;
30 [label=<gini = 0.0<br/>samples = 2<br/>value = [2, 0, 0, 0, 0, 0, 0, 0, 0]<br/>class = 0>, fillcolor="#e58139"] ;
29 -> 30 ;
31 [label=<delivery_rate6 &le; 173.862<br/>gini = 0.121<br/>samples = 189<br/>value = [6, 177, 5, 1, 0, 0, 0, 0, 0]<br/>class = 1>, fillcolor="#dae746"] ;
29 -> 31 ;
32 [label=<gini = 0.617<br/>samples = 9<br/>value = [1, 5, 2, 1, 0, 0, 0, 0, 0]<br/>class = 1>, fillcolor="#eef4aa"] ;
31 -> 32 ;
33 [label=<gini = 0.086<br/>samples = 180<br/>value = [5, 172, 3, 0, 0, 0, 0, 0, 0]<br/>class = 1>, fillcolor="#d9e642"] ;
31 -> 33 ;
34 [label=<gini = 0.535<br/>samples = 20<br/>value = [8, 11, 1, 0, 0, 0, 0, 0, 0]<br/>class = 1>, fillcolor="#f5f8ce"] ;
28 -> 34 ;
35 [label=<gini = 0.375<br/>samples = 8<br/>value = [6, 2, 0, 0, 0, 0, 0, 0, 0]<br/>class = 0>, fillcolor="#eeab7b"] ;
27 -> 35 ;
36 [label=<size5 &le; 300.049<br/>gini = 0.477<br/>samples = 916<br/>value = [0, 110, 641, 123, 28, 10, 2, 2, 0]<br/>class = 2>, fillcolor="#9aee7e"] ;
2 -> 36 ;
37 [label=<trans_time5 &le; 0.984<br/>gini = 0.629<br/>samples = 434<br/>value = [0, 89, 232, 88, 17, 6, 2, 0, 0]<br/>class = 2>, fillcolor="#bff4ad"] ;
36 -> 37 ;
38 [label=<cwnd8 &le; 181.0<br/>gini = 0.52<br/>samples = 319<br/>value = [0, 77, 205, 29, 8, 0, 0, 0, 0]<br/>class = 2>, fillcolor="#adf196"] ;
37 -> 38 ;
39 [label=<size1 &le; 17.532<br/>gini = 0.423<br/>samples = 225<br/>value = [0, 24, 167, 26, 8, 0, 0, 0, 0]<br/>class = 2>, fillcolor="#91ed73"] ;
38 -> 39 ;
40 [label=<gini = 0.34<br/>samples = 10<br/>value = [0, 0, 1, 8, 1, 0, 0, 0, 0]<br/>class = 3>, fillcolor="#65eb9d"] ;
39 -> 40 ;
41 [label=<trans_time1 &le; 0.889<br/>gini = 0.383<br/>samples = 215<br/>value = [0, 24, 166, 18, 7, 0, 0, 0, 0]<br/>class = 2>, fillcolor="#8cec6c"] ;
39 -> 41 ;
42 [label=<rtt4 &le; 0.1<br/>gini = 0.25<br/>samples = 172<br/>value = [0, 14, 148, 9, 1, 0, 0, 0, 0]<br/>class = 2>, fillcolor="#7ce957"] ;
41 -> 42 ;
43 [label=<gini = 0.48<br/>samples = 15<br/>value = [0, 9, 6, 0, 0, 0, 0, 0, 0]<br/>class = 1>, fillcolor="#f2f6bd"] ;
42 -> 43 ;
44 [label=<rtt6 &le; 0.333<br/>gini = 0.178<br/>samples = 157<br/>value = [0, 5, 142, 9, 1, 0, 0, 0, 0]<br/>class = 2>, fillcolor="#74e84d"] ;
42 -> 44 ;
45 [label=<delivery_rate8 &le; 206.379<br/>gini = 0.129<br/>samples = 147<br/>value = [0, 5, 137, 4, 1, 0, 0, 0, 0]<br/>class = 2>, fillcolor="#6fe747"] ;
44 -> 45 ;
46 [label=<gini = 0.54<br/>samples = 10<br/>value = [0, 0, 6, 3, 1, 0, 0, 0, 0]<br/>class = 2>, fillcolor="#bdf4aa"] ;
45 -> 46 ;
47 [label=<gini = 0.084<br/>samples = 137<br/>value = [0, 5, 131, 1, 0, 0, 0, 0, 0]<br/>class = 2>, fillcolor="#6be642"] ;
45 -> 47 ;
48 [label=<gini = 0.5<br/>samples = 10<br/>value = [0, 0, 5, 5, 0, 0, 0, 0, 0]<br/>class = 2>, fillcolor="#ffffff"] ;
44 -> 48 ;
49 [label=<gini = 0.707<br/>samples = 43<br/>value = [0, 10, 18, 9, 6, 0, 0, 0, 0]<br/>class = 2>, fillcolor="#d9f9cf"] ;
41 -> 49 ;
50 [label=<gini = 0.518<br/>samples = 94<br/>value = [0, 53, 38, 3, 0, 0, 0, 0, 0]<br/>class = 1>, fillcolor="#f4f8ca"] ;
38 -> 50 ;
51 [label=<gini = 0.662<br/>samples = 115<br/>value = [0, 12, 27, 59, 9, 6, 2, 0, 0]<br/>class = 3>, fillcolor="#b7f6d1"] ;
37 -> 51 ;
52 [label=<delivery_rate0 &le; 230.458<br/>gini = 0.272<br/>samples = 482<br/>value = [0, 21, 409, 35, 11, 4, 0, 2, 0]<br/>class = 2>, fillcolor="#7de959"] ;
36 -> 52 ;
53 [label=<gini = 0.724<br/>samples = 49<br/>value = [0, 1, 20, 11, 11, 4, 0, 2, 0]<br/>class = 2>, fillcolor="#daf9d0"] ;
52 -> 53 ;
54 [label=<size8 &le; 308.818<br/>gini = 0.188<br/>samples = 433<br/>value = [0, 20, 389, 24, 0, 0, 0, 0, 0]<br/>class = 2>, fillcolor="#75e84e"] ;
52 -> 54 ;
55 [label=<gini = 0.58<br/>samples = 20<br/>value = [0, 10, 8, 2, 0, 0, 0, 0, 0]<br/>class = 1>, fillcolor="#f8fbde"] ;
54 -> 55 ;
56 [label=<delivery_rate5 &le; 208.757<br/>gini = 0.146<br/>samples = 413<br/>value = [0, 10, 381, 22, 0, 0, 0, 0, 0]<br/>class = 2>, fillcolor="#71e749"] ;
54 -> 56 ;
57 [label=<gini = 0.375<br/>samples = 8<br/>value = [0, 0, 2, 6, 0, 0, 0, 0, 0]<br/>class = 3>, fillcolor="#7beeab"] ;
56 -> 57 ;
58 [label=<delivery_rate8 &le; 238.453<br/>gini = 0.122<br/>samples = 405<br/>value = [0, 10, 379, 16, 0, 0, 0, 0, 0]<br/>class = 2>, fillcolor="#6ee746"] ;
56 -> 58 ;
59 [label=<gini = 0.32<br/>samples = 5<br/>value = [0, 0, 1, 4, 0, 0, 0, 0, 0]<br/>class = 3>, fillcolor="#6aeca0"] ;
58 -> 59 ;
60 [label=<trans_time0 &le; 9.793<br/>gini = 0.105<br/>samples = 400<br/>value = [0, 10, 378, 12, 0, 0, 0, 0, 0]<br/>class = 2>, fillcolor="#6de644"] ;
58 -> 60 ;
61 [label=<gini = 0.097<br/>samples = 398<br/>value = [0, 10, 378, 10, 0, 0, 0, 0, 0]<br/>class = 2>, fillcolor="#6ce643"] ;
60 -> 61 ;
62 [label=<gini = 0.0<br/>samples = 2<br/>value = [0, 0, 0, 2, 0, 0, 0, 0, 0]<br/>class = 3>, fillcolor="#39e581"] ;
60 -> 62 ;
63 [label=<size8 &le; 461.13<br/>gini = 0.65<br/>samples = 2177<br/>value = [15, 66, 541, 1133, 257, 61, 11, 1, 92]<br/>class = 3>, fillcolor="#b7f6d1"] ;
1 -> 63 ;
64 [label=<delivery_rate2 &le; 348.787<br/>gini = 0.602<br/>samples = 1902<br/>value = [15, 64, 526, 1065, 127, 16, 1, 0, 88]<br/>class = 3>, fillcolor="#b1f5ce"] ;
63 -> 64 ;
65 [label=<size8 &le; 347.706<br/>gini = 0.572<br/>samples = 1685<br/>value = [10, 59, 363, 1028, 123, 14, 1, 0, 87]<br/>class = 3>, fillcolor="#9bf2c0"] ;
64 -> 65 ;
66 [label=<trans_time2 &le; 2.63<br/>gini = 0.632<br/>samples = 917<br/>value = [10, 52, 273, 475, 30, 5, 0, 0, 72]<br/>class = 3>, fillcolor="#c1f7d7"] ;
65 -> 66 ;
67 [label=<gini = 0.584<br/>samples = 435<br/>value = [2, 30, 235, 149, 19, 0, 0, 0, 0]<br/>class = 2>, fillcolor="#d0f7c3"] ;
66 -> 67 ;
68 [label=<delivery_rate8 &le; 264.712<br/>gini = 0.511<br/>samples = 482<br/>value = [8, 22, 38, 326, 11, 5, 0, 0, 72]<br/>class = 3>, fillcolor="#84efb1"] ;
66 -> 68 ;
69 [label=<cwnd3 &le; 218.0<br/>gini = 0.356<br/>samples = 366<br/>value = [1, 13, 20, 291, 9, 2, 0, 0, 30]<br/>class = 3>, fillcolor="#65eb9d"] ;
68 -> 69 ;
70 [label=<trans_time5 &le; 1.129<br/>gini = 0.331<br/>samples = 356<br/>value = [0, 13, 13, 289, 9, 2, 0, 0, 30]<br/>class = 3>, fillcolor="#62ea9b"] ;
69 -> 70 ;
71 [label=<gini = 0.705<br/>samples = 20<br/>value = [0, 4, 2, 7, 7, 0, 0, 0, 0]<br/>class = 3>, fillcolor="#ffffff"] ;
70 -> 71 ;
72 [label=<trans_time6 &le; 5.81<br/>gini = 0.286<br/>samples = 336<br/>value = [0, 9, 11, 282, 2, 2, 0, 0, 30]<br/>class = 3>, fillcolor="#5cea97"] ;
70 -> 72 ;
73 [label=<size2 &le; 14.737<br/>gini = 0.207<br/>samples = 215<br/>value = [0, 8, 11, 191, 1, 1, 0, 0, 3]<br/>class = 3>, fillcolor="#50e890"] ;
72 -> 73 ;
74 [label=<gini = 0.56<br/>samples = 5<br/>value = [0, 1, 3, 1, 0, 0, 0, 0, 0]<br/>class = 2>, fillcolor="#b2f29c"] ;
73 -> 74 ;
75 [label=<size5 &le; 44.838<br/>gini = 0.179<br/>samples = 210<br/>value = [0, 7, 8, 190, 1, 1, 0, 0, 3]<br/>class = 3>, fillcolor="#4de88d"] ;
73 -> 75 ;
76 [label=<gini = 0.054<br/>samples = 145<br/>value = [0, 0, 1, 141, 0, 0, 0, 0, 3]<br/>class = 3>, fillcolor="#3fe685"] ;
75 -> 76 ;
77 [label=<gini = 0.408<br/>samples = 65<br/>value = [0, 7, 7, 49, 1, 1, 0, 0, 0]<br/>class = 3>, fillcolor="#70eca4"] ;
75 -> 77 ;
78 [label=<gini = 0.384<br/>samples = 121<br/>value = [0, 1, 0, 91, 1, 1, 0, 0, 27]<br/>class = 3>, fillcolor="#78eda9"] ;
72 -> 78 ;
79 [label=<gini = 0.46<br/>samples = 10<br/>value = [1, 0, 7, 2, 0, 0, 0, 0, 0]<br/>class = 2>, fillcolor="#9eef83"] ;
69 -> 79 ;
80 [label=<gini = 0.743<br/>samples = 116<br/>value = [7, 9, 18, 35, 2, 3, 0, 0, 42]<br/>class = 8>, fillcolor="#fdeef2"] ;
68 -> 80 ;
81 [label=<delivery_rate6 &le; 225.243<br/>gini = 0.453<br/>samples = 768<br/>value = [0, 7, 90, 553, 93, 9, 1, 0, 15]<br/>class = 3>, fillcolor="#78eda9"] ;
65 -> 81 ;
82 [label=<gini = 0.612<br/>samples = 145<br/>value = [0, 3, 8, 62, 65, 2, 1, 0, 4]<br/>class = 4>, fillcolor="#f8fefe"] ;
81 -> 82 ;
83 [label=<delivery_rate6 &le; 362.556<br/>gini = 0.359<br/>samples = 623<br/>value = [0, 4, 82, 491, 28, 7, 0, 0, 11]<br/>class = 3>, fillcolor="#69eba0"] ;
81 -> 83 ;
84 [label=<trans_time7 &le; 3.9<br/>gini = 0.27<br/>samples = 547<br/>value = [0, 2, 48, 464, 26, 4, 0, 0, 3]<br/>class = 3>, fillcolor="#5ae996"] ;
83 -> 84 ;
85 [label=<delivery_rate8 &le; 314.099<br/>gini = 0.234<br/>samples = 532<br/>value = [0, 2, 47, 463, 18, 2, 0, 0, 0]<br/>class = 3>, fillcolor="#55e993"] ;
84 -> 85 ;
86 [label=<trans_time4 &le; 5.131<br/>gini = 0.134<br/>samples = 355<br/>value = [0, 0, 9, 330, 14, 2, 0, 0, 0]<br/>class = 3>, fillcolor="#48e78a"] ;
85 -> 86 ;
87 [label=<trans_time7 &le; 2.198<br/>gini = 0.119<br/>samples = 352<br/>value = [0, 0, 9, 330, 13, 0, 0, 0, 0]<br/>class = 3>, fillcolor="#46e789"] ;
86 -> 87 ;
88 [label=<gini = 0.068<br/>samples = 284<br/>value = [0, 0, 8, 274, 2, 0, 0, 0, 0]<br/>class = 3>, fillcolor="#40e686"] ;
87 -> 88 ;
89 [label=<gini = 0.295<br/>samples = 68<br/>value = [0, 0, 1, 56, 11, 0, 0, 0, 0]<br/>class = 3>, fillcolor="#63ea9c"] ;
87 -> 89 ;
90 [label=<gini = 0.444<br/>samples = 3<br/>value = [0, 0, 0, 0, 1, 2, 0, 0, 0]<br/>class = 5>, fillcolor="#9cb2f2"] ;
86 -> 90 ;
91 [label=<delivery_rate2 &le; 314.199<br/>gini = 0.389<br/>samples = 177<br/>value = [0, 2, 38, 133, 4, 0, 0, 0, 0]<br/>class = 3>, fillcolor="#78eda9"] ;
85 -> 91 ;
92 [label=<size7 &le; 611.46<br/>gini = 0.307<br/>samples = 144<br/>value = [0, 2, 21, 118, 3, 0, 0, 0, 0]<br/>class = 3>, fillcolor="#63ea9c"] ;
91 -> 92 ;
93 [label=<rtt7 &le; 0.123<br/>gini = 0.253<br/>samples = 133<br/>value = [0, 2, 14, 114, 3, 0, 0, 0, 0]<br/>class = 3>, fillcolor="#59e995"] ;
92 -> 93 ;
94 [label=<gini = 0.444<br/>samples = 6<br/>value = [0, 0, 4, 2, 0, 0, 0, 0, 0]<br/>class = 2>, fillcolor="#b2f29c"] ;
93 -> 94 ;
95 [label=<size0 &le; 20.226<br/>gini = 0.215<br/>samples = 127<br/>value = [0, 2, 10, 112, 3, 0, 0, 0, 0]<br/>class = 3>, fillcolor="#52e891"] ;
93 -> 95 ;
96 [label=<gini = 0.64<br/>samples = 5<br/>value = [0, 2, 2, 1, 0, 0, 0, 0, 0]<br/>class = 1>, fillcolor="#ffffff"] ;
95 -> 96 ;
97 [label=<size4 &le; 492.57<br/>gini = 0.167<br/>samples = 122<br/>value = [0, 0, 8, 111, 3, 0, 0, 0, 0]<br/>class = 3>, fillcolor="#4ce88d"] ;
95 -> 97 ;
98 [label=<cwnd4 &le; 368.0<br/>gini = 0.119<br/>samples = 112<br/>value = [0, 0, 4, 105, 3, 0, 0, 0, 0]<br/>class = 3>, fillcolor="#46e789"] ;
97 -> 98 ;
99 [label=<size7 &le; 262.814<br/>gini = 0.104<br/>samples = 111<br/>value = [0, 0, 4, 105, 2, 0, 0, 0, 0]<br/>class = 3>, fillcolor="#44e688"] ;
98 -> 99 ;
100 [label=<gini = 0.0<br/>samples = 1<br/>value = [0, 0, 0, 0, 1, 0, 0, 0, 0]<br/>class = 4>, fillcolor="#39d7e5"] ;
99 -> 100 ;
101 [label=<gini = 0.087<br/>samples = 110<br/>value = [0, 0, 4, 105, 1, 0, 0, 0, 0]<br/>class = 3>, fillcolor="#42e687"] ;
99 -> 101 ;
102 [label=<gini = 0.0<br/>samples = 1<br/>value = [0, 0, 0, 0, 1, 0, 0, 0, 0]<br/>class = 4>, fillcolor="#39d7e5"] ;
98 -> 102 ;
103 [label=<gini = 0.48<br/>samples = 10<br/>value = [0, 0, 4, 6, 0, 0, 0, 0, 0]<br/>class = 3>, fillcolor="#bdf6d5"] ;
97 -> 103 ;
104 [label=<gini = 0.463<br/>samples = 11<br/>value = [0, 0, 7, 4, 0, 0, 0, 0, 0]<br/>class = 2>, fillcolor="#bdf4aa"] ;
92 -> 104 ;
105 [label=<gini = 0.527<br/>samples = 33<br/>value = [0, 0, 17, 15, 1, 0, 0, 0, 0]<br/>class = 2>, fillcolor="#eefce9"] ;
91 -> 105 ;
106 [label=<gini = 0.649<br/>samples = 15<br/>value = [0, 0, 1, 1, 8, 2, 0, 0, 3]<br/>class = 4>, fillcolor="#aceef4"] ;
84 -> 106 ;
107 [label=<gini = 0.66<br/>samples = 76<br/>value = [0, 2, 34, 27, 2, 3, 0, 0, 8]<br/>class = 2>, fillcolor="#e9fbe3"] ;
83 -> 107 ;
108 [label=<delivery_rate6 &le; 403.095<br/>gini = 0.405<br/>samples = 217<br/>value = [5, 5, 163, 37, 4, 2, 0, 0, 1]<br/>class = 2>, fillcolor="#92ed74"] ;
64 -> 108 ;
109 [label=<gini = 0.547<br/>samples = 118<br/>value = [3, 4, 71, 35, 3, 1, 0, 0, 1]<br/>class = 2>, fillcolor="#bcf4a9"] ;
108 -> 109 ;
110 [label=<size8 &le; 182.313<br/>gini = 0.135<br/>samples = 99<br/>value = [2, 1, 92, 2, 1, 1, 0, 0, 0]<br/>class = 2>, fillcolor="#6fe747"] ;
108 -> 110 ;
111 [label=<gini = 0.444<br/>samples = 3<br/>value = [2, 1, 0, 0, 0, 0, 0, 0, 0]<br/>class = 0>, fillcolor="#f2c09c"] ;
110 -> 111 ;
112 [label=<gini = 0.081<br/>samples = 96<br/>value = [0, 0, 92, 2, 1, 1, 0, 0, 0]<br/>class = 2>, fillcolor="#6be641"] ;
110 -> 112 ;
113 [label=<gini = 0.684<br/>samples = 275<br/>value = [0, 2, 15, 68, 130, 45, 10, 1, 4]<br/>class = 4>, fillcolor="#c4f3f7"] ;
63 -> 113 ;
114 [label=<trans_time7 &le; 7.072<br/>gini = 0.193<br/>samples = 771<br/>value = [0, 4, 3, 71, 0, 4, 0, 0, 689]<br/>class = 8>, fillcolor="#e85076"] ;
0 -> 114 [labeldistance=2.5, labelangle=-45, headlabel="False"] ;
115 [label=<gini = 0.462<br/>samples = 161<br/>value = [0, 0, 0, 54, 0, 2, 0, 0, 105]<br/>class = 8>, fillcolor="#f3a1b5"] ;
114 -> 115 ;
116 [label=<gini = 0.083<br/>samples = 610<br/>value = [0, 4, 3, 17, 0, 2, 0, 0, 584]<br/>class = 8>, fillcolor="#e6426b"] ;
114 -> 116 ;
}
