digraph Tree {
node [shape=box, style="filled, rounded", color="black", fontname="helvetica"] ;
edge [fontname="helvetica"] ;
0 [label=<trans_time7 &le; 5.521<br/>gini = 0.814<br/>samples = 4645<br/>value = [931, 967, 705, 986, 60, 145, 6, 845]<br/>class = 3>, fillcolor="#feffff"] ;
1 [label=<size8 &le; 162.204<br/>gini = 0.769<br/>samples = 3722<br/>value = [916, 951, 701, 979, 60, 79, 0, 36]<br/>class = 3>, fillcolor="#fdfffe"] ;
0 -> 1 [labeldistance=2.5, labelangle=45, headlabel="True"] ;
2 [label=<trans_time7 &le; 1.206<br/>gini = 0.423<br/>samples = 1173<br/>value = [868, 183, 26, 13, 1, 75, 0, 7]<br/>class = 0>, fillcolor="#eda876"] ;
1 -> 2 ;
3 [label=<delivery_rate8 &le; 265.554<br/>gini = 0.195<br/>samples = 811<br/>value = [723, 81, 5, 2, 0, 0, 0, 0]<br/>class = 0>, fillcolor="#e89051"] ;
2 -> 3 ;
4 [label=<size8 &le; 102.949<br/>gini = 0.333<br/>samples = 409<br/>value = [325, 77, 5, 2, 0, 0, 0, 0]<br/>class = 0>, fillcolor="#eca16b"] ;
3 -> 4 ;
5 [label=<cwnd8 &le; 42.5<br/>gini = 0.178<br/>samples = 304<br/>value = [274, 30, 0, 0, 0, 0, 0, 0]<br/>class = 0>, fillcolor="#e88f4f"] ;
4 -> 5 ;
6 [label=<gini = 0.44<br/>samples = 55<br/>value = [37, 18, 0, 0, 0, 0, 0, 0]<br/>class = 0>, fillcolor="#f2be99"] ;
5 -> 6 ;
7 [label=<gini = 0.092<br/>samples = 249<br/>value = [237, 12, 0, 0, 0, 0, 0, 0]<br/>class = 0>, fillcolor="#e68743"] ;
5 -> 7 ;
8 [label=<gini = 0.561<br/>samples = 105<br/>value = [51, 47, 5, 2, 0, 0, 0, 0]<br/>class = 0>, fillcolor="#fdf6f1"] ;
4 -> 8 ;
9 [label=<gini = 0.02<br/>samples = 402<br/>value = [398, 4, 0, 0, 0, 0, 0, 0]<br/>class = 0>, fillcolor="#e5823b"] ;
3 -> 9 ;
10 [label=<gini = 0.713<br/>samples = 362<br/>value = [145, 102, 21, 11, 1, 75, 0, 7]<br/>class = 0>, fillcolor="#fbeade"] ;
2 -> 10 ;
11 [label=<trans_time7 &le; 1.203<br/>gini = 0.694<br/>samples = 2549<br/>value = [48, 768, 675, 966, 59, 4, 0, 29]<br/>class = 3>, fillcolor="#e9fcf6"] ;
1 -> 11 ;
12 [label=<cwnd8 &le; 91.0<br/>gini = 0.485<br/>samples = 778<br/>value = [44, 532, 157, 44, 1, 0, 0, 0]<br/>class = 1>, fillcolor="#deef87"] ;
11 -> 12 ;
13 [label=<gini = 0.555<br/>samples = 83<br/>value = [1, 21, 50, 11, 0, 0, 0, 0]<br/>class = 2>, fillcolor="#a9f3a2"] ;
12 -> 13 ;
14 [label=<size8 &le; 490.909<br/>gini = 0.43<br/>samples = 695<br/>value = [43, 511, 107, 33, 1, 0, 0, 0]<br/>class = 1>, fillcolor="#d9ed77"] ;
12 -> 14 ;
15 [label=<trans_time6 &le; 1.173<br/>gini = 0.374<br/>samples = 656<br/>value = [43, 509, 90, 14, 0, 0, 0, 0]<br/>class = 1>, fillcolor="#d6ec6c"] ;
14 -> 15 ;
16 [label=<size7 &le; 137.18<br/>gini = 0.292<br/>samples = 476<br/>value = [41, 397, 33, 5, 0, 0, 0, 0]<br/>class = 1>, fillcolor="#d2ea5d"] ;
15 -> 16 ;
17 [label=<gini = 0.506<br/>samples = 115<br/>value = [34, 73, 7, 1, 0, 0, 0, 0]<br/>class = 1>, fillcolor="#e5f2a0"] ;
16 -> 17 ;
18 [label=<size8 &le; 458.429<br/>gini = 0.189<br/>samples = 361<br/>value = [7, 324, 26, 4, 0, 0, 0, 0]<br/>class = 1>, fillcolor="#cee84f"] ;
16 -> 18 ;
19 [label=<delivery_rate2 &le; 5.857<br/>gini = 0.114<br/>samples = 319<br/>value = [7, 300, 10, 2, 0, 0, 0, 0]<br/>class = 1>, fillcolor="#cbe745"] ;
18 -> 19 ;
20 [label=<gini = 0.381<br/>samples = 34<br/>value = [6, 26, 2, 0, 0, 0, 0, 0]<br/>class = 1>, fillcolor="#d8ec72"] ;
19 -> 20 ;
21 [label=<gini = 0.075<br/>samples = 285<br/>value = [1, 274, 8, 2, 0, 0, 0, 0]<br/>class = 1>, fillcolor="#cae641"] ;
19 -> 21 ;
22 [label=<gini = 0.526<br/>samples = 42<br/>value = [0, 24, 16, 2, 0, 0, 0, 0]<br/>class = 1>, fillcolor="#eef7c2"] ;
18 -> 22 ;
23 [label=<gini = 0.51<br/>samples = 180<br/>value = [2, 112, 57, 9, 0, 0, 0, 0]<br/>class = 1>, fillcolor="#e6f3a6"] ;
15 -> 23 ;
24 [label=<gini = 0.569<br/>samples = 39<br/>value = [0, 2, 17, 19, 1, 0, 0, 0]<br/>class = 3>, fillcolor="#edfdf7"] ;
14 -> 24 ;
25 [label=<delivery_rate8 &le; 343.399<br/>gini = 0.624<br/>samples = 1771<br/>value = [4, 236, 518, 922, 58, 4, 0, 29]<br/>class = 3>, fillcolor="#bff7e4"] ;
11 -> 25 ;
26 [label=<size8 &le; 401.919<br/>gini = 0.523<br/>samples = 1369<br/>value = [2, 64, 367, 867, 53, 4, 0, 12]<br/>class = 3>, fillcolor="#9cf2d6"] ;
25 -> 26 ;
27 [label=<delivery_rate8 &le; 286.072<br/>gini = 0.576<br/>samples = 909<br/>value = [2, 63, 346, 476, 9, 4, 0, 9]<br/>class = 3>, fillcolor="#d1f9ec"] ;
26 -> 27 ;
28 [label=<delivery_rate1 &le; 46.989<br/>gini = 0.465<br/>samples = 542<br/>value = [1, 29, 119, 377, 8, 4, 0, 4]<br/>class = 3>, fillcolor="#86efcc"] ;
27 -> 28 ;
29 [label=<gini = 0.711<br/>samples = 53<br/>value = [1, 19, 20, 5, 1, 4, 0, 3]<br/>class = 2>, fillcolor="#fafef9"] ;
28 -> 29 ;
30 [label=<delivery_rate8 &le; 215.922<br/>gini = 0.38<br/>samples = 489<br/>value = [0, 10, 99, 372, 7, 0, 0, 1]<br/>class = 3>, fillcolor="#74edc5"] ;
28 -> 30 ;
31 [label=<size8 &le; 266.281<br/>gini = 0.195<br/>samples = 262<br/>value = [0, 2, 22, 234, 3, 0, 0, 1]<br/>class = 3>, fillcolor="#50e8b6"] ;
30 -> 31 ;
32 [label=<gini = 0.477<br/>samples = 62<br/>value = [0, 2, 18, 41, 0, 0, 0, 1]<br/>class = 3>, fillcolor="#98f1d4"] ;
31 -> 32 ;
33 [label=<gini = 0.068<br/>samples = 200<br/>value = [0, 0, 4, 193, 3, 0, 0, 0]<br/>class = 3>, fillcolor="#40e6af"] ;
31 -> 33 ;
34 [label=<size8 &le; 333.794<br/>gini = 0.514<br/>samples = 227<br/>value = [0, 8, 77, 138, 4, 0, 0, 0]<br/>class = 3>, fillcolor="#aef4dd"] ;
30 -> 34 ;
35 [label=<gini = 0.565<br/>samples = 103<br/>value = [0, 8, 57, 36, 2, 0, 0, 0]<br/>class = 2>, fillcolor="#c5f7c1"] ;
34 -> 35 ;
36 [label=<trans_time1 &le; 7.728<br/>gini = 0.297<br/>samples = 124<br/>value = [0, 0, 20, 102, 2, 0, 0, 0]<br/>class = 3>, fillcolor="#63eabe"] ;
34 -> 36 ;
37 [label=<trans_time7 &le; 1.402<br/>gini = 0.249<br/>samples = 119<br/>value = [0, 0, 15, 102, 2, 0, 0, 0]<br/>class = 3>, fillcolor="#59e9ba"] ;
36 -> 37 ;
38 [label=<gini = 0.483<br/>samples = 27<br/>value = [0, 0, 11, 16, 0, 0, 0, 0]<br/>class = 3>, fillcolor="#c1f7e5"] ;
37 -> 38 ;
39 [label=<trans_time7 &le; 3.105<br/>gini = 0.124<br/>samples = 92<br/>value = [0, 0, 4, 86, 2, 0, 0, 0]<br/>class = 3>, fillcolor="#46e7b2"] ;
37 -> 39 ;
40 [label=<gini = 0.085<br/>samples = 90<br/>value = [0, 0, 4, 86, 0, 0, 0, 0]<br/>class = 3>, fillcolor="#42e6b0"] ;
39 -> 40 ;
41 [label=<gini = 0.0<br/>samples = 2<br/>value = [0, 0, 0, 0, 2, 0, 0, 0]<br/>class = 4>, fillcolor="#399de5"] ;
39 -> 41 ;
42 [label=<gini = 0.0<br/>samples = 5<br/>value = [0, 0, 5, 0, 0, 0, 0, 0]<br/>class = 2>, fillcolor="#47e539"] ;
36 -> 42 ;
43 [label=<rtt6 &le; 0.249<br/>gini = 0.536<br/>samples = 367<br/>value = [1, 34, 227, 99, 1, 0, 0, 5]<br/>class = 2>, fillcolor="#a7f3a0"] ;
27 -> 43 ;
44 [label=<size5 &le; 392.637<br/>gini = 0.477<br/>samples = 320<br/>value = [1, 25, 219, 70, 0, 0, 0, 5]<br/>class = 2>, fillcolor="#91f089"] ;
43 -> 44 ;
45 [label=<gini = 0.639<br/>samples = 111<br/>value = [1, 14, 52, 39, 0, 0, 0, 5]<br/>class = 2>, fillcolor="#defadb"] ;
44 -> 45 ;
46 [label=<delivery_rate7 &le; 255.811<br/>gini = 0.337<br/>samples = 209<br/>value = [0, 11, 167, 31, 0, 0, 0, 0]<br/>class = 2>, fillcolor="#72eb68"] ;
44 -> 46 ;
47 [label=<gini = 0.512<br/>samples = 17<br/>value = [0, 2, 4, 11, 0, 0, 0, 0]<br/>class = 3>, fillcolor="#94f1d2"] ;
46 -> 47 ;
48 [label=<trans_time6 &le; 2.342<br/>gini = 0.266<br/>samples = 192<br/>value = [0, 9, 163, 20, 0, 0, 0, 0]<br/>class = 2>, fillcolor="#66e95a"] ;
46 -> 48 ;
49 [label=<min_rtt8 &le; 0.22<br/>gini = 0.202<br/>samples = 172<br/>value = [0, 8, 153, 11, 0, 0, 0, 0]<br/>class = 2>, fillcolor="#5de850"] ;
48 -> 49 ;
50 [label=<rtt1 &le; 0.113<br/>gini = 0.185<br/>samples = 170<br/>value = [0, 8, 153, 9, 0, 0, 0, 0]<br/>class = 2>, fillcolor="#5ae84e"] ;
49 -> 50 ;
51 [label=<gini = 0.571<br/>samples = 19<br/>value = [0, 5, 11, 3, 0, 0, 0, 0]<br/>class = 2>, fillcolor="#b0f4aa"] ;
50 -> 51 ;
52 [label=<rtt7 &le; 0.315<br/>gini = 0.114<br/>samples = 151<br/>value = [0, 3, 142, 6, 0, 0, 0, 0]<br/>class = 2>, fillcolor="#52e745"] ;
50 -> 52 ;
53 [label=<gini = 0.091<br/>samples = 148<br/>value = [0, 3, 141, 4, 0, 0, 0, 0]<br/>class = 2>, fillcolor="#50e643"] ;
52 -> 53 ;
54 [label=<gini = 0.444<br/>samples = 3<br/>value = [0, 0, 1, 2, 0, 0, 0, 0]<br/>class = 3>, fillcolor="#9cf2d6"] ;
52 -> 54 ;
55 [label=<gini = 0.0<br/>samples = 2<br/>value = [0, 0, 0, 2, 0, 0, 0, 0]<br/>class = 3>, fillcolor="#39e5ac"] ;
49 -> 55 ;
56 [label=<gini = 0.545<br/>samples = 20<br/>value = [0, 1, 10, 9, 0, 0, 0, 0]<br/>class = 2>, fillcolor="#eefded"] ;
48 -> 56 ;
57 [label=<gini = 0.553<br/>samples = 47<br/>value = [0, 9, 8, 29, 1, 0, 0, 0]<br/>class = 3>, fillcolor="#97f1d3"] ;
43 -> 57 ;
58 [label=<size8 &le; 660.353<br/>gini = 0.266<br/>samples = 460<br/>value = [0, 1, 21, 391, 44, 0, 0, 3]<br/>class = 3>, fillcolor="#5ae9ba"] ;
26 -> 58 ;
59 [label=<size6 &le; 227.911<br/>gini = 0.171<br/>samples = 416<br/>value = [0, 1, 21, 378, 14, 0, 0, 2]<br/>class = 3>, fillcolor="#4ce8b4"] ;
58 -> 59 ;
60 [label=<gini = 0.694<br/>samples = 11<br/>value = [0, 1, 0, 4, 4, 0, 0, 2]<br/>class = 3>, fillcolor="#ffffff"] ;
59 -> 60 ;
61 [label=<delivery_rate8 &le; 72.301<br/>gini = 0.144<br/>samples = 405<br/>value = [0, 0, 21, 374, 10, 0, 0, 0]<br/>class = 3>, fillcolor="#49e7b3"] ;
59 -> 61 ;
62 [label=<gini = 0.0<br/>samples = 2<br/>value = [0, 0, 0, 0, 2, 0, 0, 0]<br/>class = 4>, fillcolor="#399de5"] ;
61 -> 62 ;
63 [label=<in_flight4 &le; 33.0<br/>gini = 0.136<br/>samples = 403<br/>value = [0, 0, 21, 374, 8, 0, 0, 0]<br/>class = 3>, fillcolor="#48e7b2"] ;
61 -> 63 ;
64 [label=<trans_time1 &le; 0.338<br/>gini = 0.113<br/>samples = 389<br/>value = [0, 0, 16, 366, 7, 0, 0, 0]<br/>class = 3>, fillcolor="#45e7b1"] ;
63 -> 64 ;
65 [label=<gini = 0.48<br/>samples = 5<br/>value = [0, 0, 3, 2, 0, 0, 0, 0]<br/>class = 2>, fillcolor="#c2f6bd"] ;
64 -> 65 ;
66 [label=<gini = 0.1<br/>samples = 384<br/>value = [0, 0, 13, 364, 7, 0, 0, 0]<br/>class = 3>, fillcolor="#44e6b0"] ;
64 -> 66 ;
67 [label=<gini = 0.541<br/>samples = 14<br/>value = [0, 0, 5, 8, 1, 0, 0, 0]<br/>class = 3>, fillcolor="#bdf6e3"] ;
63 -> 67 ;
68 [label=<gini = 0.447<br/>samples = 44<br/>value = [0, 0, 0, 13, 30, 0, 0, 1]<br/>class = 4>, fillcolor="#92c9f1"] ;
58 -> 68 ;
69 [label=<size8 &le; 458.429<br/>gini = 0.655<br/>samples = 402<br/>value = [2, 172, 151, 55, 5, 0, 0, 17]<br/>class = 1>, fillcolor="#fafdee"] ;
25 -> 69 ;
70 [label=<delivery_rate8 &le; 405.562<br/>gini = 0.574<br/>samples = 306<br/>value = [2, 169, 104, 15, 0, 0, 0, 16]<br/>class = 1>, fillcolor="#edf7bf"] ;
69 -> 70 ;
71 [label=<gini = 0.559<br/>samples = 130<br/>value = [1, 39, 76, 12, 0, 0, 0, 2]<br/>class = 2>, fillcolor="#b4f4ae"] ;
70 -> 71 ;
72 [label=<trans_time7 &le; 2.127<br/>gini = 0.422<br/>samples = 176<br/>value = [1, 130, 28, 3, 0, 0, 0, 14]<br/>class = 1>, fillcolor="#d9ed77"] ;
70 -> 72 ;
73 [label=<in_flight5 &le; 26.5<br/>gini = 0.243<br/>samples = 144<br/>value = [0, 124, 18, 2, 0, 0, 0, 0]<br/>class = 1>, fillcolor="#d1e958"] ;
72 -> 73 ;
74 [label=<cwnd8 &le; 58.0<br/>gini = 0.198<br/>samples = 137<br/>value = [0, 122, 13, 2, 0, 0, 0, 0]<br/>class = 1>, fillcolor="#cfe851"] ;
73 -> 74 ;
75 [label=<gini = 0.5<br/>samples = 4<br/>value = [0, 0, 2, 2, 0, 0, 0, 0]<br/>class = 2>, fillcolor="#ffffff"] ;
74 -> 75 ;
76 [label=<trans_time4 &le; 10.788<br/>gini = 0.152<br/>samples = 133<br/>value = [0, 122, 11, 0, 0, 0, 0, 0]<br/>class = 1>, fillcolor="#cde74b"] ;
74 -> 76 ;
77 [label=<delivery_rate2 &le; 358.531<br/>gini = 0.128<br/>samples = 131<br/>value = [0, 122, 9, 0, 0, 0, 0, 0]<br/>class = 1>, fillcolor="#cce748"] ;
76 -> 77 ;
78 [label=<gini = 0.3<br/>samples = 49<br/>value = [0, 40, 9, 0, 0, 0, 0, 0]<br/>class = 1>, fillcolor="#d4eb66"] ;
77 -> 78 ;
79 [label=<gini = 0.0<br/>samples = 82<br/>value = [0, 82, 0, 0, 0, 0, 0, 0]<br/>class = 1>, fillcolor="#c8e539"] ;
77 -> 79 ;
80 [label=<gini = 0.0<br/>samples = 2<br/>value = [0, 0, 2, 0, 0, 0, 0, 0]<br/>class = 2>, fillcolor="#47e539"] ;
76 -> 80 ;
81 [label=<gini = 0.408<br/>samples = 7<br/>value = [0, 2, 5, 0, 0, 0, 0, 0]<br/>class = 2>, fillcolor="#91ef88"] ;
73 -> 81 ;
82 [label=<gini = 0.674<br/>samples = 32<br/>value = [1, 6, 10, 1, 0, 0, 0, 14]<br/>class = 7>, fillcolor="#fadbe5"] ;
72 -> 82 ;
83 [label=<gini = 0.583<br/>samples = 96<br/>value = [0, 3, 47, 40, 5, 0, 0, 1]<br/>class = 2>, fillcolor="#e8fce6"] ;
69 -> 83 ;
84 [label=<trans_time3 &le; 6.183<br/>gini = 0.226<br/>samples = 923<br/>value = [15, 16, 4, 7, 0, 66, 6, 809]<br/>class = 7>, fillcolor="#e85385"] ;
0 -> 84 [labeldistance=2.5, labelangle=-45, headlabel="False"] ;
85 [label=<delivery_rate6 &le; 4.837<br/>gini = 0.645<br/>samples = 173<br/>value = [8, 12, 3, 7, 0, 51, 4, 88]<br/>class = 7>, fillcolor="#f7c3d4"] ;
84 -> 85 ;
86 [label=<gini = 0.051<br/>samples = 38<br/>value = [0, 0, 0, 0, 0, 37, 0, 1]<br/>class = 5>, fillcolor="#5b3ee6"] ;
85 -> 86 ;
87 [label=<trans_time2 &le; 2.648<br/>gini = 0.558<br/>samples = 135<br/>value = [8, 12, 3, 7, 0, 14, 4, 87]<br/>class = 7>, fillcolor="#ef88aa"] ;
85 -> 87 ;
88 [label=<gini = 0.542<br/>samples = 12<br/>value = [4, 0, 1, 7, 0, 0, 0, 0]<br/>class = 3>, fillcolor="#b5f5e0"] ;
87 -> 88 ;
89 [label=<cwnd8 &le; 400.5<br/>gini = 0.475<br/>samples = 123<br/>value = [4, 12, 2, 0, 0, 14, 4, 87]<br/>class = 7>, fillcolor="#ee7aa1"] ;
87 -> 89 ;
90 [label=<size8 &le; 118.124<br/>gini = 0.388<br/>samples = 113<br/>value = [4, 4, 0, 0, 0, 14, 4, 87]<br/>class = 7>, fillcolor="#ec6d97"] ;
89 -> 90 ;
91 [label=<gini = 0.628<br/>samples = 33<br/>value = [3, 0, 0, 0, 0, 14, 2, 14]<br/>class = 5>, fillcolor="#ffffff"] ;
90 -> 91 ;
92 [label=<delivery_rate5 &le; 3.18<br/>gini = 0.164<br/>samples = 80<br/>value = [1, 4, 0, 0, 0, 0, 2, 73]<br/>class = 7>, fillcolor="#e74b7f"] ;
90 -> 92 ;
93 [label=<gini = 0.0<br/>samples = 2<br/>value = [0, 0, 0, 0, 0, 0, 2, 0]<br/>class = 6>, fillcolor="#d739e5"] ;
92 -> 93 ;
94 [label=<size4 &le; 20.226<br/>gini = 0.121<br/>samples = 78<br/>value = [1, 4, 0, 0, 0, 0, 0, 73]<br/>class = 7>, fillcolor="#e7467c"] ;
92 -> 94 ;
95 [label=<gini = 0.48<br/>samples = 5<br/>value = [0, 3, 0, 0, 0, 0, 0, 2]<br/>class = 1>, fillcolor="#edf6bd"] ;
94 -> 95 ;
96 [label=<gini = 0.054<br/>samples = 73<br/>value = [1, 1, 0, 0, 0, 0, 0, 71]<br/>class = 7>, fillcolor="#e63e76"] ;
94 -> 96 ;
97 [label=<gini = 0.32<br/>samples = 10<br/>value = [0, 8, 2, 0, 0, 0, 0, 0]<br/>class = 1>, fillcolor="#d6ec6a"] ;
89 -> 97 ;
98 [label=<gini = 0.075<br/>samples = 750<br/>value = [7, 4, 1, 0, 0, 15, 2, 721]<br/>class = 7>, fillcolor="#e64178"] ;
84 -> 98 ;
}
