digraph Tree {
node [shape=box, style="filled, rounded", color="black", fontname="helvetica"] ;
edge [fontname="helvetica"] ;
0 [label=<trans_time7 &le; 5.236<br/>gini = 0.809<br/>samples = 4788<br/>value = [320, 610, 1432, 921, 442, 22, 14, 2, 7, 5, 7, 5<br/>11, 6, 16, 8, 22, 29, 8, 901]<br/>class = 2>, fillcolor="#fbfce5"] ;
1 [label=<trans_time7 &le; 0.665<br/>gini = 0.762<br/>samples = 3834<br/>value = [309, 604, 1419, 914, 438, 22, 14, 2, 7, 3, 7, 5<br/>9, 5, 15, 6, 16, 18, 5, 16]<br/>class = 2>, fillcolor="#fafbdd"] ;
0 -> 1 [labeldistance=2.5, labelangle=45, headlabel="True"] ;
2 [label=<size8 &le; 57.105<br/>gini = 0.606<br/>samples = 697<br/>value = [254, 344, 92, 6, 0, 0, 0, 0, 0, 0, 1, 0, 0<br/>0, 0, 0, 0, 0, 0, 0]<br/>class = 1>, fillcolor="#faf0d7"] ;
1 -> 2 ;
3 [label=<delivery_rate8 &le; 215.173<br/>gini = 0.431<br/>samples = 295<br/>value = [211, 69, 15, 0, 0, 0, 0, 0, 0, 0, 0, 0, 0, 0<br/>0, 0, 0, 0, 0, 0]<br/>class = 0>, fillcolor="#efb083"] ;
2 -> 3 ;
4 [label=<gini = 0.534<br/>samples = 97<br/>value = [21, 61, 15, 0, 0, 0, 0, 0, 0, 0, 0, 0, 0, 0<br/>0, 0, 0, 0, 0, 0]<br/>class = 1>, fillcolor="#f1d897"] ;
3 -> 4 ;
5 [label=<gini = 0.078<br/>samples = 198<br/>value = [190, 8, 0, 0, 0, 0, 0, 0, 0, 0, 0, 0, 0, 0<br/>0, 0, 0, 0, 0, 0]<br/>class = 0>, fillcolor="#e68641"] ;
3 -> 5 ;
6 [label=<size8 &le; 261.003<br/>gini = 0.484<br/>samples = 402<br/>value = [43, 275, 77, 6, 0, 0, 0, 0, 0, 0, 1, 0, 0, 0<br/>0, 0, 0, 0, 0, 0]<br/>class = 1>, fillcolor="#efd186"] ;
2 -> 6 ;
7 [label=<delivery_rate8 &le; 88.103<br/>gini = 0.432<br/>samples = 363<br/>value = [43, 265, 53, 1, 0, 0, 0, 0, 0, 0, 1, 0, 0, 0<br/>0, 0, 0, 0, 0, 0]<br/>class = 1>, fillcolor="#edcc78"] ;
6 -> 7 ;
8 [label=<gini = 0.291<br/>samples = 17<br/>value = [0, 3, 14, 0, 0, 0, 0, 0, 0, 0, 0, 0, 0, 0<br/>0, 0, 0, 0, 0, 0]<br/>class = 2>, fillcolor="#e8eb63"] ;
7 -> 8 ;
9 [label=<size1 &le; 19.103<br/>gini = 0.398<br/>samples = 346<br/>value = [43, 262, 39, 1, 0, 0, 0, 0, 0, 0, 1, 0, 0, 0<br/>0, 0, 0, 0, 0, 0]<br/>class = 1>, fillcolor="#ecc970"] ;
7 -> 9 ;
10 [label=<gini = 0.469<br/>samples = 24<br/>value = [16, 7, 1, 0, 0, 0, 0, 0, 0, 0, 0, 0, 0, 0<br/>0, 0, 0, 0, 0, 0]<br/>class = 0>, fillcolor="#f1bc96"] ;
9 -> 10 ;
11 [label=<trans_time6 &le; 0.29<br/>gini = 0.352<br/>samples = 322<br/>value = [27, 255, 38, 1, 0, 0, 0, 0, 0, 0, 1, 0, 0, 0<br/>0, 0, 0, 0, 0, 0]<br/>class = 1>, fillcolor="#ebc668"] ;
9 -> 11 ;
12 [label=<gini = 0.549<br/>samples = 37<br/>value = [18, 17, 2, 0, 0, 0, 0, 0, 0, 0, 0, 0, 0, 0<br/>0, 0, 0, 0, 0, 0]<br/>class = 0>, fillcolor="#fef9f5"] ;
11 -> 12 ;
13 [label=<in_flight2 &le; 29.5<br/>gini = 0.286<br/>samples = 285<br/>value = [9, 238, 36, 1, 0, 0, 0, 0, 0, 0, 1, 0, 0, 0<br/>0, 0, 0, 0, 0, 0]<br/>class = 1>, fillcolor="#eac25e"] ;
11 -> 13 ;
14 [label=<cwnd5 &le; 567.5<br/>gini = 0.267<br/>samples = 280<br/>value = [5, 237, 36, 1, 0, 0, 0, 0, 0, 0, 1, 0, 0, 0<br/>0, 0, 0, 0, 0, 0]<br/>class = 1>, fillcolor="#eac15c"] ;
13 -> 14 ;
15 [label=<trans_time4 &le; 1.522<br/>gini = 0.252<br/>samples = 277<br/>value = [3, 237, 35, 1, 0, 0, 0, 0, 0, 0, 1, 0, 0, 0<br/>0, 0, 0, 0, 0, 0]<br/>class = 1>, fillcolor="#e9c05a"] ;
14 -> 15 ;
16 [label=<cwnd2 &le; 7.5<br/>gini = 0.219<br/>samples = 253<br/>value = [3, 222, 26, 1, 0, 0, 0, 0, 0, 0, 1, 0, 0, 0<br/>0, 0, 0, 0, 0, 0]<br/>class = 1>, fillcolor="#e9be54"] ;
15 -> 16 ;
17 [label=<gini = 0.0<br/>samples = 2<br/>value = [0, 0, 2, 0, 0, 0, 0, 0, 0, 0, 0, 0, 0, 0<br/>0, 0, 0, 0, 0, 0]<br/>class = 2>, fillcolor="#e2e539"] ;
16 -> 17 ;
18 [label=<delivery_rate8 &le; 128.535<br/>gini = 0.208<br/>samples = 251<br/>value = [3, 222, 24, 1, 0, 0, 0, 0, 0, 0, 1, 0, 0, 0<br/>0, 0, 0, 0, 0, 0]<br/>class = 1>, fillcolor="#e8be52"] ;
16 -> 18 ;
19 [label=<gini = 0.394<br/>samples = 37<br/>value = [0, 27, 10, 0, 0, 0, 0, 0, 0, 0, 0, 0, 0, 0<br/>0, 0, 0, 0, 0, 0]<br/>class = 1>, fillcolor="#efd082"] ;
18 -> 19 ;
20 [label=<in_flight0 &le; 34.5<br/>gini = 0.165<br/>samples = 214<br/>value = [3, 195, 14, 1, 0, 0, 0, 0, 0, 0, 1, 0, 0, 0<br/>0, 0, 0, 0, 0, 0]<br/>class = 1>, fillcolor="#e7bb4c"] ;
18 -> 20 ;
21 [label=<trans_time6 &le; 2.723<br/>gini = 0.157<br/>samples = 213<br/>value = [2, 195, 14, 1, 0, 0, 0, 0, 0, 0, 1, 0, 0, 0<br/>0, 0, 0, 0, 0, 0]<br/>class = 1>, fillcolor="#e7bb4b"] ;
20 -> 21 ;
22 [label=<trans_time2 &le; 0.14<br/>gini = 0.15<br/>samples = 212<br/>value = [2, 195, 13, 1, 0, 0, 0, 0, 0, 0, 1, 0, 0, 0<br/>0, 0, 0, 0, 0, 0]<br/>class = 1>, fillcolor="#e7ba4a"] ;
21 -> 22 ;
23 [label=<gini = 0.0<br/>samples = 1<br/>value = [0, 0, 1, 0, 0, 0, 0, 0, 0, 0, 0, 0, 0, 0<br/>0, 0, 0, 0, 0, 0]<br/>class = 2>, fillcolor="#e2e539"] ;
22 -> 23 ;
24 [label=<rtt8 &le; 0.184<br/>gini = 0.143<br/>samples = 211<br/>value = [2, 195, 12, 1, 0, 0, 0, 0, 0, 0, 1, 0, 0, 0<br/>0, 0, 0, 0, 0, 0]<br/>class = 1>, fillcolor="#e7ba49"] ;
22 -> 24 ;
25 [label=<gini = 0.047<br/>samples = 126<br/>value = [0, 123, 2, 1, 0, 0, 0, 0, 0, 0, 0, 0, 0, 0<br/>0, 0, 0, 0, 0, 0]<br/>class = 1>, fillcolor="#e6b63e"] ;
24 -> 25 ;
26 [label=<gini = 0.268<br/>samples = 85<br/>value = [2, 72, 10, 0, 0, 0, 0, 0, 0, 0, 1, 0, 0, 0<br/>0, 0, 0, 0, 0, 0]<br/>class = 1>, fillcolor="#eac15b"] ;
24 -> 26 ;
27 [label=<gini = 0.0<br/>samples = 1<br/>value = [0, 0, 1, 0, 0, 0, 0, 0, 0, 0, 0, 0, 0, 0<br/>0, 0, 0, 0, 0, 0]<br/>class = 2>, fillcolor="#e2e539"] ;
21 -> 27 ;
28 [label=<gini = 0.0<br/>samples = 1<br/>value = [1, 0, 0, 0, 0, 0, 0, 0, 0, 0, 0, 0, 0, 0<br/>0, 0, 0, 0, 0, 0]<br/>class = 0>, fillcolor="#e58139"] ;
20 -> 28 ;
29 [label=<gini = 0.469<br/>samples = 24<br/>value = [0, 15, 9, 0, 0, 0, 0, 0, 0, 0, 0, 0, 0, 0<br/>0, 0, 0, 0, 0, 0]<br/>class = 1>, fillcolor="#f5e1b0"] ;
15 -> 29 ;
30 [label=<gini = 0.444<br/>samples = 3<br/>value = [2, 0, 1, 0, 0, 0, 0, 0, 0, 0, 0, 0, 0, 0<br/>0, 0, 0, 0, 0, 0]<br/>class = 0>, fillcolor="#f2c09c"] ;
14 -> 30 ;
31 [label=<gini = 0.32<br/>samples = 5<br/>value = [4, 1, 0, 0, 0, 0, 0, 0, 0, 0, 0, 0, 0, 0<br/>0, 0, 0, 0, 0, 0]<br/>class = 0>, fillcolor="#eca06a"] ;
13 -> 31 ;
32 [label=<gini = 0.539<br/>samples = 39<br/>value = [0, 10, 24, 5, 0, 0, 0, 0, 0, 0, 0, 0, 0, 0<br/>0, 0, 0, 0, 0, 0]<br/>class = 2>, fillcolor="#f1f29f"] ;
6 -> 32 ;
33 [label=<trans_time7 &le; 1.378<br/>gini = 0.71<br/>samples = 3137<br/>value = [55, 260, 1327, 908, 438, 22, 14, 2, 7, 3, 6, 5<br/>9, 5, 15, 6, 16, 18, 5, 16]<br/>class = 2>, fillcolor="#fafada"] ;
1 -> 33 ;
34 [label=<rtt0 &le; 0.32<br/>gini = 0.537<br/>samples = 1378<br/>value = [35, 212, 887, 214, 28, 2, 0, 0, 0, 0, 0, 0, 0<br/>0, 0, 0, 0, 0, 0, 0]<br/>class = 2>, fillcolor="#eef08d"] ;
33 -> 34 ;
35 [label=<size8 &le; 404.67<br/>gini = 0.467<br/>samples = 1070<br/>value = [19, 90, 752, 188, 20, 1, 0, 0, 0, 0, 0, 0, 0<br/>0, 0, 0, 0, 0, 0, 0]<br/>class = 2>, fillcolor="#ecee80"] ;
34 -> 35 ;
36 [label=<trans_time6 &le; 1.614<br/>gini = 0.423<br/>samples = 855<br/>value = [19, 87, 635, 103, 11, 0, 0, 0, 0, 0, 0, 0, 0<br/>0, 0, 0, 0, 0, 0, 0]<br/>class = 2>, fillcolor="#eaed73"] ;
35 -> 36 ;
37 [label=<size8 &le; 162.204<br/>gini = 0.365<br/>samples = 716<br/>value = [15, 80, 562, 55, 4, 0, 0, 0, 0, 0, 0, 0, 0<br/>0, 0, 0, 0, 0, 0, 0]<br/>class = 2>, fillcolor="#e9eb69"] ;
36 -> 37 ;
38 [label=<gini = 0.55<br/>samples = 157<br/>value = [15, 45, 94, 3, 0, 0, 0, 0, 0, 0, 0, 0, 0, 0<br/>0, 0, 0, 0, 0, 0]<br/>class = 2>, fillcolor="#f2f4a8"] ;
37 -> 38 ;
39 [label=<trans_time2 &le; 4.151<br/>gini = 0.286<br/>samples = 559<br/>value = [0, 35, 468, 52, 4, 0, 0, 0, 0, 0, 0, 0, 0, 0<br/>0, 0, 0, 0, 0, 0]<br/>class = 2>, fillcolor="#e7ea5d"] ;
37 -> 39 ;
40 [label=<delivery_rate6 &le; 478.938<br/>gini = 0.252<br/>samples = 528<br/>value = [0, 34, 454, 36, 4, 0, 0, 0, 0, 0, 0, 0, 0, 0<br/>0, 0, 0, 0, 0, 0]<br/>class = 2>, fillcolor="#e6e957"] ;
39 -> 40 ;
41 [label=<size7 &le; 90.194<br/>gini = 0.237<br/>samples = 520<br/>value = [0, 29, 452, 35, 4, 0, 0, 0, 0, 0, 0, 0, 0, 0<br/>0, 0, 0, 0, 0, 0]<br/>class = 2>, fillcolor="#e6e955"] ;
40 -> 41 ;
42 [label=<gini = 0.444<br/>samples = 3<br/>value = [0, 0, 0, 1, 2, 0, 0, 0, 0, 0, 0, 0, 0, 0<br/>0, 0, 0, 0, 0, 0]<br/>class = 4>, fillcolor="#bdf29c"] ;
41 -> 42 ;
43 [label=<cwnd6 &le; 267.0<br/>gini = 0.228<br/>samples = 517<br/>value = [0, 29, 452, 34, 2, 0, 0, 0, 0, 0, 0, 0, 0, 0<br/>0, 0, 0, 0, 0, 0]<br/>class = 2>, fillcolor="#e6e854"] ;
41 -> 43 ;
44 [label=<size0 &le; 19.493<br/>gini = 0.22<br/>samples = 513<br/>value = [0, 26, 451, 34, 2, 0, 0, 0, 0, 0, 0, 0, 0, 0<br/>0, 0, 0, 0, 0, 0]<br/>class = 2>, fillcolor="#e6e853"] ;
43 -> 44 ;
45 [label=<gini = 0.0<br/>samples = 2<br/>value = [0, 0, 0, 2, 0, 0, 0, 0, 0, 0, 0, 0, 0, 0<br/>0, 0, 0, 0, 0, 0]<br/>class = 3>, fillcolor="#aee539"] ;
44 -> 45 ;
46 [label=<trans_time7 &le; 0.822<br/>gini = 0.215<br/>samples = 511<br/>value = [0, 26, 451, 32, 2, 0, 0, 0, 0, 0, 0, 0, 0, 0<br/>0, 0, 0, 0, 0, 0]<br/>class = 2>, fillcolor="#e6e852"] ;
44 -> 46 ;
47 [label=<gini = 0.337<br/>samples = 70<br/>value = [0, 15, 55, 0, 0, 0, 0, 0, 0, 0, 0, 0, 0, 0<br/>0, 0, 0, 0, 0, 0]<br/>class = 2>, fillcolor="#eaec6f"] ;
46 -> 47 ;
48 [label=<rtt4 &le; 0.1<br/>gini = 0.188<br/>samples = 441<br/>value = [0, 11, 396, 32, 2, 0, 0, 0, 0, 0, 0, 0, 0, 0<br/>0, 0, 0, 0, 0, 0]<br/>class = 2>, fillcolor="#e5e84f"] ;
46 -> 48 ;
49 [label=<gini = 0.48<br/>samples = 5<br/>value = [0, 3, 2, 0, 0, 0, 0, 0, 0, 0, 0, 0, 0, 0<br/>0, 0, 0, 0, 0, 0]<br/>class = 1>, fillcolor="#f6e6bd"] ;
48 -> 49 ;
50 [label=<trans_time3 &le; 1.561<br/>gini = 0.178<br/>samples = 436<br/>value = [0, 8, 394, 32, 2, 0, 0, 0, 0, 0, 0, 0, 0, 0<br/>0, 0, 0, 0, 0, 0]<br/>class = 2>, fillcolor="#e5e84e"] ;
48 -> 50 ;
51 [label=<trans_time2 &le; 2.868<br/>gini = 0.119<br/>samples = 319<br/>value = [0, 8, 299, 12, 0, 0, 0, 0, 0, 0, 0, 0, 0, 0<br/>0, 0, 0, 0, 0, 0]<br/>class = 2>, fillcolor="#e4e746"] ;
50 -> 51 ;
52 [label=<size4 &le; 637.86<br/>gini = 0.109<br/>samples = 317<br/>value = [0, 8, 299, 10, 0, 0, 0, 0, 0, 0, 0, 0, 0, 0<br/>0, 0, 0, 0, 0, 0]<br/>class = 2>, fillcolor="#e4e745"] ;
51 -> 52 ;
53 [label=<gini = 0.084<br/>samples = 301<br/>value = [0, 8, 288, 5, 0, 0, 0, 0, 0, 0, 0, 0, 0, 0<br/>0, 0, 0, 0, 0, 0]<br/>class = 2>, fillcolor="#e3e642"] ;
52 -> 53 ;
54 [label=<gini = 0.43<br/>samples = 16<br/>value = [0, 0, 11, 5, 0, 0, 0, 0, 0, 0, 0, 0, 0, 0<br/>0, 0, 0, 0, 0, 0]<br/>class = 2>, fillcolor="#eff193"] ;
52 -> 54 ;
55 [label=<gini = 0.0<br/>samples = 2<br/>value = [0, 0, 0, 2, 0, 0, 0, 0, 0, 0, 0, 0, 0, 0<br/>0, 0, 0, 0, 0, 0]<br/>class = 3>, fillcolor="#aee539"] ;
51 -> 55 ;
56 [label=<delivery_rate8 &le; 281.895<br/>gini = 0.311<br/>samples = 117<br/>value = [0, 0, 95, 20, 2, 0, 0, 0, 0, 0, 0, 0, 0, 0<br/>0, 0, 0, 0, 0, 0]<br/>class = 2>, fillcolor="#e9eb66"] ;
50 -> 56 ;
57 [label=<gini = 0.547<br/>samples = 17<br/>value = [0, 0, 7, 9, 1, 0, 0, 0, 0, 0, 0, 0, 0, 0<br/>0, 0, 0, 0, 0, 0]<br/>class = 3>, fillcolor="#effad7"] ;
56 -> 57 ;
58 [label=<size1 &le; 333.736<br/>gini = 0.213<br/>samples = 100<br/>value = [0, 0, 88, 11, 1, 0, 0, 0, 0, 0, 0, 0, 0, 0<br/>0, 0, 0, 0, 0, 0]<br/>class = 2>, fillcolor="#e6e954"] ;
56 -> 58 ;
59 [label=<gini = 0.469<br/>samples = 24<br/>value = [0, 0, 16, 7, 1, 0, 0, 0, 0, 0, 0, 0, 0, 0<br/>0, 0, 0, 0, 0, 0]<br/>class = 2>, fillcolor="#f0f196"] ;
58 -> 59 ;
60 [label=<gini = 0.1<br/>samples = 76<br/>value = [0, 0, 72, 4, 0, 0, 0, 0, 0, 0, 0, 0, 0, 0<br/>0, 0, 0, 0, 0, 0]<br/>class = 2>, fillcolor="#e4e644"] ;
58 -> 60 ;
61 [label=<gini = 0.375<br/>samples = 4<br/>value = [0, 3, 1, 0, 0, 0, 0, 0, 0, 0, 0, 0, 0, 0<br/>0, 0, 0, 0, 0, 0]<br/>class = 1>, fillcolor="#eecd7b"] ;
43 -> 61 ;
62 [label=<gini = 0.531<br/>samples = 8<br/>value = [0, 5, 2, 1, 0, 0, 0, 0, 0, 0, 0, 0, 0, 0<br/>0, 0, 0, 0, 0, 0]<br/>class = 1>, fillcolor="#f2da9c"] ;
40 -> 62 ;
63 [label=<gini = 0.529<br/>samples = 31<br/>value = [0, 1, 14, 16, 0, 0, 0, 0, 0, 0, 0, 0, 0, 0<br/>0, 0, 0, 0, 0, 0]<br/>class = 3>, fillcolor="#f5fce8"] ;
39 -> 63 ;
64 [label=<gini = 0.599<br/>samples = 139<br/>value = [4, 7, 73, 48, 7, 0, 0, 0, 0, 0, 0, 0, 0, 0<br/>0, 0, 0, 0, 0, 0]<br/>class = 2>, fillcolor="#f7f8c9"] ;
36 -> 64 ;
65 [label=<delivery_rate8 &le; 393.468<br/>gini = 0.546<br/>samples = 215<br/>value = [0, 3, 117, 85, 9, 1, 0, 0, 0, 0, 0, 0, 0, 0<br/>0, 0, 0, 0, 0, 0]<br/>class = 2>, fillcolor="#f8f9ce"] ;
35 -> 65 ;
66 [label=<gini = 0.346<br/>samples = 79<br/>value = [0, 0, 8, 63, 7, 1, 0, 0, 0, 0, 0, 0, 0, 0<br/>0, 0, 0, 0, 0, 0]<br/>class = 3>, fillcolor="#c0eb66"] ;
65 -> 66 ;
67 [label=<delivery_rate4 &le; 325.355<br/>gini = 0.331<br/>samples = 136<br/>value = [0, 3, 109, 22, 2, 0, 0, 0, 0, 0, 0, 0, 0, 0<br/>0, 0, 0, 0, 0, 0]<br/>class = 2>, fillcolor="#e9eb68"] ;
65 -> 67 ;
68 [label=<gini = 0.616<br/>samples = 23<br/>value = [0, 3, 7, 12, 1, 0, 0, 0, 0, 0, 0, 0, 0, 0<br/>0, 0, 0, 0, 0, 0]<br/>class = 3>, fillcolor="#e6f7c1"] ;
67 -> 68 ;
69 [label=<rtt4 &le; 0.103<br/>gini = 0.177<br/>samples = 113<br/>value = [0, 0, 102, 10, 1, 0, 0, 0, 0, 0, 0, 0, 0, 0<br/>0, 0, 0, 0, 0, 0]<br/>class = 2>, fillcolor="#e5e84e"] ;
67 -> 69 ;
70 [label=<gini = 0.5<br/>samples = 6<br/>value = [0, 0, 1, 4, 1, 0, 0, 0, 0, 0, 0, 0, 0, 0<br/>0, 0, 0, 0, 0, 0]<br/>class = 3>, fillcolor="#ceef88"] ;
69 -> 70 ;
71 [label=<trans_time7 &le; 1.336<br/>gini = 0.106<br/>samples = 107<br/>value = [0, 0, 101, 6, 0, 0, 0, 0, 0, 0, 0, 0, 0, 0<br/>0, 0, 0, 0, 0, 0]<br/>class = 2>, fillcolor="#e4e745"] ;
69 -> 71 ;
72 [label=<gini = 0.057<br/>samples = 103<br/>value = [0, 0, 100, 3, 0, 0, 0, 0, 0, 0, 0, 0, 0, 0<br/>0, 0, 0, 0, 0, 0]<br/>class = 2>, fillcolor="#e3e63f"] ;
71 -> 72 ;
73 [label=<gini = 0.375<br/>samples = 4<br/>value = [0, 0, 1, 3, 0, 0, 0, 0, 0, 0, 0, 0, 0, 0<br/>0, 0, 0, 0, 0, 0]<br/>class = 3>, fillcolor="#c9ee7b"] ;
71 -> 73 ;
74 [label=<gini = 0.64<br/>samples = 308<br/>value = [16, 122, 135, 26, 8, 1, 0, 0, 0, 0, 0, 0, 0<br/>0, 0, 0, 0, 0, 0, 0]<br/>class = 2>, fillcolor="#fdfdf1"] ;
34 -> 74 ;
75 [label=<size8 &le; 230.805<br/>gini = 0.726<br/>samples = 1759<br/>value = [20, 48, 440, 694, 410, 20, 14, 2, 7, 3, 6, 5<br/>9, 5, 15, 6, 16, 18, 5, 16]<br/>class = 3>, fillcolor="#effad9"] ;
33 -> 75 ;
76 [label=<trans_time5 &le; 2.716<br/>gini = 0.736<br/>samples = 396<br/>value = [20, 37, 187, 61, 0, 0, 0, 0, 5, 1, 6, 5, 7<br/>5, 14, 2, 14, 14, 5, 13]<br/>class = 2>, fillcolor="#f4f5b5"] ;
75 -> 76 ;
77 [label=<delivery_rate6 &le; 427.522<br/>gini = 0.493<br/>samples = 230<br/>value = [3, 26, 155, 46, 0, 0, 0, 0, 0, 0, 0, 0, 0, 0<br/>0, 0, 0, 0, 0, 0]<br/>class = 2>, fillcolor="#eef08a"] ;
76 -> 77 ;
78 [label=<delivery_rate6 &le; 25.299<br/>gini = 0.454<br/>samples = 219<br/>value = [0, 19, 154, 46, 0, 0, 0, 0, 0, 0, 0, 0, 0, 0<br/>0, 0, 0, 0, 0, 0]<br/>class = 2>, fillcolor="#edef83"] ;
77 -> 78 ;
79 [label=<gini = 0.528<br/>samples = 28<br/>value = [0, 1, 12, 15, 0, 0, 0, 0, 0, 0, 0, 0, 0, 0<br/>0, 0, 0, 0, 0, 0]<br/>class = 3>, fillcolor="#f0fada"] ;
78 -> 79 ;
80 [label=<size1 &le; 177.841<br/>gini = 0.412<br/>samples = 191<br/>value = [0, 18, 142, 31, 0, 0, 0, 0, 0, 0, 0, 0, 0, 0<br/>0, 0, 0, 0, 0, 0]<br/>class = 2>, fillcolor="#ebed76"] ;
78 -> 80 ;
81 [label=<trans_time1 &le; 4.084<br/>gini = 0.344<br/>samples = 153<br/>value = [0, 16, 122, 15, 0, 0, 0, 0, 0, 0, 0, 0, 0, 0<br/>0, 0, 0, 0, 0, 0]<br/>class = 2>, fillcolor="#e9eb66"] ;
80 -> 81 ;
82 [label=<delivery_rate8 &le; 358.008<br/>gini = 0.264<br/>samples = 121<br/>value = [0, 7, 103, 11, 0, 0, 0, 0, 0, 0, 0, 0, 0, 0<br/>0, 0, 0, 0, 0, 0]<br/>class = 2>, fillcolor="#e7e959"] ;
81 -> 82 ;
83 [label=<min_rtt5 &le; 0.079<br/>gini = 0.242<br/>samples = 118<br/>value = [0, 5, 102, 11, 0, 0, 0, 0, 0, 0, 0, 0, 0, 0<br/>0, 0, 0, 0, 0, 0]<br/>class = 2>, fillcolor="#e6e957"] ;
82 -> 83 ;
84 [label=<gini = 0.64<br/>samples = 5<br/>value = [0, 2, 2, 1, 0, 0, 0, 0, 0, 0, 0, 0, 0, 0<br/>0, 0, 0, 0, 0, 0]<br/>class = 1>, fillcolor="#ffffff"] ;
83 -> 84 ;
85 [label=<cwnd6 &le; 33.0<br/>gini = 0.208<br/>samples = 113<br/>value = [0, 3, 100, 10, 0, 0, 0, 0, 0, 0, 0, 0, 0, 0<br/>0, 0, 0, 0, 0, 0]<br/>class = 2>, fillcolor="#e6e852"] ;
83 -> 85 ;
86 [label=<gini = 0.444<br/>samples = 3<br/>value = [0, 0, 1, 2, 0, 0, 0, 0, 0, 0, 0, 0, 0, 0<br/>0, 0, 0, 0, 0, 0]<br/>class = 3>, fillcolor="#d6f29c"] ;
85 -> 86 ;
87 [label=<size3 &le; 15.583<br/>gini = 0.184<br/>samples = 110<br/>value = [0, 3, 99, 8, 0, 0, 0, 0, 0, 0, 0, 0, 0, 0<br/>0, 0, 0, 0, 0, 0]<br/>class = 2>, fillcolor="#e5e84e"] ;
85 -> 87 ;
88 [label=<gini = 0.64<br/>samples = 5<br/>value = [0, 1, 2, 2, 0, 0, 0, 0, 0, 0, 0, 0, 0, 0<br/>0, 0, 0, 0, 0, 0]<br/>class = 2>, fillcolor="#ffffff"] ;
87 -> 88 ;
89 [label=<rtt6 &le; 0.102<br/>gini = 0.143<br/>samples = 105<br/>value = [0, 2, 97, 6, 0, 0, 0, 0, 0, 0, 0, 0, 0, 0<br/>0, 0, 0, 0, 0, 0]<br/>class = 2>, fillcolor="#e4e749"] ;
87 -> 89 ;
90 [label=<gini = 0.0<br/>samples = 1<br/>value = [0, 0, 0, 1, 0, 0, 0, 0, 0, 0, 0, 0, 0, 0<br/>0, 0, 0, 0, 0, 0]<br/>class = 3>, fillcolor="#aee539"] ;
89 -> 90 ;
91 [label=<size8 &le; 227.125<br/>gini = 0.127<br/>samples = 104<br/>value = [0, 2, 97, 5, 0, 0, 0, 0, 0, 0, 0, 0, 0, 0<br/>0, 0, 0, 0, 0, 0]<br/>class = 2>, fillcolor="#e4e747"] ;
89 -> 91 ;
92 [label=<gini = 0.097<br/>samples = 99<br/>value = [0, 2, 94, 3, 0, 0, 0, 0, 0, 0, 0, 0, 0, 0<br/>0, 0, 0, 0, 0, 0]<br/>class = 2>, fillcolor="#e4e643"] ;
91 -> 92 ;
93 [label=<gini = 0.48<br/>samples = 5<br/>value = [0, 0, 3, 2, 0, 0, 0, 0, 0, 0, 0, 0, 0, 0<br/>0, 0, 0, 0, 0, 0]<br/>class = 2>, fillcolor="#f5f6bd"] ;
91 -> 93 ;
94 [label=<gini = 0.444<br/>samples = 3<br/>value = [0, 2, 1, 0, 0, 0, 0, 0, 0, 0, 0, 0, 0, 0<br/>0, 0, 0, 0, 0, 0]<br/>class = 1>, fillcolor="#f2da9c"] ;
82 -> 94 ;
95 [label=<gini = 0.553<br/>samples = 32<br/>value = [0, 9, 19, 4, 0, 0, 0, 0, 0, 0, 0, 0, 0, 0<br/>0, 0, 0, 0, 0, 0]<br/>class = 2>, fillcolor="#f2f4a9"] ;
81 -> 95 ;
96 [label=<gini = 0.543<br/>samples = 38<br/>value = [0, 2, 20, 16, 0, 0, 0, 0, 0, 0, 0, 0, 0, 0<br/>0, 0, 0, 0, 0, 0]<br/>class = 2>, fillcolor="#fafadb"] ;
80 -> 96 ;
97 [label=<gini = 0.512<br/>samples = 11<br/>value = [3, 7, 1, 0, 0, 0, 0, 0, 0, 0, 0, 0, 0, 0<br/>0, 0, 0, 0, 0, 0]<br/>class = 1>, fillcolor="#f2da9c"] ;
77 -> 97 ;
98 [label=<gini = 0.905<br/>samples = 166<br/>value = [17, 11, 32, 15, 0, 0, 0, 0, 5, 1, 6, 5, 7, 5<br/>14, 2, 14, 14, 5, 13]<br/>class = 2>, fillcolor="#fcfceb"] ;
76 -> 98 ;
99 [label=<delivery_rate8 &le; 228.385<br/>gini = 0.659<br/>samples = 1363<br/>value = [0, 11, 253, 633, 410, 20, 14, 2, 2, 2, 0, 0, 2<br/>0, 1, 4, 2, 4, 0, 3]<br/>class = 3>, fillcolor="#ecf9d1"] ;
75 -> 99 ;
100 [label=<size8 &le; 365.288<br/>gini = 0.583<br/>samples = 385<br/>value = [0, 0, 15, 124, 214, 17, 13, 0, 0, 0, 0, 0, 0<br/>0, 0, 0, 0, 0, 0, 2]<br/>class = 4>, fillcolor="#d1f6bb"] ;
99 -> 100 ;
101 [label=<gini = 0.558<br/>samples = 168<br/>value = [0, 0, 14, 95, 57, 0, 0, 0, 0, 0, 0, 0, 0, 0<br/>0, 0, 0, 0, 0, 2]<br/>class = 3>, fillcolor="#e3f6bb"] ;
100 -> 101 ;
102 [label=<size3 &le; 121.831<br/>gini = 0.449<br/>samples = 217<br/>value = [0, 0, 1, 29, 157, 17, 13, 0, 0, 0, 0, 0, 0<br/>0, 0, 0, 0, 0, 0, 0]<br/>class = 4>, fillcolor="#a5ed78"] ;
100 -> 102 ;
103 [label=<gini = 0.676<br/>samples = 15<br/>value = [0, 0, 0, 4, 2, 2, 7, 0, 0, 0, 0, 0, 0, 0<br/>0, 0, 0, 0, 0, 0]<br/>class = 6>, fillcolor="#c9f8d3"] ;
102 -> 103 ;
104 [label=<trans_time7 &le; 3.83<br/>gini = 0.389<br/>samples = 202<br/>value = [0, 0, 1, 25, 155, 15, 6, 0, 0, 0, 0, 0, 0, 0<br/>0, 0, 0, 0, 0, 0]<br/>class = 4>, fillcolor="#9eec6e"] ;
102 -> 104 ;
105 [label=<trans_time6 &le; 1.491<br/>gini = 0.351<br/>samples = 194<br/>value = [0, 0, 1, 25, 154, 8, 6, 0, 0, 0, 0, 0, 0, 0<br/>0, 0, 0, 0, 0, 0]<br/>class = 4>, fillcolor="#9aeb68"] ;
104 -> 105 ;
106 [label=<gini = 0.542<br/>samples = 37<br/>value = [0, 0, 1, 15, 20, 1, 0, 0, 0, 0, 0, 0, 0, 0<br/>0, 0, 0, 0, 0, 0]<br/>class = 4>, fillcolor="#e1f9d2"] ;
105 -> 106 ;
107 [label=<in_flight8 &le; 42.5<br/>gini = 0.264<br/>samples = 157<br/>value = [0, 0, 0, 10, 134, 7, 6, 0, 0, 0, 0, 0, 0, 0<br/>0, 0, 0, 0, 0, 0]<br/>class = 4>, fillcolor="#90e958"] ;
105 -> 107 ;
108 [label=<size8 &le; 494.283<br/>gini = 0.193<br/>samples = 144<br/>value = [0, 0, 0, 2, 129, 7, 6, 0, 0, 0, 0, 0, 0, 0<br/>0, 0, 0, 0, 0, 0]<br/>class = 4>, fillcolor="#89e84f"] ;
107 -> 108 ;
109 [label=<gini = 0.088<br/>samples = 131<br/>value = [0, 0, 0, 2, 125, 4, 0, 0, 0, 0, 0, 0, 0, 0<br/>0, 0, 0, 0, 0, 0]<br/>class = 4>, fillcolor="#81e642"] ;
108 -> 109 ;
110 [label=<gini = 0.639<br/>samples = 13<br/>value = [0, 0, 0, 0, 4, 3, 6, 0, 0, 0, 0, 0, 0, 0<br/>0, 0, 0, 0, 0, 0]<br/>class = 6>, fillcolor="#d3f9db"] ;
108 -> 110 ;
111 [label=<gini = 0.473<br/>samples = 13<br/>value = [0, 0, 0, 8, 5, 0, 0, 0, 0, 0, 0, 0, 0, 0<br/>0, 0, 0, 0, 0, 0]<br/>class = 3>, fillcolor="#e1f5b5"] ;
107 -> 111 ;
112 [label=<gini = 0.219<br/>samples = 8<br/>value = [0, 0, 0, 0, 1, 7, 0, 0, 0, 0, 0, 0, 0, 0<br/>0, 0, 0, 0, 0, 0]<br/>class = 5>, fillcolor="#61e955"] ;
104 -> 112 ;
113 [label=<size8 &le; 489.999<br/>gini = 0.63<br/>samples = 978<br/>value = [0, 11, 238, 509, 196, 3, 1, 2, 2, 2, 0, 0, 2<br/>0, 1, 4, 2, 4, 0, 1]<br/>class = 3>, fillcolor="#e1f5b6"] ;
99 -> 113 ;
114 [label=<delivery_rate8 &le; 332.805<br/>gini = 0.601<br/>samples = 868<br/>value = [0, 11, 230, 482, 124, 1, 0, 2, 2, 2, 0, 0, 2<br/>0, 1, 4, 2, 4, 0, 1]<br/>class = 3>, fillcolor="#dff5b1"] ;
113 -> 114 ;
115 [label=<trans_time6 &le; 1.837<br/>gini = 0.546<br/>samples = 611<br/>value = [0, 4, 106, 381, 115, 0, 0, 0, 2, 0, 0, 0, 0<br/>0, 0, 0, 2, 1, 0, 0]<br/>class = 3>, fillcolor="#d4f195"] ;
114 -> 115 ;
116 [label=<size8 &le; 334.505<br/>gini = 0.474<br/>samples = 396<br/>value = [0, 4, 86, 272, 34, 0, 0, 0, 0, 0, 0, 0, 0, 0<br/>0, 0, 0, 0, 0, 0]<br/>class = 3>, fillcolor="#ceef88"] ;
115 -> 116 ;
117 [label=<gini = 0.53<br/>samples = 75<br/>value = [0, 2, 43, 28, 2, 0, 0, 0, 0, 0, 0, 0, 0, 0<br/>0, 0, 0, 0, 0, 0]<br/>class = 2>, fillcolor="#f6f7c0"] ;
116 -> 117 ;
118 [label=<in_flight7 &le; 15.5<br/>gini = 0.394<br/>samples = 321<br/>value = [0, 2, 43, 244, 32, 0, 0, 0, 0, 0, 0, 0, 0, 0<br/>0, 0, 0, 0, 0, 0]<br/>class = 3>, fillcolor="#c4ec70"] ;
116 -> 118 ;
119 [label=<size2 &le; 605.754<br/>gini = 0.298<br/>samples = 263<br/>value = [0, 2, 28, 218, 15, 0, 0, 0, 0, 0, 0, 0, 0, 0<br/>0, 0, 0, 0, 0, 0]<br/>class = 3>, fillcolor="#beea5f"] ;
118 -> 119 ;
120 [label=<in_flight0 &le; 47.5<br/>gini = 0.252<br/>samples = 250<br/>value = [0, 2, 18, 215, 15, 0, 0, 0, 0, 0, 0, 0, 0, 0<br/>0, 0, 0, 0, 0, 0]<br/>class = 3>, fillcolor="#bae957"] ;
119 -> 120 ;
121 [label=<in_flight3 &le; 36.0<br/>gini = 0.229<br/>samples = 246<br/>value = [0, 2, 14, 215, 15, 0, 0, 0, 0, 0, 0, 0, 0, 0<br/>0, 0, 0, 0, 0, 0]<br/>class = 3>, fillcolor="#b9e854"] ;
120 -> 121 ;
122 [label=<rtt8 &le; 0.516<br/>gini = 0.206<br/>samples = 241<br/>value = [0, 2, 10, 214, 15, 0, 0, 0, 0, 0, 0, 0, 0, 0<br/>0, 0, 0, 0, 0, 0]<br/>class = 3>, fillcolor="#b8e851"] ;
121 -> 122 ;
123 [label=<trans_time0 &le; 14.975<br/>gini = 0.187<br/>samples = 238<br/>value = [0, 2, 7, 214, 15, 0, 0, 0, 0, 0, 0, 0, 0, 0<br/>0, 0, 0, 0, 0, 0]<br/>class = 3>, fillcolor="#b7e84e"] ;
122 -> 123 ;
124 [label=<cwnd8 &le; 443.5<br/>gini = 0.167<br/>samples = 235<br/>value = [0, 2, 7, 214, 12, 0, 0, 0, 0, 0, 0, 0, 0, 0<br/>0, 0, 0, 0, 0, 0]<br/>class = 3>, fillcolor="#b6e74c"] ;
123 -> 124 ;
125 [label=<delivery_rate6 &le; 124.649<br/>gini = 0.153<br/>samples = 233<br/>value = [0, 0, 7, 214, 12, 0, 0, 0, 0, 0, 0, 0, 0, 0<br/>0, 0, 0, 0, 0, 0]<br/>class = 3>, fillcolor="#b5e74a"] ;
124 -> 125 ;
126 [label=<gini = 0.444<br/>samples = 3<br/>value = [0, 0, 0, 1, 2, 0, 0, 0, 0, 0, 0, 0, 0, 0<br/>0, 0, 0, 0, 0, 0]<br/>class = 4>, fillcolor="#bdf29c"] ;
125 -> 126 ;
127 [label=<in_flight1 &le; 30.5<br/>gini = 0.14<br/>samples = 230<br/>value = [0, 0, 7, 213, 10, 0, 0, 0, 0, 0, 0, 0, 0, 0<br/>0, 0, 0, 0, 0, 0]<br/>class = 3>, fillcolor="#b4e748"] ;
125 -> 127 ;
128 [label=<delivery_rate8 &le; 272.988<br/>gini = 0.114<br/>samples = 217<br/>value = [0, 0, 3, 204, 10, 0, 0, 0, 0, 0, 0, 0, 0, 0<br/>0, 0, 0, 0, 0, 0]<br/>class = 3>, fillcolor="#b3e745"] ;
127 -> 128 ;
129 [label=<gini = 0.308<br/>samples = 42<br/>value = [0, 0, 0, 34, 8, 0, 0, 0, 0, 0, 0, 0, 0, 0<br/>0, 0, 0, 0, 0, 0]<br/>class = 3>, fillcolor="#c1eb68"] ;
128 -> 129 ;
130 [label=<gini = 0.056<br/>samples = 175<br/>value = [0, 0, 3, 170, 2, 0, 0, 0, 0, 0, 0, 0, 0, 0<br/>0, 0, 0, 0, 0, 0]<br/>class = 3>, fillcolor="#b0e63f"] ;
128 -> 130 ;
131 [label=<gini = 0.426<br/>samples = 13<br/>value = [0, 0, 4, 9, 0, 0, 0, 0, 0, 0, 0, 0, 0, 0<br/>0, 0, 0, 0, 0, 0]<br/>class = 3>, fillcolor="#d2f191"] ;
127 -> 131 ;
132 [label=<gini = 0.0<br/>samples = 2<br/>value = [0, 2, 0, 0, 0, 0, 0, 0, 0, 0, 0, 0, 0, 0<br/>0, 0, 0, 0, 0, 0]<br/>class = 1>, fillcolor="#e5b439"] ;
124 -> 132 ;
133 [label=<gini = 0.0<br/>samples = 3<br/>value = [0, 0, 0, 0, 3, 0, 0, 0, 0, 0, 0, 0, 0, 0<br/>0, 0, 0, 0, 0, 0]<br/>class = 4>, fillcolor="#7be539"] ;
123 -> 133 ;
134 [label=<gini = 0.0<br/>samples = 3<br/>value = [0, 0, 3, 0, 0, 0, 0, 0, 0, 0, 0, 0, 0, 0<br/>0, 0, 0, 0, 0, 0]<br/>class = 2>, fillcolor="#e2e539"] ;
122 -> 134 ;
135 [label=<gini = 0.32<br/>samples = 5<br/>value = [0, 0, 4, 1, 0, 0, 0, 0, 0, 0, 0, 0, 0, 0<br/>0, 0, 0, 0, 0, 0]<br/>class = 2>, fillcolor="#e9ec6a"] ;
121 -> 135 ;
136 [label=<gini = 0.0<br/>samples = 4<br/>value = [0, 0, 4, 0, 0, 0, 0, 0, 0, 0, 0, 0, 0, 0<br/>0, 0, 0, 0, 0, 0]<br/>class = 2>, fillcolor="#e2e539"] ;
120 -> 136 ;
137 [label=<gini = 0.355<br/>samples = 13<br/>value = [0, 0, 10, 3, 0, 0, 0, 0, 0, 0, 0, 0, 0, 0<br/>0, 0, 0, 0, 0, 0]<br/>class = 2>, fillcolor="#ebed74"] ;
119 -> 137 ;
138 [label=<gini = 0.646<br/>samples = 58<br/>value = [0, 0, 15, 26, 17, 0, 0, 0, 0, 0, 0, 0, 0, 0<br/>0, 0, 0, 0, 0, 0]<br/>class = 3>, fillcolor="#edf9d4"] ;
118 -> 138 ;
139 [label=<gini = 0.592<br/>samples = 215<br/>value = [0, 0, 20, 109, 81, 0, 0, 0, 2, 0, 0, 0, 0, 0<br/>0, 0, 2, 1, 0, 0]<br/>class = 3>, fillcolor="#eefad6"] ;
115 -> 139 ;
140 [label=<gini = 0.61<br/>samples = 257<br/>value = [0, 7, 124, 101, 9, 1, 0, 2, 0, 2, 0, 0, 2, 0<br/>1, 4, 0, 3, 0, 1]<br/>class = 2>, fillcolor="#fbfbe2"] ;
114 -> 140 ;
141 [label=<gini = 0.506<br/>samples = 110<br/>value = [0, 0, 8, 27, 72, 2, 1, 0, 0, 0, 0, 0, 0, 0<br/>0, 0, 0, 0, 0, 0]<br/>class = 4>, fillcolor="#b7f194"] ;
113 -> 141 ;
142 [label=<trans_time0 &le; 5.108<br/>gini = 0.139<br/>samples = 954<br/>value = [11, 6, 13, 7, 4, 0, 0, 0, 0, 2, 0, 0, 2, 1<br/>1, 2, 6, 11, 3, 885]<br/>class = 19>, fillcolor="#e75a48"] ;
0 -> 142 [labeldistance=2.5, labelangle=-45, headlabel="False"] ;
143 [label=<gini = 0.785<br/>samples = 31<br/>value = [3, 4, 12, 3, 4, 0, 0, 0, 0, 0, 0, 0, 0, 0<br/>0, 0, 0, 2, 0, 3]<br/>class = 2>, fillcolor="#f6f7c4"] ;
142 -> 143 ;
144 [label=<gini = 0.087<br/>samples = 923<br/>value = [8, 2, 1, 4, 0, 0, 0, 0, 0, 2, 0, 0, 2, 1<br/>1, 2, 6, 9, 3, 882]<br/>class = 19>, fillcolor="#e65542"] ;
142 -> 144 ;
}
