digraph Tree {
node [shape=box, style="filled, rounded", color="black", fontname="helvetica"] ;
edge [fontname="helvetica"] ;
0 [label=<trans_time7 &le; 3.895<br/>gini = 0.798<br/>samples = 143<br/>value = [1, 28, 17, 17, 46, 9, 1, 24]<br/>class = 4>, fillcolor="#e0f0fb"] ;
1 [label=<size6 &le; 23.712<br/>gini = 0.755<br/>samples = 115<br/>value = [1, 28, 17, 16, 43, 8, 1, 1]<br/>class = 4>, fillcolor="#ddeefb"] ;
0 -> 1 [labeldistance=2.5, labelangle=45, headlabel="True"] ;
2 [label=<delivery_rate8 &le; 40.62<br/>gini = 0.578<br/>samples = 35<br/>value = [1, 22, 3, 2, 4, 1, 1, 1]<br/>class = 1>, fillcolor="#dff08c"] ;
1 -> 2 ;
3 [label=<trans_time0 &le; 1.282<br/>gini = 0.744<br/>samples = 11<br/>value = [0, 3, 1, 2, 4, 1, 0, 0]<br/>class = 4>, fillcolor="#e6f3fc"] ;
2 -> 3 ;
4 [label=<gini = 0.0<br/>samples = 3<br/>value = [0, 0, 0, 0, 3, 0, 0, 0]<br/>class = 4>, fillcolor="#399de5"] ;
3 -> 4 ;
5 [label=<cwnd2 &le; 44.0<br/>gini = 0.75<br/>samples = 8<br/>value = [0, 3, 1, 2, 1, 1, 0, 0]<br/>class = 1>, fillcolor="#f6fbde"] ;
3 -> 5 ;
6 [label=<rtt8 &le; 0.458<br/>gini = 0.375<br/>samples = 4<br/>value = [0, 3, 0, 0, 1, 0, 0, 0]<br/>class = 1>, fillcolor="#daee7b"] ;
5 -> 6 ;
7 [label=<gini = 0.0<br/>samples = 1<br/>value = [0, 0, 0, 0, 1, 0, 0, 0]<br/>class = 4>, fillcolor="#399de5"] ;
6 -> 7 ;
8 [label=<gini = 0.0<br/>samples = 3<br/>value = [0, 3, 0, 0, 0, 0, 0, 0]<br/>class = 1>, fillcolor="#c8e539"] ;
6 -> 8 ;
9 [label=<gini = 0.625<br/>samples = 4<br/>value = [0, 0, 1, 2, 0, 1, 0, 0]<br/>class = 3>, fillcolor="#bdf6e3"] ;
5 -> 9 ;
10 [label=<trans_time7 &le; 2.575<br/>gini = 0.361<br/>samples = 24<br/>value = [1, 19, 2, 0, 0, 0, 1, 1]<br/>class = 1>, fillcolor="#d4eb66"] ;
2 -> 10 ;
11 [label=<min_rtt0 &le; 0.5<br/>gini = 0.172<br/>samples = 21<br/>value = [0, 19, 2, 0, 0, 0, 0, 0]<br/>class = 1>, fillcolor="#cee84e"] ;
10 -> 11 ;
12 [label=<gini = 0.095<br/>samples = 20<br/>value = [0, 19, 1, 0, 0, 0, 0, 0]<br/>class = 1>, fillcolor="#cbe643"] ;
11 -> 12 ;
13 [label=<gini = 0.0<br/>samples = 1<br/>value = [0, 0, 1, 0, 0, 0, 0, 0]<br/>class = 2>, fillcolor="#47e539"] ;
11 -> 13 ;
14 [label=<gini = 0.667<br/>samples = 3<br/>value = [1, 0, 0, 0, 0, 0, 1, 1]<br/>class = 0>, fillcolor="#ffffff"] ;
10 -> 14 ;
15 [label=<trans_time6 &le; 1.258<br/>gini = 0.688<br/>samples = 80<br/>value = [0, 6, 14, 14, 39, 7, 0, 0]<br/>class = 4>, fillcolor="#b4daf5"] ;
1 -> 15 ;
16 [label=<rtt4 &le; 0.503<br/>gini = 0.722<br/>samples = 38<br/>value = [0, 5, 13, 12, 8, 0, 0, 0]<br/>class = 2>, fillcolor="#f8fef7"] ;
15 -> 16 ;
17 [label=<delivery_rate1 &le; 308.421<br/>gini = 0.42<br/>samples = 10<br/>value = [0, 3, 0, 0, 7, 0, 0, 0]<br/>class = 4>, fillcolor="#8ec7f0"] ;
16 -> 17 ;
18 [label=<gini = 0.0<br/>samples = 7<br/>value = [0, 0, 0, 0, 7, 0, 0, 0]<br/>class = 4>, fillcolor="#399de5"] ;
17 -> 18 ;
19 [label=<gini = 0.0<br/>samples = 3<br/>value = [0, 3, 0, 0, 0, 0, 0, 0]<br/>class = 1>, fillcolor="#c8e539"] ;
17 -> 19 ;
20 [label=<rtt5 &le; 0.708<br/>gini = 0.594<br/>samples = 28<br/>value = [0, 2, 13, 12, 1, 0, 0, 0]<br/>class = 2>, fillcolor="#f3fdf3"] ;
16 -> 20 ;
21 [label=<rtt0 &le; 0.456<br/>gini = 0.5<br/>samples = 18<br/>value = [0, 1, 4, 12, 1, 0, 0, 0]<br/>class = 3>, fillcolor="#8ef0d0"] ;
20 -> 21 ;
22 [label=<gini = 0.56<br/>samples = 5<br/>value = [0, 1, 3, 1, 0, 0, 0, 0]<br/>class = 2>, fillcolor="#a3f29c"] ;
21 -> 22 ;
23 [label=<min_rtt8 &le; 0.5<br/>gini = 0.272<br/>samples = 13<br/>value = [0, 0, 1, 11, 1, 0, 0, 0]<br/>class = 3>, fillcolor="#5ae9ba"] ;
21 -> 23 ;
24 [label=<gini = 0.0<br/>samples = 11<br/>value = [0, 0, 0, 11, 0, 0, 0, 0]<br/>class = 3>, fillcolor="#39e5ac"] ;
23 -> 24 ;
25 [label=<gini = 0.5<br/>samples = 2<br/>value = [0, 0, 1, 0, 1, 0, 0, 0]<br/>class = 2>, fillcolor="#ffffff"] ;
23 -> 25 ;
26 [label=<size6 &le; 361.7<br/>gini = 0.18<br/>samples = 10<br/>value = [0, 1, 9, 0, 0, 0, 0, 0]<br/>class = 2>, fillcolor="#5be84f"] ;
20 -> 26 ;
27 [label=<gini = 0.0<br/>samples = 9<br/>value = [0, 0, 9, 0, 0, 0, 0, 0]<br/>class = 2>, fillcolor="#47e539"] ;
26 -> 27 ;
28 [label=<gini = 0.0<br/>samples = 1<br/>value = [0, 1, 0, 0, 0, 0, 0, 0]<br/>class = 1>, fillcolor="#c8e539"] ;
26 -> 28 ;
29 [label=<trans_time0 &le; 0.762<br/>gini = 0.424<br/>samples = 42<br/>value = [0, 1, 1, 2, 31, 7, 0, 0]<br/>class = 4>, fillcolor="#77bced"] ;
15 -> 29 ;
30 [label=<size5 &le; 270.825<br/>gini = 0.449<br/>samples = 7<br/>value = [0, 1, 0, 0, 1, 5, 0, 0]<br/>class = 5>, fillcolor="#8e7bee"] ;
29 -> 30 ;
31 [label=<gini = 0.0<br/>samples = 5<br/>value = [0, 0, 0, 0, 0, 5, 0, 0]<br/>class = 5>, fillcolor="#5639e5"] ;
30 -> 31 ;
32 [label=<gini = 0.5<br/>samples = 2<br/>value = [0, 1, 0, 0, 1, 0, 0, 0]<br/>class = 1>, fillcolor="#ffffff"] ;
30 -> 32 ;
33 [label=<trans_time5 &le; 6.416<br/>gini = 0.258<br/>samples = 35<br/>value = [0, 0, 1, 2, 30, 2, 0, 0]<br/>class = 4>, fillcolor="#57ace9"] ;
29 -> 33 ;
34 [label=<in_flight4 &le; 28.5<br/>gini = 0.169<br/>samples = 33<br/>value = [0, 0, 0, 1, 30, 2, 0, 0]<br/>class = 4>, fillcolor="#4ca6e8"] ;
33 -> 34 ;
35 [label=<gini = 0.062<br/>samples = 31<br/>value = [0, 0, 0, 0, 30, 1, 0, 0]<br/>class = 4>, fillcolor="#40a0e6"] ;
34 -> 35 ;
36 [label=<gini = 0.5<br/>samples = 2<br/>value = [0, 0, 0, 1, 0, 1, 0, 0]<br/>class = 3>, fillcolor="#ffffff"] ;
34 -> 36 ;
37 [label=<gini = 0.5<br/>samples = 2<br/>value = [0, 0, 1, 1, 0, 0, 0, 0]<br/>class = 2>, fillcolor="#ffffff"] ;
33 -> 37 ;
38 [label=<trans_time4 &le; 3.859<br/>gini = 0.311<br/>samples = 28<br/>value = [0, 0, 0, 1, 3, 1, 0, 23]<br/>class = 7>, fillcolor="#ea618e"] ;
0 -> 38 [labeldistance=2.5, labelangle=-45, headlabel="False"] ;
39 [label=<gini = 0.56<br/>samples = 5<br/>value = [0, 0, 0, 1, 3, 1, 0, 0]<br/>class = 4>, fillcolor="#9ccef2"] ;
38 -> 39 ;
40 [label=<gini = 0.0<br/>samples = 23<br/>value = [0, 0, 0, 0, 0, 0, 0, 23]<br/>class = 7>, fillcolor="#e53972"] ;
38 -> 40 ;
}
